tree
version=v2
num_class=1
num_tree_per_iteration=1
label_index=0
max_feature_idx=4
objective=regression
feature_names=M_h C_h S_h z_h Delta3_h
feature_infos=[-2.2337381451306286:6.957848234637404] [-5.3907192873917431:34.500883649261361] [-1.665938832194866:43.245667261598825] [-2.1562760150330376:7.6008338058571008] [-1.0063962720976034:15.942360957030926]
tree_sizes=2534 2592 2596 2590 2588 2602 2593 2598 2602 2620 2601 2616 2622 2626 2623 2641 2628 2625 2628 2640 2650 2643 2649 2651 2659 2646 2663 2649 2652 2671 2654 2666 2671 2653 2627 2657 2627 2664 2647 2651 2661 2638 2671 2639 2615 2662 2659 2648 2685 2635 2620 2657 2638 2662 2659 2656 2651 2620 2653 2630 2653 2651 2642 2574 2638 2643 2550 2560 2658 2626 2628 2621 2647 2489 2625 2667 2637 2639 2669 2656 2635 2632 2396 2657 2622 2624 2643 2622 2641 2657 2650 2636

Tree=0
num_leaves=31
num_cat=0
split_feature=0 3 0 0 3 3 3 3 0 3 1 0 2 4 0 1 4 0 3 3 0 2 0 0 0 4 3 0 2 2
split_gain=1526.43 243.472 105.615 94.3133 70.202 59.4734 58.9103 55.3509 45.4378 24.4752 22.1298 18.9579 15.9942 14.1224 14.1007 13.1976 10.5178 8.96849 8.71578 8.58125 7.48734 5.87038 5.95474 5.37115 5.30779 5.22185 5.21012 4.82872 4.77441 4.37799
threshold=0.83789184737214373 0.84970226312023112 0.39107108380006322 1.2814844367162734 -0.72720437459943643 -0.23442105030929605 2.2294955711251432 -0.33297771516504732 0.2514185428616193 -1.4171010286027055 -0.54057100006798608 1.9022532952490592 -0.38421074510995995 0.91301426880797798 -0.18457427938385651 -0.60062817099512111 1.6986075526038757 0.64317961187655781 -1.4171010286027055 -1.4171010286027055 -0.49449968090139523 -0.019145245994533686 1.6058279715290917 0.47952616266515358 1.0230178649390773 1.0690186088525533 1.0000000180025095e-35 -0.10042714140014895 -0.3051247608702134 0.41624396392774093
decision_type=2 2 2 2 2 2 2 2 2 2 2 2 2 2 2 2 2 2 2 2 2 2 2 2 2 2 2 2 2 2
left_child=1 2 5 4 19 10 8 15 13 11 18 -5 26 20 25 -4 -8 28 -1 -2 -3 -11 -23 -10 -14 -7 -6 -12 -9 -19
right_child=3 6 7 9 12 14 16 17 23 21 27 -13 24 -15 -16 -17 -18 29 -20 -21 -22 22 -24 -25 -26 -27 -28 -29 -30 -31
leaf_value=0.66286833078134733 0.68032358983433483 0.68677054945544336 0.67275957974487688 0.69604387597162953 0.71689974953444979 0.6800274149568345 0.70532512759000576 0.69996161585337846 0.70610311643286705 0.73030014418275013 0.67598995454467548 0.72208995546470878 0.70525137238904378 0.69885299369074172 0.68565670881462304 0.68607779121308543 0.71989970831969619 0.70799092199255031 0.67200533228788795 0.69683818230477323 0.69340622141351171 0.71833926913173296 0.72783263346645855 0.72114181721142323 0.71576344839938266 0.6862204983997876 0.72797150671099875 0.68000825577895352 0.69121742707242462 0.6942656568348492
leaf_count=1247 401 5272 1000 438 682 18442 1188 1278 472 4436 10200 772 926 1750 7169 2907 849 1240 6413 1461 2510 1015 1893 478 998 1470 1128 4231 1221 286
internal_value=0 -0.0608538 -0.0885424 0.299422 0.198485 -0.105815 0.0654442 0.018535 0.0352041 0.365456 -0.144321 0.233675 0.277578 0.0144188 -0.0744044 -0.0662526 0.221054 0.100837 -0.187764 0.0398736 -0.00383427 0.387168 0.352249 0.243757 0.214099 -0.0880962 0.345055 -0.121262 0.06395 0.161243
internal_count=83773 69623 57104 14150 5596 49172 12519 7932 10482 8554 22091 1210 3734 9532 27081 3907 2037 4025 7660 1862 7782 7344 2908 950 1924 19912 1810 14431 2499 1526
shrinkage=1


Tree=1
num_leaves=31
num_cat=0
split_feature=0 3 0 3 0 1 0 3 3 3 4 0 3 3 2 0 3 3 0 0 1 4 2 3 2 0 0 3 0 3
split_gain=1238 193.265 106.19 54.9442 56.9378 50.7733 48.2954 57.6308 42.1449 16.9216 16.8894 15.572 14.646 13.0177 10.661 9.18264 8.77936 8.72213 8.33317 6.97625 6.49265 6.06468 5.83405 5.47915 5.08109 4.34042 4.052 3.62089 3.57269 3.27108
threshold=0.92309901811329276 0.75114559826447957 0.51118038237158558 2.5251655656923986 0.33290450888896111 -0.35002502767632687 1.4335095576867694 -0.72720437459943643 -0.72720437459943643 1.0000000180025095e-35 0.91301426880797798 0.12010180920356144 -1.1214310340289464 -1.4171010286027055 -0.38421074510995995 1.9793206917706987 -1.5156576934600829 1.0000000180025095e-35 -0.27116847689031021 -0.052395025937084394 -0.5136300117230751 0.67900775874111441 -0.29595485544770178 1.1453722576956162 -0.6333532479245616 1.0730133354167186 1.1569788683040414 -0.62864770974205875 0.70109717528855586 -1.6142143583174606
decision_type=2 2 2 2 2 2 2 2 2 2 2 2 2 2 2 2 2 2 2 2 2 2 2 2 2 2 2 2 2 2
left_child=1 2 5 4 10 12 7 16 20 19 18 -11 29 15 -9 -8 -2 28 -3 -7 -4 -5 -19 -12 -6 -18 -16 -14 -10 -1
right_child=6 3 8 21 24 9 13 14 17 11 23 -13 27 -15 26 -17 25 22 -20 -21 -22 -23 -24 -25 -26 -27 -28 -29 -30 -31
leaf_value=-0.026169112440230565 -0.0081388823224712893 -0.0025805042867088758 -0.01472381759433013 0.013308427948499988 0.028843665625285814 -0.01103546706231583 0.010433753809330702 0.03457280393313613 0.0013885622061303711 -0.0064256471532674374 0.002671318304880421 0.0020873198992600135 -0.01492286748476998 0.035747761653142751 0.019510116136248715 0.030205902403689401 0.0034103511071619033 0.019401649887581869 0.0041180432355431102 -0.0065361645364988884 -0.0032567322859185276 0.026249938589323563 0.0087178426752387277 0.012755057450466798 0.016270914579929317 0.014250465706044785 0.028800226143205682 -0.011296036306562021 0.0092623609977493769 -0.018476187157267194
leaf_count=686 298 8258 786 542 652 11364 347 1767 1113 14485 928 2523 4358 6164 1024 727 563 1097 2396 4946 1328 1091 957 1285 634 1074 867 7473 1195 2845
internal_value=0 -0.0516996 -0.0796228 0.0458634 0.0258236 -0.0956265 0.285845 0.216052 0.0406774 -0.0736971 0.00577155 -0.0516282 -0.143188 0.339775 0.289881 0.238177 0.0764839 0.0968376 -0.0107405 -0.0967106 -0.0752027 0.219546 0.144238 0.0852654 0.226453 0.105223 0.237695 -0.12632 0.0546533 -0.199708
internal_count=83773 70942 55156 15786 14153 48680 12831 5593 6476 33318 12867 17008 15362 7238 3658 1074 1935 4362 10654 16310 2114 1633 2054 2213 1286 1637 1891 11831 2308 3531
shrinkage=0.1


Tree=2
num_leaves=31
num_cat=0
split_feature=0 3 0 1 3 0 3 0 3 3 0 3 3 3 2 4 4 3 0 0 0 0 2 0 4 1 0 0 0 3
split_gain=1006.21 164.6 78.6839 60.2551 54.069 52.2048 39.6905 27.0946 18.3662 16.5191 15.801 13.8513 12.4826 9.67767 9.59696 8.90592 7.55132 7.35242 5.24076 4.94991 4.83579 4.57961 3.86903 4.09643 3.77571 3.37501 3.37409 3.24912 3.14896 3.08719
threshold=0.77721401983195093 0.84970226312023112 1.2176725025388482 -0.35002502767632687 -0.53009104488712044 0.2652536672877514 2.2294955711251432 0.12010180920356144 -1.1214310340289464 1.0000000180025095e-35 1.9022532952490592 -1.1214310340289464 1.0000000180025095e-35 -1.2199876988863241 -0.43027247673500352 0.44500124867425123 1.9660435641088625 -1.7127710231748383 -0.27906295881923265 0.47952616266515358 0.30498735018977779 0.52845223040207878 -0.18655233913295269 1.5612825877812477 2.5399166721299795 -1.0045133642110986 0.55922082789024719 -0.50196702358347123 1.0470591166179271 -1.6142143583174606
decision_type=2 2 2 2 2 2 2 2 2 2 2 2 2 2 2 2 2 2 2 2 2 2 2 2 2 2 2 2 2 2
left_child=1 3 4 11 13 12 7 15 10 26 17 29 -5 -2 -6 27 -8 -4 -14 -9 25 -11 -10 -24 -17 -13 -7 -3 -15 -1
right_child=2 6 8 5 14 9 16 19 22 21 -12 20 18 28 -16 24 -18 -19 -20 -21 -22 -23 23 -25 -26 -27 -28 -29 -30 -31
leaf_value=-0.02334500450307354 -0.0064956174355450085 -0.0025075787239929089 -0.0092630757157533376 -0.0092461696645028679 0.027935617150488524 -0.0043579085872587752 0.013408858695676484 0.012239142775620817 0.033881752931238213 0.0043859627648673155 0.028485216714531799 -0.015727006542862014 -0.0063877403874883117 0.0040809834170919736 0.017357803036242545 0.004068536411188174 0.026059326761510928 0.015501173736278979 -0.0026369680648694561 0.025737998474860659 -0.0052841106850985697 0.011996488355335733 0.02432282390700469 0.031979419443948276 0.013930071085254162 -0.010853590069998252 0.0015497499669073012 0.0023034771212172558 0.012967368195154635 -0.016294269238480399
leaf_count=772 735 4596 139 14326 1665 2351 1293 805 3828 1815 1407 1666 12732 1148 1769 2106 743 872 5266 410 1372 1401 1127 1839 476 9665 1642 2021 611 3175
internal_value=0 -0.0514741 0.233343 -0.0745272 0.143476 -0.0532742 0.0525577 0.0275923 0.291174 0.0236744 0.216328 -0.12499 -0.0704355 0.0314104 0.224865 0.00905484 0.180254 0.120964 -0.0529031 0.167943 -0.108912 0.0770137 0.317812 0.290701 0.0588654 -0.115701 -0.0192856 -0.0103816 0.0716773 -0.176733
internal_count=83773 68633 15140 56183 5928 39533 12450 10414 9212 7209 2418 16650 32324 2494 3434 9199 2036 1011 17998 1215 12703 3216 6794 2966 2582 11331 3993 6617 1759 3947
shrinkage=0.1


Tree=3
num_leaves=31
num_cat=0
split_feature=0 3 0 3 3 0 3 3 0 1 0 4 3 3 3 2 1 0 1 4 0 0 4 1 3 2 3 0 3 2
split_gain=816.942 132.039 80.2815 43.4409 35.357 31.6874 40.3576 25.1698 24.4033 15.6693 14.1582 10.1317 8.98746 8.86974 7.69295 7.19473 5.69168 5.27585 5.27021 5.1188 4.90754 4.57718 4.0228 3.91281 3.86262 3.85403 3.85015 3.23955 3.0954 2.6432
threshold=0.92309901811329276 0.94825892797598244 0.49456744281946857 -0.13586438545354473 -0.33297771516504732 1.4335095576867694 -0.82576103945681401 2.9193922251316646 0.097250799332457269 -0.74218300315169594 0.12010180920356144 2.3170533292091577 -1.6142143583174606 1.0000000180025095e-35 -1.4171010286027055 -0.3051247608702134 -0.79922902579452682 2.1434084304689041 -0.046723676750470906 0.13299256858509989 1.1014264048254363 0.47952616266515358 0.043847231416770889 -0.63231622143852739 -0.92431770431419147 0.29445537162271124 -1.4171010286027055 1.8429251761215217 0.15980560912184033 -0.1783734032726291
decision_type=2 2 2 2 2 2 2 2 2 2 2 2 2 2 2 2 2 2 2 2 2 2 2 2 2 2 2 2 2 2
left_child=1 2 3 9 14 6 16 8 11 26 19 22 17 20 -4 28 -2 -7 -11 -5 -8 -10 -3 -16 27 -15 -1 -14 -6 -12
right_child=5 7 4 10 15 12 13 -9 21 18 29 -13 24 25 23 -17 -18 -19 -20 -21 -22 -23 -24 -25 -26 -27 -28 -29 -30 -31
leaf_value=-0.020131534695417577 -0.0056408406341084388 -0.00043845658546364462 -0.014897958748355269 -0.0062013814802035529 0.010495890125579934 0.0021051644118560944 0.012783795000240534 0.0203101612893683 0.014151823982396786 -0.010216123959503425 0.0034287832467163114 0.014656382847958199 0.01927997548151535 0.030148510645062861 -0.0092127099045428412 0.0062055941015035842 0.0078671500667603263 0.022990702381660004 -0.0069643226025887022 -0.0027864186402657897 0.022649251438864034 0.028184968999514511 0.0044266301049472141 0.00030754211852601507 0.030259774357186561 0.017946667293033024 -0.013556506906983307 0.027610928585270367 0.018569753344893618 -0.0019817987684425469
leaf_count=1113 417 3904 484 18233 845 200 856 1180 601 12258 2224 659 658 1544 521 1771 1238 306 8399 5781 1227 379 3010 2519 4468 311 4457 1606 1084 1520
internal_value=0 -0.0419974 -0.0592008 -0.0724489 0.0398021 0.232202 0.175669 0.0661916 0.0473031 -0.101632 -0.0448753 0.0280879 0.275886 0.230737 -0.0318835 0.108078 0.0446363 0.147355 -0.0889396 -0.0537928 0.185951 0.195789 0.0167955 -0.0132405 0.285547 0.281028 -0.148703 0.251897 0.15033 0.0123218
internal_count=83773 70942 61209 53985 7224 12831 5593 9733 8553 26227 27758 7573 7238 3938 3524 3700 1655 506 20657 24014 2083 980 6914 3040 6732 1855 5570 2264 1929 3744
shrinkage=0.1


Tree=4
num_leaves=31
num_cat=0
split_feature=0 3 0 1 3 0 4 3 3 3 0 3 0 3 2 3 0 1 3 2 0 3 0 0 0 0 3 3 0 3
split_gain=664.158 110.209 52.015 48.7009 39.4709 35.9282 19.3903 13.7089 11.8708 11.6849 10.4479 10.3851 8.70893 7.30587 7.25685 6.92029 6.11932 5.21611 4.94409 4.57 4.18093 3.59679 4.68947 3.05069 3.02084 2.82816 2.73352 2.58194 2.55126 2.52593
threshold=0.77721401983195093 1.0468155928317338 1.2814844367162734 -0.18815806548274108 -0.53009104488712044 0.23931467952331614 1.4868873768290944 -0.72720437459943643 0.15980560912184033 -1.4171010286027055 0.13159376179996232 0.15980560912184033 1.9793206917706987 -1.4171010286027055 -0.55498030739067661 3.1165055548431679 0.2652536672877514 1.565610727169956 -1.4171010286027055 -0.17029841021799641 -0.27116847689031021 -0.53009104488712044 1.7843078275105959 1.0230178649390773 1.0730133354167186 -0.49449968090139523 -1.6142143583174606 -1.7127710231748383 -0.10042714140014895 0.15980560912184033
decision_type=2 2 2 2 2 2 2 2 2 2 2 2 2 2 2 2 2 2 2 2 2 2 2 2 2 2 2 2 2 2
left_child=1 3 4 7 13 11 10 18 26 12 15 28 27 -2 -6 25 -9 -8 -1 -10 -13 22 -11 29 -15 -3 -7 -4 -5 -16
right_child=2 6 9 5 14 8 17 16 19 21 -12 20 -14 24 23 -17 -18 -19 -20 -21 -22 -23 -24 -25 -26 -27 -28 -29 -30 -31
leaf_value=-0.016691563072409269 -0.008066006899903869 0.00050646340093566246 -0.0066867556658628813 -0.0075690901266615498 0.024114727442385631 -0.022302351604698095 0.011680619473735809 -0.0080194818083687558 0.010899577147724547 0.01876890419080578 0.017174977016289016 -0.0041305677593758711 0.021910501021393507 0.0028182576321287393 0.0082213891631936296 0.014715861899584994 -0.0011561246354825382 0.022805211394354031 -0.011065531339321963 0.0023868760186746556 -0.00041305720646098843 0.02780634339802944 0.026159524384162348 0.019500047742140467 0.010298280783884492 0.0056892387795072896 -6.3731761083307912e-05 0.0093286900824921977 -0.0043880640579157951 0.017298173856253766
leaf_count=1989 473 4048 143 11403 1575 56 1148 12121 1853 1376 556 11654 727 1468 735 453 1455 666 7276 956 4086 3685 2283 955 854 1423 4253 340 3237 526
internal_value=0 -0.0418196 0.189578 -0.0566764 0.122778 -0.0345035 0.0662637 -0.0930776 0.0294448 0.241009 0.0406814 -0.0494865 0.149954 0.0326179 0.18925 0.0283799 -0.0728391 0.15765 -0.122733 0.0800241 -0.0316553 0.256011 0.233802 0.152365 0.0556931 0.018545 -0.00352746 0.0458706 -0.0686574 0.120076
internal_count=83773 68633 15140 60339 6586 37498 8294 22841 7118 8554 6480 30380 1210 2795 3791 5924 13576 1814 9265 2809 15740 7344 3659 2216 2322 5471 4309 483 14640 1261
shrinkage=0.1


Tree=5
num_leaves=31
num_cat=0
split_feature=0 3 0 3 0 3 0 3 1 4 3 3 0 0 0 2 3 4 1 0 0 3 2 0 2 1 1 2 2 1
split_gain=538.403 89.1263 45.3957 26.1183 27.0373 22.0732 20.9372 24.855 20.5975 8.47414 7.90381 7.69829 7.55295 7.01913 5.82474 5.35227 5.01895 4.53438 4.29471 4.13908 4.0398 3.6737 3.57077 3.36445 3.19099 2.91049 2.61148 2.45944 2.37169 2.18194
threshold=0.92309901811329276 0.65258893340872837 0.39107108380006322 1.6381555819825044 0.47952616266515358 -0.72720437459943643 1.3521054635620151 -0.72720437459943643 -0.5136300117230751 1.2528808667622318 1.0000000180025095e-35 -1.4171010286027055 -0.080711372226518183 0.68197704460754827 2.1434084304689041 -0.38421074510995995 -1.2199876988863241 0.42828649795518919 -0.70099263871936401 0.13159376179996232 -0.31074386865862874 -1.6142143583174606 0.3517746661852505 -0.25413275881206182 -0.52390327673936266 1.7373759983340273 -0.35002502767632687 -0.42331040831058697 0.1240606906831957 1.7373759983340273
decision_type=2 2 2 2 2 2 2 2 2 2 2 2 2 2 2 2 2 2 2 2 2 2 2 2 2 2 2 2 2 2
left_child=1 2 8 4 12 21 7 18 16 19 23 14 17 24 -8 -9 -1 -3 -2 25 -12 -4 -15 -10 -7 -5 -23 -6 -13 -11
right_child=6 3 5 9 27 13 11 15 10 29 20 28 -14 22 -16 -17 -18 -19 -20 -21 -22 26 -24 -25 -26 -27 -28 -29 -30 -31
leaf_value=-0.0148414943475951 -0.0044464646444287133 -0.0026579439266201945 -0.01682091730859174 0.0034349636770855869 0.022358936002676928 0.0060965383317300023 0.0064601344226630358 0.023070352838698821 -0.007989552587405635 0.013032771207351216 -0.0050411115453064875 0.024659545875564355 0.0051226063115705151 0.011210947194245664 0.020824205250961941 0.014945837614876209 -0.0094156678702412584 0.0023999606602933287 0.0069461043750931352 0.022820808754831154 -0.0017852628633917148 -0.0081354220275202654 0.0021131037070840656 -0.005212882154303598 -0.00028273077469527356 0.011988338950637728 -0.0017755967644995298 0.011476404902400802 0.020688769608429573 0.020965272095243681
leaf_count=2143 452 7694 279 1623 515 1201 507 1563 11201 795 10916 4490 2086 1784 637 1685 8338 2303 1235 148 5855 1211 569 7149 2259 527 1383 348 2262 615
internal_value=0 -0.0340942 -0.0537259 0.0299005 0.00870639 0.012532 0.188505 0.137409 -0.0663463 0.103897 -0.0547363 0.22044 -0.00350687 0.0479717 0.144583 0.188555 -0.105251 -0.0149276 0.0389368 0.0664503 -0.0390445 -0.059174 0.0901092 -0.0690779 0.0193158 0.0553154 -0.0474466 0.179706 0.233293 0.164927
internal_count=83773 70942 54288 16654 12946 8686 12831 4935 45602 3708 35121 7896 12083 5813 1144 3248 10481 9997 1687 2298 16771 2873 2353 18350 3460 2150 2594 863 6752 1410
shrinkage=0.1


Tree=6
num_leaves=31
num_cat=0
split_feature=0 3 1 0 3 0 4 3 3 0 3 0 1 3 0 2 3 1 1 2 0 3 1 4 0 1 3 3 0 3
split_gain=437.161 75.0419 35.3469 34.602 25.3473 22.5589 12.3678 11.7323 9.07241 8.95019 7.42188 6.65303 6.20605 6.20029 5.87214 5.67285 4.20826 4.0199 3.73192 3.52418 3.09822 3.00186 2.87288 2.83255 2.58981 2.55749 2.48811 2.42895 2.17275 1.86669
threshold=0.77721401983195093 1.1453722576956162 -0.10101645414512811 1.2176725025388482 -0.4315343800289298 0.23931467952331614 1.4868873768290944 -0.72720437459943643 -0.82576103945681401 1.6630406726977272 0.15980560912184033 0.46322411704847194 -0.75421722996208362 0.25836227397759165 0.36311030655530907 0.5991910302051745 3.3136188845546712 -1.0296886587758578 -1.1465330434350556 -0.66504700855380883 -0.27116847689031021 0.65258893340872837 2.4505469181618675 0.94087218667308037 -0.49449968090139523 1.565610727169956 -1.0228743691715689 -1.7127710231748383 1.0230178649390773 -1.6142143583174606
decision_type=2 2 2 2 2 2 2 2 2 2 2 2 2 2 2 2 2 2 2 2 2 2 2 2 2 2 2 2 2 2
left_child=1 2 7 4 12 13 14 17 9 18 29 23 -2 22 16 21 24 -1 -5 -12 -15 28 -4 -9 -3 -8 -14 -11 -6 -7
right_child=3 6 5 8 15 10 25 11 -10 27 19 -13 26 20 -16 -17 -18 -19 -20 -21 -22 -23 -24 -25 -26 -27 -28 -29 -30 -31
leaf_value=-0.013466387049183591 -0.0080318010595696494 0.0010612694044002059 -0.0051475108812968568 -0.0058962016715668145 0.013098536847944037 -0.020976358705333303 0.010644461983241038 -0.006544060520709472 0.021811182413673094 0.009526054017732842 0.011331298094127053 0.0020899294500164554 0.00017259694036826016 -0.0030196249953612702 0.020054080403610688 0.0049552076411275457 0.013451145652074632 -0.0088232605674372858 0.010397424346533589 0.0039845219768959881 0.00038817723578983565 0.023773864782806853 0.032779034636914728 -0.0014500803510655636 0.0061979032413190579 0.018586220432860921 0.00703393679392042 0.019698293911691672 0.019645415323254745 0.00022459510632060671
leaf_count=2475 470 3481 14471 164 1352 42 1044 14273 5470 261 1064 1045 823 10353 218 436 379 7561 984 1690 3594 559 20 1182 1367 663 1477 2333 811 3711
internal_value=0 -0.0339285 -0.0452064 0.153806 0.0942104 -0.024312 0.0630202 -0.0727221 0.192156 0.154213 0.0288041 -0.0563233 0.0243907 -0.0364657 0.0397366 0.155452 0.03303 -0.0996831 0.0806976 0.0682293 -0.0214147 0.172415 -0.0509517 -0.0615447 0.0250966 0.13729 0.0457877 0.186748 0.155532 -0.000126658
internal_count=83773 68633 61481 15140 5928 34945 7152 26536 9212 3742 6507 16500 2770 28438 5445 3158 5227 10036 1148 2754 13947 2722 14491 15455 4848 1707 2300 2594 2163 3753
shrinkage=0.1


Tree=7
num_leaves=31
num_cat=0
split_feature=0 3 0 3 3 3 0 0 3 3 0 3 4 4 3 0 3 3 1 0 4 0 2 2 2 0 0 0 3 1
split_gain=355.125 60.3105 35.4799 19.7552 16.5597 14.6333 14.5523 14.1655 20.2175 5.89585 5.47843 5.2069 4.955 4.50437 4.32602 4.12196 4.05509 3.74124 3.43519 3.12787 2.91647 2.77327 2.45958 2.41151 2.26973 2.19551 2.18965 2.1512 1.90548 1.85793
threshold=0.92309901811329276 0.84970226312023112 0.33290450888896111 -0.33297771516504732 -0.4315343800289298 2.5251655656923986 0.2514185428616193 1.4773723421516574 -0.82576103945681401 -1.4171010286027055 0.66187592063180734 1.0000000180025095e-35 2.5399166721299795 0.99658802240328581 -1.3185443637445149 -0.21101044063155774 -1.7127710231748383 -1.5156576934600829 -0.54057100006798608 -0.49449968090139523 0.29456849220269593 1.1014264048254363 -0.68142704423586997 0.29445537162271124 -0.15270979639702506 2.2460118907741546 -1.250945912465671 0.54387736766824912 -0.92431770431419147 0.55213910901486407
decision_type=2 2 2 2 2 2 2 2 2 2 2 2 2 2 2 2 2 2 2 2 2 2 2 2 2 2 2 2 2 2
left_child=1 2 4 14 9 6 12 8 17 26 24 21 19 15 -4 -6 25 -2 -11 -3 -7 -10 -12 -13 -5 -9 -1 -8 -18 -15
right_child=7 5 3 10 13 20 27 16 11 18 22 23 -14 29 -16 -17 28 -19 -20 -21 -22 -23 -24 -25 -26 -27 -28 -29 -30 -31
leaf_value=0.019170615192325342 -0.0070727285005798713 -0.00076941133487248793 -0.0091956420240045487 0.0052008793684309995 -0.0049745015342847598 0.0042017743043280785 0.0094945157731407791 -0.0026874725669329162 0.0077299630536247169 -0.0091176681013217919 0.014940065658785209 0.020835431960241131 0.010129971725870756 -0.0010361206397921029 -0.0018069844980146321 -0.0022818630126171325 0.01664261596955037 0.0048979535198438381 -0.0059677189441892887 0.003175214758659574 0.014532635614408464 0.015007054471128446 0.0073089147360650948 0.011427255040490344 -0.00018013212107921973 0.014516854477904692 -0.013294752525234705 0.01867493152007944 0.020179173518540906 0.006177682617603264
leaf_count=21 319 6437 979 1909 20897 347 595 131 856 5432 612 1633 562 1912 4158 7810 2383 1438 9547 2923 1286 1349 1363 327 1330 171 1936 447 4224 439
internal_value=0 -0.0276896 -0.0412377 0.0118619 -0.0526898 0.0350603 0.0219066 0.153095 0.117206 -0.0778443 0.0552249 0.155156 0.0101003 -0.0389731 -0.032151 -0.0424194 0.183857 0.0272456 -0.0711002 0.00462441 0.123374 0.12182 0.0967361 0.192658 0.0299133 0.0705405 -0.129464 0.134328 0.189036 0.00310906
internal_count=83773 70942 58345 10351 47994 12597 10964 12831 5922 16936 5214 4165 9922 31058 5137 28707 6909 1757 14979 9360 1633 2205 1975 1960 3239 302 1957 1042 6607 2351
shrinkage=0.1


Tree=8
num_leaves=31
num_cat=0
split_feature=0 3 1 0 0 3 1 4 3 2 0 0 0 4 3 1 3 3 3 3 1 2 3 0 2 0 0 3 1 4
split_gain=288.319 50.798 26.4357 19.5307 18.0087 15.4106 8.69471 8.65848 5.87354 5.72941 5.07568 4.91409 4.69223 4.67082 4.26356 3.54413 3.45842 3.43733 3.27027 3.18503 2.74995 2.45746 2.3956 2.35563 2.34311 2.31804 2.29912 2.03157 1.62078 1.50806
threshold=0.83789184737214373 1.1453722576956162 -0.10101645414512811 0.31797621282607158 1.2814844367162734 -0.53009104488712044 -0.9624732250494813 0.74586676161736076 -1.5156576934600829 -0.64863615933941643 0.020976738198604527 0.36311030655530907 1.9022532952490592 1.0690186088525533 -1.5156576934600829 1.7373759983340273 -0.4315343800289298 1.0000000180025095e-35 -0.53009104488712044 -1.2199876988863241 1.9932584530910724 -0.24544142666217714 0.15980560912184033 0.68197704460754827 0.49563881540261562 1.8429251761215217 0.031967183638280154 -0.4315343800289298 -0.92243378629987582 0.043847231416770889
decision_type=2 2 2 2 2 2 2 2 2 2 2 2 2 2 2 2 2 2 2 2 2 2 2 2 2 2 2 2 2 2
left_child=1 2 6 13 5 19 -1 11 12 22 18 29 -6 14 -4 26 -12 -7 -8 28 -15 -10 -5 -11 -19 27 -9 -23 -2 -3
right_child=4 7 3 9 8 17 10 15 21 23 16 -13 -14 20 -16 -17 -18 24 -20 -21 -22 25 -24 -25 -26 -27 -28 -29 -30 -31
leaf_value=-0.010177914596059049 -0.011117536719620569 0.00058357596176233646 -0.018231635445225887 0.0041712629182504976 -0.0018229357445277334 0.0090984964229044122 -0.0078216831270505223 0.0062562542835643432 0.01857649930708144 -2.2938594443984311e-05 -0.0045731124742975689 0.017457343818684825 0.013516741042941059 0.0011752567626721747 -0.0030800315394899553 0.015520434265957464 0.00035066258443981128 0.017166164587502499 -0.0049561359751644244 0.0048929790248592236 0.032712222981665817 0.010049646801865094 0.011441296406871833 0.005405390346194484 0.0069785109482941102 0.01746399501904378 0.017722200879789131 0.016752474755145498 -0.00024611398403067141 0.0044629036437198429
leaf_count=4076 186 2802 187 836 307 1273 6460 1623 3831 3069 3694 215 569 2208 27101 788 2324 1672 10385 1682 28 1210 990 1081 261 1915 196 722 522 1560
internal_value=0 -0.0264476 -0.0356098 -0.0176855 0.130132 0.0860244 -0.0592304 0.0531851 0.158986 0.0344493 -0.0516449 0.0269841 0.0814085 -0.0282382 -0.0318386 0.0991851 -0.0267167 0.131334 -0.0605506 0.0252454 0.0157017 0.167837 0.0811285 0.0139104 0.157906 0.149984 0.0749173 0.125545 -0.0310217 0.0197096
internal_count=83773 69623 62439 35500 14150 5596 26939 7184 8554 5976 22863 4577 876 29524 27288 2607 6018 3206 16845 2390 2236 7678 1826 4150 1933 3847 1819 1932 708 4362
shrinkage=0.1


Tree=9
num_leaves=31
num_cat=0
split_feature=0 3 0 3 0 2 0 3 3 1 0 0 4 2 4 3 0 3 2 1 3 0 3 0 3 3 2 3 1 1
split_gain=234.295 43.7154 21.3403 21.4409 13.0596 9.72646 9.12456 7.05824 5.99284 5.54848 5.00642 5.00393 4.81385 3.81344 3.7859 3.5177 4.05175 3.01357 2.67413 2.57042 2.25177 2.04659 1.92862 1.79832 1.71676 1.64814 1.60554 1.35524 1.32956 1.27203
threshold=0.92309901811329276 0.15980560912184033 0.47952616266515358 1.539598917118622 0.52845223040207878 0.027604144058612931 1.4773723421516574 -1.3185443637445149 -0.82576103945681401 -0.86376092158234974 -0.10042714140014895 -0.21101044063155774 0.043847231416770889 -0.21204127672897846 0.42828649795518919 -0.33297771516504732 1.3176323285007923 3.3136188845546712 -0.93644534847900907 -0.60062817099512111 -0.72720437459943643 -1.345338951252004 -1.6142143583174606 2.4869429878780038 -1.6142143583174606 0.94825892797598244 -0.74698810092264345 -1.6142143583174606 -0.35002502767632687 -0.070967528325168241
decision_type=2 2 2 2 2 2 2 2 2 2 2 2 2 2 2 2 2 2 2 2 2 2 2 2 2 2 2 2 2 2
left_child=1 4 3 11 7 15 9 21 24 -7 19 14 -5 25 -3 16 -2 -14 -13 -9 -11 -1 23 -8 -6 -4 -10 -23 -26 -12
right_child=5 2 13 12 8 6 22 10 26 20 29 18 17 -15 -16 -17 -18 -19 -20 -21 -22 27 -24 -25 28 -27 -28 -29 -30 -31
leaf_value=0.022234348729252815 0.0073608834702103033 -0.0028947511168088509 0.010939290652567922 0.0010877507020628967 -0.013272561090263098 -0.0067150967888957094 -0.00079314844240305844 -0.0075395751630601242 0.0074016678181485331 0.0032422137881512759 -0.003835690105735166 0.0051225482917047222 0.0066462175411537462 0.0043242757453257705 0.00075056021110722572 0.016981755718154284 0.014698672845384776 0.013785257384434972 4.5039868496656076e-05 -0.0049350768366950674 0.0096552711614664496 -0.013129929223977444 0.014036805866285515 0.01393410125656017 -0.0062459546809461065 0.019055663819604052 0.0018525516152189743 -0.0085290094603698782 -0.00037285315241146087 -0.001519622801331216
leaf_count=20 1050 14546 1216 1185 190 355 181 4851 662 1000 5131 1287 2120 872 3543 3689 2656 820 5345 17313 1210 900 2537 153 743 315 2455 2218 801 4409
internal_value=0 -0.0224909 0.00548626 -0.00205626 -0.0445165 0.124351 0.0922387 -0.0512847 0.00409551 0.0488937 -0.0468068 -0.013193 0.0646858 0.0960278 -0.0218076 0.147957 0.126197 0.0863738 0.0103038 -0.0550512 0.0675344 -0.0965252 0.130964 0.0595317 -0.0430288 0.126092 0.0303109 -0.0985705 -0.0319909 -0.027653
internal_count=83773 70942 31249 28846 39693 12831 5436 34842 4851 2565 31704 24721 4125 2403 18089 7395 3706 2940 6632 22164 2210 3138 2871 334 1734 1531 3117 3118 1544 9540
shrinkage=0.1


Tree=10
num_leaves=31
num_cat=0
split_feature=0 3 0 3 3 0 4 3 0 0 1 1 2 1 1 3 0 1 3 3 4 2 4 2 2 1 1 0 2 0
split_gain=190.961 35.8625 20.6358 14.5522 12.6663 10.2299 7.51326 5.74071 5.29467 4.73546 4.59609 4.47583 3.86863 3.62259 3.12361 2.88842 2.74767 2.34689 2.30968 2.11924 1.93436 1.85067 1.75482 1.62884 1.58994 1.48457 1.47313 1.46345 1.40063 1.37945
threshold=0.70109717528855586 0.94825892797598244 1.1282527986006252 -0.33297771516504732 -0.4315343800289298 0.2652536672877514 2.5399166721299795 -1.0228743691715689 1.9793206917706987 0.010270164452148347 -0.9027847681431419 1.7373759983340273 0.3517746661852505 0.46302662824411384 -0.78336436604604753 -1.7127710231748383 -0.28659134772554007 1.7373759983340273 -1.6142143583174606 0.65258893340872837 0.15527890287718207 -0.3994733551375958 1.2528808667622318 -0.36071173862022959 -0.69666540831806012 -0.98473315032954323 -1.0839651433427826 1.5612825877812477 -1.1290026576302525 -1.4074863801087403
decision_type=2 2 2 2 2 2 2 2 2 2 2 2 2 2 2 2 2 2 2 2 2 2 2 2 2 2 2 2 2 2
left_child=1 3 4 10 14 13 9 8 15 11 -1 29 19 22 -2 26 17 -12 -18 -6 -15 -16 -5 -9 -7 -14 -4 -25 -11 -3
right_child=2 6 7 5 12 24 -8 23 -10 28 16 -13 25 20 21 -17 18 -19 -20 -21 -22 -23 -24 27 -26 -27 -28 -29 -30 -31
leaf_value=-0.0084249474821770417 -0.0073490811428540033 0.0065263267101588265 -0.017297897215864465 -0.0035115317796337087 0.0094278818912665874 0.0052576610948314312 0.011405087745179926 0.015547853284462489 0.012907957948709824 0.017555950736239941 -0.0059554443164128827 0.0083595347592723742 -0.024461028864607215 -0.0016839225118461297 0.0063730593162595606 0.0061813134573001013 -0.012189828616243327 0.02674548729238185 -0.0031537708439396805 0.016193033371823144 0.0020848549998012393 -5.9932346107701575e-06 8.8518855052487468e-05 0.010297408530426981 0.0011692413213446901 0.0032030287166414854 0.0013829902510276472 0.014335765274043217 0.007193985625504132 0.00026855372515136874
leaf_count=3886 461 373 82 22185 2179 1353 1023 3469 1577 154 9092 840 20 5384 614 1359 292 22 9052 588 1823 1754 1442 1633 3203 645 87 1992 853 6336
internal_value=0 -0.0236095 0.0965507 -0.0330114 0.0513595 -0.0203963 0.0330571 0.124293 0.088432 0.023373 -0.0529919 0.0147806 0.0921958 -0.0269317 0.00181909 0.046481 -0.0464112 -0.0587651 -0.0343615 0.108655 -0.00730616 0.0164803 -0.0329181 0.139989 0.0238338 0.0237103 -0.0768111 0.125166 0.0877864 0.00616467
internal_count=83773 67313 16460 57734 6261 35390 9579 10199 3105 8556 22344 7549 3432 30834 2829 1528 18458 9114 9344 2767 7207 2368 23627 7094 4556 665 169 3625 1007 6709
shrinkage=0.1


Tree=11
num_leaves=31
num_cat=0
split_feature=0 3 0 3 1 4 0 0 1 3 0 3 1 3 0 1 2 2 4 4 0 2 3 3 3 2 1 2 2 0
split_gain=154.799 29.718 15.757 9.82895 9.7246 9.42327 6.07624 5.17203 5.0131 4.77833 4.9979 4.0385 3.11128 2.56837 2.53421 2.40674 2.18368 1.95158 1.90716 1.86484 1.69656 1.50609 1.43715 1.40462 1.37703 1.24124 1.20797 1.17427 1.11046 1.05985
threshold=0.71945399038393332 0.65258893340872837 1.1282527986006252 1.0000000180025095e-35 -0.35002502767632687 0.42828649795518919 0.10906824256815204 -0.080711372226518183 1.7373759983340273 -0.82576103945681401 1.7843078275105959 -1.0228743691715689 -1.0296886587758578 -1.5156576934600829 -0.010508034976778042 0.46302662824411384 -0.64863615933941643 0.26149029286428621 0.96873010453818309 2.8296390179270481 0.47952616266515358 -0.39186405546262698 -1.3185443637445149 1.2439289225513679 -1.5156576934600829 0.98875296480247032 -0.47018567123280652 -0.42331040831058697 -0.32101613035451709 -0.10042714140014895
decision_type=2 2 2 2 2 2 2 2 2 2 2 2 2 2 2 2 2 2 2 2 2 2 2 2 2 2 2 2 2 2
left_child=1 4 3 11 12 7 15 23 14 10 13 26 -1 -4 19 22 -8 -5 -17 -7 -9 -13 -6 -3 -18 -11 -2 -22 -23 -14
right_child=2 5 9 17 6 8 16 20 -10 25 -12 21 29 -15 -16 18 24 -19 -20 -21 27 28 -24 -25 -26 -27 -28 -29 -30 -31
leaf_value=-0.008049373351776962 -0.006697642503491601 -0.0018826913989734798 -0.0035737162460678855 0.011545147910804451 -0.0082524944835170137 0.0015548201945605111 0.0027119021588337742 0.0030231078680656091 0.011770247367688178 0.013368513359786447 0.011480557299696499 0.0071349070054590666 -0.0052123188001161015 0.0062713456694973684 0.009325311568512672 -0.00180500494453395 -0.011269186735226531 0.0036819651649430299 0.0046318448564240779 0.0076427495629101689 0.014331545716501293 -0.0093430456824321866 -0.0034227621246560864 0.00081220386685821504 -0.00075110146836213196 0.0083070056434755898 -0.00019602630284576577 0.0035412595475496481 0.0026455716917792274 -0.003240950598467511
leaf_count=3304 549 6249 330 1752 635 2895 2170 1708 941 5644 2350 894 8900 1345 670 4811 127 385 509 609 257 81 20708 2801 6251 530 596 166 1674 3932
internal_value=0 -0.0209912 0.0880291 0.0470432 -0.0327994 0.016215 -0.0234832 -4.9576e-05 0.0517681 0.111863 0.0850558 0.016491 -0.0531285 0.0433172 0.0369037 -0.0309212 -0.000282516 0.101285 -0.0118915 0.0261291 0.0442728 0.0379408 -0.0356646 -0.0104861 -0.0096054 0.12934 -0.033134 0.100971 0.0209225 -0.0460825
internal_count=83773 67643 16130 5931 51347 16296 35211 11181 5115 10199 4025 3794 16136 1675 4174 26663 8548 2137 5320 3504 2131 2649 21343 9050 6378 6174 1145 423 1755 12832
shrinkage=0.1


Tree=12
num_leaves=31
num_cat=0
split_feature=0 3 0 3 0 2 3 3 0 0 3 0 0 4 2 2 2 0 1 3 0 1 2 2 3 1 3 4 2 0
split_gain=126.113 25.246 12.2288 12.1627 7.05243 6.18561 4.42058 3.69098 4.77428 3.57905 3.48588 3.41858 3.04741 3.0117 2.3895 2.25199 2.07773 2.07165 1.88912 1.77836 1.40059 1.39839 1.28428 1.12983 0.994232 0.989628 0.981464 0.9613 0.911769 0.91056
threshold=0.92309901811329276 0.15980560912184033 0.47952616266515358 1.539598917118622 0.55922082789024719 1.0874583449370248 -1.3185443637445149 -0.33297771516504732 1.519289929080953 -0.46728994201382273 -1.0228743691715689 1.5612825877812477 -0.11063825738082762 0.043847231416770889 -0.6333532479245616 -0.19549112985429393 -0.74698810092264345 -1.345338951252004 -0.402855422401869 -1.6142143583174606 -1.345338951252004 -0.046723676750470906 -0.38421074510995995 -1.2185084821979355 -1.6142143583174606 -0.75421722996208362 -1.7127710231748383 0.18870840431530536 -0.43729118193852795 1.0230178649390773
decision_type=2 2 2 2 2 2 2 2 2 2 2 2 2 2 2 2 2 2 2 2 2 2 2 2 2 2 2 2 2 2
left_child=1 4 3 9 6 7 20 8 19 17 -6 18 21 -5 -4 -11 -15 -3 -7 -2 -1 -8 -21 -12 -22 -16 -10 -25 -14 -9
right_child=5 2 14 13 10 11 12 29 26 15 23 -13 28 16 25 -17 -18 -19 -20 22 24 -23 -24 27 -26 -27 -28 -29 -30 -31
leaf_value=0.019037249800749126 -0.0059753696731611218 0.0054829732992052772 0.011100486271588097 0.00067579963162712336 -0.0043280348766929497 -0.0040780219916198169 -0.0047322833536016969 0.0085057416128257787 0.0040049561008345339 0.001687229957426036 0.011710475672873021 0.0085826808704443282 -0.00051225115943275294 0.009864285092982164 -0.015026632096618414 -0.0012992821039220204 0.0044504966775520014 -0.0021592834455217594 0.0046319901394751241 0.0088471319911228637 -0.010292177741887128 -0.0030918719248262498 0.0040385595028905848 0.00089382427682536286 -0.0063835883132167641 0.0050476282537038177 0.011106682278663805 0.005327677682493352 -0.0026091705483652682 0.012654043495177845
leaf_count=20 137 364 989 1185 1135 556 13546 607 206 6201 118 799 2912 1193 25 4259 1747 13897 451 858 914 8431 1575 2550 2260 1389 3517 605 7202 4125
internal_value=0 -0.0165008 0.00476012 -0.00094951 -0.0332389 0.0912324 -0.0379502 0.100119 0.0842526 -0.00933736 0.00447371 0.0369834 -0.034419 0.0493186 0.0732995 0.00471211 0.0664732 -0.0196422 -0.00177113 0.051101 -0.073429 -0.0410298 0.0573431 0.0210337 -0.0750912 0.0469271 0.107137 0.0174406 -0.0200543 0.121219
internal_count=83773 70942 31249 28846 39693 12831 35285 11025 6293 24721 4408 1806 32091 4125 2403 10460 2940 14261 1007 2570 3194 21977 2433 3273 3174 1414 3723 3155 10114 4732
shrinkage=0.1


Tree=13
num_leaves=31
num_cat=0
split_feature=0 3 0 3 0 2 3 3 4 4 0 0 0 3 1 2 2 0 4 1 3 3 4 3 4 2 2 2 1 1
split_gain=102.367 21.0363 12.934 9.90052 7.10437 4.33275 3.70862 3.49252 3.16302 2.69249 2.57938 2.44199 2.40571 2.38324 2.30852 2.20731 2.07098 2.06101 1.61889 1.55998 1.5008 1.35062 1.13914 1.09342 1.01081 1.0271 0.907191 0.876429 0.791519 0.694665
threshold=1.0230178649390773 0.15980560912184033 0.52845223040207878 1.539598917118622 0.55922082789024719 0.85883402804460351 -1.0228743691715689 -0.82576103945681401 0.043847231416770889 2.5399166721299795 1.7212376671581044 -0.55639832813717616 -0.2455040575218034 -0.33297771516504732 -1.1465330434350556 -0.6333532479245616 -0.75591327409370013 1.7843078275105959 3.459227961678371 1.7373759983340273 -1.6142143583174606 -1.5156576934600829 0.35028432793290132 -1.6142143583174606 0.23328107289947 0.37729932192123727 -0.43729118193852795 -0.38421074510995995 -0.47018567123280652 -0.41919395407487786
decision_type=2 2 2 2 2 2 2 2 2 2 2 2 2 2 2 2 2 2 2 2 2 2 2 2 2 2 2 2 2 2
left_child=1 4 3 8 6 13 18 23 11 16 14 -3 22 17 -7 -4 -5 21 20 -10 -1 -2 -8 -6 25 -9 -14 -23 -25 -16
right_child=5 2 15 9 7 10 12 24 19 -11 -12 -13 26 -15 29 -17 -18 -19 -20 -21 -22 27 -24 28 -26 -27 -28 -29 -30 -31
leaf_value=-0.0093505751783444849 -0.0012330982757901604 -0.0027455774055183181 0.011075122227709512 0.0063384890876889951 -0.0096188025464976415 -0.010207283690908987 -0.0039744432766706259 0.002703913245771435 0.00075093222507460647 0.0099000488223831059 0.0088166689426068014 -0.00036983579100689198 -0.00039066906504502537 0.011505143518853289 0.00062635028103379066 0.0049797666937963486 0.0012846801037487776 0.010163804684012212 0.01629650805364637 0.01564239261435791 -0.0050084609068854332 0.0094021653808177043 -0.0016156467570281983 -0.0047763900081137754 0.0060379118183177686 -0.0017027237690501757 -0.0023551303056315309 0.0054518695539766257 -0.00036110232958093381 0.0057404726216726196
leaf_count=916 220 8570 1022 1341 216 145 14764 2100 7649 751 851 8738 3376 4027 519 1419 2051 2827 34 71 6077 907 2377 662 626 707 7741 1475 1050 544
internal_value=0 -0.0139546 0.00539291 -0.000458333 -0.0290019 0.0875667 -0.0341552 0.00491575 -0.00795378 0.0448219 0.0459972 -0.0154618 -0.0290428 0.0966183 0.01629 0.0753178 0.0328266 0.0829454 -0.0547139 0.00887887 -0.0557723 0.0626364 -0.0364734 -0.0291431 0.0240435 0.0159401 -0.0175856 0.0695603 -0.0206842 0.0324355
internal_count=83773 72258 31612 29171 40646 11515 35285 5361 25028 4143 2059 17308 28258 9456 1208 2441 3392 5429 7027 7720 6993 2602 17141 1928 3433 2807 11117 2382 1712 1063
shrinkage=0.1


Tree=14
num_leaves=31
num_cat=0
split_feature=0 3 0 1 3 4 3 0 1 0 1 1 2 0 1 2 0 2 1 3 4 2 3 4 0 3 3 1 0 2
split_gain=83.2821 17.4617 9.45208 7.07117 6.49248 4.7324 3.37898 3.17118 2.99736 2.92827 2.91904 2.3569 2.1603 2.05925 1.97475 1.83845 1.85086 1.72177 1.64314 1.50535 1.40684 1.38382 1.3315 1.25766 1.24208 1.18025 1.09368 1.05737 0.977206 0.908143
threshold=0.68197704460754827 0.84970226312023112 1.1014264048254363 -0.046723676750470906 -0.33297771516504732 2.5399166721299795 -1.6142143583174606 -0.20134213447612656 -1.0296886587758578 -0.43305773921071467 2.4505469181618675 1.9932584530910724 0.5991910302051745 2.2460118907741546 -0.72748770725298706 -0.134849710232845 1.8429251761215217 -0.67354335456821879 -1.7312639226341469 -0.72720437459943643 1.1748786967399436 -1.2946417350022534 -1.6142143583174606 0.41157174723612766 -1.4074863801087403 0.65258893340872837 -0.72720437459943643 0.25508139145192721 0.34800647854457661 -0.3994733551375958
decision_type=2 2 2 2 2 2 2 2 2 2 2 2 2 2 2 2 2 2 2 2 2 2 2 2 2 2 2 2 2 2
left_child=1 3 4 8 14 9 13 11 -1 10 24 20 25 18 -2 -8 26 28 -4 -10 -5 -9 -23 -21 -3 27 -17 -6 -11 -16
right_child=2 5 6 7 12 -7 15 21 19 17 -12 -13 -14 -15 29 16 -18 -19 -20 23 -22 22 -24 -25 -26 -27 -28 -29 -30 -31
leaf_value=-0.006299434494862699 -0.0056270029360210617 0.004261707724869117 -0.020752076835681997 -0.002375833332951916 0.0077196895593094148 0.0080474833192761049 0.0098561728384718699 0.0065363467859577019 -0.0042387032181840671 0.0049789075355512356 0.0087863621595803826 0.019396794339934111 -0.00056372224390651901 0.0072966901243540581 0.0042436076264242388 0.0034205899359106835 0.0095748595267729341 0.0016580031684258361 -0.001303075012232816 -0.0028957021107368745 0.001432039779050908 -0.014662434638387734 3.6560493360188703e-05 -0.00035973369844225829 -0.00065525330004396034 0.011219464299910061 0.0073939551085622033 0.0029378535296011692 0.011568480480143438 -4.0423315845756845e-05
leaf_count=3297 528 555 51 15286 1518 1110 5272 329 7739 1219 372 51 393 286 673 1329 1850 1898 293 14355 1036 62 10221 2264 6913 616 1447 665 276 1869
internal_value=0 -0.0157858 0.0629768 -0.0234597 0.032212 0.018185 0.0812756 -0.0119433 -0.0346971 0.0120298 0.00140817 -0.0206707 0.0637901 0.010265 -0.000621045 0.0857954 0.0712462 0.0365726 -0.041865 -0.0308669 -0.0213414 0.00152193 -0.000520652 -0.0255023 -0.00289839 0.0735382 0.0549172 0.0626301 0.0619544 0.0109378
internal_count=83773 66983 16790 54640 6262 12343 10528 26985 27655 11233 7840 16373 3192 630 3070 9898 4626 3393 344 24358 16322 10612 10283 16619 7468 2799 2776 2183 1495 2542
shrinkage=0.1


Tree=15
num_leaves=31
num_cat=0
split_feature=0 3 0 3 2 0 3 3 3 0 2 1 3 0 1 0 1 0 0 4 4 1 1 3 1 2 1 4 1 4
split_gain=67.6582 14.4409 8.87265 7.9454 3.71071 3.61631 2.63595 2.48685 2.41882 2.97312 2.09589 2.06195 1.91623 1.90186 1.7244 1.68612 1.38556 1.28385 1.21037 1.16519 1.12598 1.10006 0.981383 0.875798 0.940534 0.863659 0.8604 0.827434 0.819215 0.809575
threshold=0.94583461930462465 1.0000000180025095e-35 0.39107108380006322 1.2439289225513679 1.386787519290841 -0.052395025937084394 3.3136188845546712 -1.5156576934600829 1.0000000180025095e-35 1.4773723421516574 -0.68142704423586997 0.53352978500523496 -1.2199876988863241 -0.45393361723225356 -0.74218300315169594 1.9022532952490592 1.7373759983340273 -0.54282320691608243 0.60864066642412518 0.81272576449360734 1.4868873768290944 0.61186536529604141 -0.98473315032954323 0.94825892797598244 0.41360621850907647 0.1240606906831957 -1.1465330434350556 -0.30159095011050335 1.0000000180025095e-35 0.41157174723612766
decision_type=2 2 2 2 2 2 2 2 2 2 2 2 2 2 2 2 2 2 2 2 2 2 2 2 2 2 2 2 2 2
left_child=1 5 3 11 8 14 13 -7 9 12 23 17 26 -5 -1 22 29 -3 28 -13 21 -12 -6 24 -4 -20 -2 -8 -9 -16
right_child=4 2 10 6 15 7 27 18 -10 -11 20 19 -14 -15 16 -17 -18 -19 25 -21 -22 -23 -24 -25 -26 -27 -28 -29 -30 -31
leaf_value=-0.0053663782029286823 -0.010678741276080227 -0.0023835755838265481 0.0082825814959113352 0.0009440358587089726 -0.0068952543092634117 -0.0062497886366372308 -0.0093385122372570475 -0.0023239601558702047 0.0096790628627130178 0.0079903211439208959 0.0032305520677175636 -0.00011731993987613309 0.0052194238809274342 0.005423328737505945 -0.0033693294501357472 0.0072652218177104606 0.01999261720249286 -0.00080233622412800268 0.0021679376380347479 0.0037695834875454866 0.010402247279912966 -0.0024867276631563005 0.0010160180816221821 0.012608498007586514 0.002259104449558195 -0.0011248190017083646 0.00042962890307506377 0.0084372781578802916 -0.00030571838643637575 -0.0011909399909144245
leaf_count=4106 81 10501 825 3922 208 978 27 5699 3192 4871 1991 6291 2655 1250 14362 357 26 10048 1736 879 183 405 637 279 378 1472 501 869 3108 1936
internal_value=0 -0.0119026 0.00147392 -0.00383428 0.0678539 -0.0270501 0.0289412 -0.0140067 0.0734728 0.0642929 0.0456374 -0.0110092 0.0408027 0.0202662 -0.0353453 0.0150306 -0.0307377 -0.0161039 -0.0100596 0.00359192 0.0284161 0.0226415 -0.00931372 0.0756062 0.0638992 0.00657047 -0.0111638 0.0790162 -0.0161172 -0.0311056
internal_count=83773 71271 37848 33787 12502 33423 6068 12993 11300 8108 4061 27719 3237 5172 20430 1202 16324 20549 12015 7170 2579 2396 845 1482 1203 3208 582 896 8807 16298
shrinkage=0.1


Tree=16
num_leaves=31
num_cat=0
split_feature=0 3 0 0 1 1 3 3 0 1 4 0 1 2 0 4 3 4 0 2 0 0 4 3 1 4 2 2 1 2
split_gain=55.078 12.0434 6.30387 5.43076 4.35907 3.76905 3.37316 2.90228 2.6389 1.90314 1.75447 1.72942 1.7255 1.50061 1.41042 1.30568 1.20984 1.12436 1.08583 1.04282 1.03042 0.948395 0.8739 0.822271 0.819117 0.669869 0.661359 0.661033 0.640101 0.593495
threshold=1.0230178649390773 0.65258893340872837 0.55922082789024719 -0.010508034976778042 1.7373759983340273 -0.65435251161914942 -0.72720437459943643 -1.0228743691715689 2.3604888662977079 0.46302662824411384 2.8296390179270481 -0.34232822141803393 -1.5311082258607185 -1.1430077714605422 0.47952616266515358 0.99658802240328581 1.4410422522628707 2.4229134170965483 1.4773723421516574 -0.46127807255820347 1.2814844367162734 -1.4074863801087403 0.5452897529886207 -1.7127710231748383 -1.2990435381072982 0.37814224579800421 1.6328969723554536 0.88015554726471046 -0.54898733743082262 -1.0107013096696165
decision_type=2 2 2 2 2 2 2 2 2 2 2 2 2 2 2 2 2 2 2 2 2 2 2 2 2 2 2 2 2 2
left_child=1 2 5 4 10 24 23 8 12 11 21 -7 -2 -8 16 -11 -5 -15 27 -9 26 -3 29 -4 -1 -26 -21 -14 -25 -6
right_child=7 3 6 14 22 9 13 19 -10 15 -12 -13 18 17 -16 -17 -18 -19 -20 20 -22 -23 -24 28 25 -27 -28 -29 -30 -31
leaf_value=-0.0061351820789291326 -0.0073016231513134038 0.0042196642047567208 -0.010432579204207287 0.0024508101852424025 0.00933767162995147 -0.002693044890197894 0.0093580142041351996 0.0087528476686271669 0.0077771096259640522 -0.00062797678038076525 0.0051556371423451298 -0.0012626344155909188 0.0023002969683007593 0.0020107965385717241 0.0080461485544057777 0.0042931104247538711 0.0091352623648780547 0.014704521209228326 0.0049986536390628118 0.0048471620824457407 0.0074380745592087169 -0.00052157536575433928 0.0079061698609626373 -0.0040632810419901555 -0.0039808693310459707 -0.00084319934665856393 -0.0030091526106190989 -0.003152459082010302 -0.00038103610143493241 -0.00029130115543343267
leaf_count=1596 186 438 110 1648 84 18521 318 3489 1179 6040 609 15548 622 4059 1079 592 324 71 1046 1273 3257 11475 863 697 5681 773 117 346 1463 269
internal_value=0 -0.0102359 -0.0173385 0.0132304 0.00475466 -0.0212959 0.0113792 0.0642315 0.0395967 -0.0173855 -0.000796264 -0.0204025 0.0191387 0.0273869 0.0513948 -0.001887 0.0354907 0.0222902 0.0276496 0.0744627 0.0646528 -0.00347256 0.0619164 -0.0199874 -0.0410669 -0.0360507 0.0418588 0.00351275 -0.0156924 0.0200001
internal_count=83773 72258 55469 16789 13738 48751 6718 11515 3379 40701 12522 34069 2200 4448 3051 6632 1972 4130 2014 8136 4647 11913 1216 2270 8050 6454 1390 968 2160 353
shrinkage=0.1


Tree=17
num_leaves=31
num_cat=0
split_feature=0 3 0 3 3 0 4 1 3 4 2 3 1 1 2 1 0 0 1 4 0 4 2 4 4 0 1 1 2 1
split_gain=44.6873 9.92001 5.20828 4.94814 4.62881 3.03834 2.18543 1.85288 1.82671 1.82429 1.56639 1.49628 1.40976 1.38521 1.36312 1.2267 1.22287 1.21595 1.25976 1.14538 1.04231 1.03467 0.995288 0.988802 0.972909 0.883682 0.872141 0.869872 0.847375 0.828079
threshold=0.68197704460754827 1.1453722576956162 1.2176725025388482 -0.53009104488712044 -0.53009104488712044 1.0000000180025095e-35 0.27785374148363418 -1.0296886587758578 -1.7127710231748383 3.2252214516115081 -0.74698810092264345 -1.4171010286027055 0.72178004977606547 -0.54898733743082262 -0.57051731994941746 -0.3362331725562146 -0.75018954078397715 -0.3185114911412204 0.63452379840989603 -0.12887185934686604 2.05829223112399 0.043847231416770889 -0.19549112985429393 2.1276194877264585 2.5399166721299795 -1.1496689856952396 0.24796956930552275 -1.9015746844557861 -1.3698216779245638 0.11280461106510108
decision_type=2 2 2 2 2 2 2 2 2 2 2 2 2 2 2 2 2 2 2 2 2 2 2 2 2 2 2 2 2 2
left_child=1 3 4 11 13 9 16 -6 21 12 -8 23 -5 -2 -9 20 -3 18 -13 -7 -10 27 -21 -1 -12 -11 -16 -4 -15 -19
right_child=2 6 8 5 7 19 10 14 15 25 24 17 -14 28 26 -17 -18 29 -20 22 -22 -23 -24 -25 -26 -27 -28 -29 -30 -31
leaf_value=-0.0055504009663391949 -0.003519338305234679 -0.0012015934495828069 -0.022224960347701765 -0.0017668822177908463 -0.019626856802572167 -0.00024358203824000806 0.0067678177640621371 0.007068343488522439 0.0043160031656268253 0.015844304840295361 0.0012216223616017268 -0.0037774054418020665 0.00040870127978997925 0.019775486706445616 0.0046380316228242851 0.0081106601624469331 0.0025297548771261794 -0.0022606138113389945 0.0054560641603951425 0.0036964031065859896 0.0069995292116535046 0.0043411000146685785 0.00029665467732496948 0.010708553334207912 0.0059780874539575642 0.0031450368175039572 0.00065701610413980817 -0.0032078949516599481 0.00088120013275718139 0.00036008054861422841
leaf_count=2387 930 1816 29 28802 31 6387 1371 1759 2941 65 1639 6886 3322 24 1898 3065 1701 6564 151 1745 2850 186 1700 38 583 349 775 141 2161 1477
internal_value=0 -0.0115633 0.0461314 -0.015757 0.0267127 -0.00991403 0.0237513 0.0473604 0.0621057 -0.014569 0.041097 -0.0299012 -0.015419 -0.0028703 0.0490645 0.0649291 0.00603076 -0.0261932 -0.0357927 0.00549103 0.0563668 -0.008129 0.0201873 -0.0529562 0.0246961 0.0513888 0.0348379 -0.0645198 0.0108873 -0.0177924
internal_count=83773 66983 16790 59873 7578 42370 7110 4463 9212 32538 3593 17503 32124 3115 4432 8856 3517 15078 7037 9832 5791 356 3445 2425 2222 414 2673 170 2185 8041
shrinkage=0.1


Tree=18
num_leaves=31
num_cat=0
split_feature=0 3 0 1 3 0 3 0 2 1 4 2 1 3 1 1 2 2 0 4 4 1 2 4 3 1 4 1 4 4
split_gain=36.5582 8.85649 6.27733 4.84353 2.40577 2.39449 2.2315 1.89329 1.81994 1.61569 1.58294 1.53611 1.49919 1.20639 1.1183 1.08838 0.940069 0.928572 0.832343 0.826434 0.800603 0.796173 0.769486 0.766932 0.724399 0.641397 0.635948 0.579622 0.575295 0.567284
threshold=1.0230178649390773 1.0000000180025095e-35 0.2652536672877514 1.0423277572783201 -1.4171010286027055 -0.052395025937084394 -1.2199876988863241 2.2460118907741546 -0.21204127672897846 2.4505469181618675 0.043847231416770889 -0.25356018100367034 -1.6194755504895049 1.0468155928317338 -1.2174180108087354 0.48777885745073896 -1.0901123478861499 1.0635359948745997 1.4773723421516574 2.3170533292091577 0.31685482649477847 0.28104255731462741 -0.40752898324617076 0.41157174723612766 0.55403226854484611 -0.54898733743082262 0.066133565708853162 -0.55923544304221029 2.2167648248947875 2.1276194877264585
decision_type=2 2 2 2 2 2 2 2 2 2 2 2 2 2 2 2 2 2 2 2 2 2 2 2 2 2 2 2 2 2
left_child=1 4 3 10 16 23 7 12 13 19 14 -12 -2 15 -3 -4 26 24 -14 -5 21 -10 28 25 -8 -6 -1 -22 -7 -18
right_child=6 2 8 9 5 22 17 -9 20 -11 11 -13 18 -15 -16 -17 29 -19 -20 -21 27 -23 -24 -25 -26 -27 -28 -29 -30 -31
leaf_value=0.00063218944974673488 -0.011118177379777825 -0.012994633245519558 0.005065121950477959 0.0014609393344443681 -0.0036447801418852191 0.00047243913565930173 0.005942442919287012 0.0060010380864512613 0.0016367259318479353 0.0076216774559949452 0.0016174727500291156 -0.0010191792290679316 -0.0016023547100159801 0.0093348140478089255 -0.0012205698496637002 0.00082913743687601277 -0.0052877158449821165 0.003069679862292749 0.0035469025726471734 0.0061337057859858777 -0.010582118779420854 -0.0029639796599393521 -0.0011573329721758115 -0.00070075280191192891 0.0089367633512128768 -0.0022878693133934098 0.021614833734929562 0.0050124866063964019 0.012845227992511355 0.0070167028639269505
leaf_count=52 110 81 2268 2786 4910 3399 7332 891 947 633 4561 4286 608 477 19727 828 2684 1017 649 438 25 624 8725 2209 908 11991 20 511 38 38
internal_value=0 -0.00833929 0.00211663 -0.003242 -0.0200616 -0.0175497 0.0523301 0.0241436 0.0327891 0.0300266 -0.00772 0.00340126 0.000765974 0.0465349 -0.0126872 0.0393224 -0.0481762 0.0592054 0.0105625 0.0209576 0.00947928 -0.00190671 -0.00658098 -0.0245304 0.062724 -0.0268207 0.064607 0.0428513 0.00609235 -0.0511594
internal_count=83773 72258 38192 32512 34066 31272 11515 2258 5680 3857 28655 8847 1367 3573 19808 3096 2794 9257 1257 3224 2107 1571 12162 19110 8240 16901 72 536 3437 2722
shrinkage=0.1


Tree=19
num_leaves=31
num_cat=0
split_feature=0 1 2 4 3 3 0 0 2 3 3 0 4 4 1 2 0 3 3 0 3 3 0 4 1 1 3 4 1 2
split_gain=29.881 6.95762 3.54167 3.11472 2.81376 2.664 2.64664 2.35162 1.96401 1.6814 1.6254 2.13886 1.45069 1.16676 1.04931 1.0018 1.16276 0.960804 0.956688 1.12155 0.853159 0.811464 0.907016 0.755283 0.751894 0.730149 0.72546 0.668284 0.804272 0.636211
threshold=0.68197704460754827 0.53352978500523496 0.45549467608308075 0.74586676161736076 -0.4315343800289298 -1.5156576934600829 1.3521054635620151 0.41932409729661602 -0.28748341268479333 -0.53009104488712044 1.0000000180025095e-35 1.3176323285007923 0.043847231416770889 2.991214941544643 -0.70099263871936401 -0.79799789434221957 -0.69919223541070241 -1.5156576934600829 -1.6142143583174606 -0.34994340511017585 0.75114559826447957 -1.6142143583174606 2.4869429878780038 2.8296390179270481 -0.65435251161914942 0.24157915095430529 0.45547560368909451 -0.26258986509935939 -0.095026850049512196 -1.4035059546554989
decision_type=2 2 2 2 2 2 2 2 2 2 2 2 2 2 2 2 2 2 2 2 2 2 2 2 2 2 2 2 2 2
left_child=1 4 10 5 18 -3 14 12 9 -5 11 17 24 -10 -4 16 -7 -2 27 -20 26 22 -8 -14 -6 -19 -9 28 -1 -21
right_child=2 3 6 8 7 15 21 20 13 -11 -12 -13 23 -15 -16 -17 -18 25 19 29 -22 -23 -24 -25 -26 -27 -28 -29 -30 -31
leaf_value=-0.0063129806402815458 -0.0054542721489754817 -0.024343222089704464 -0.0045645774164063688 0.02625236411889394 -0.0036755772837727 -0.00048320174052253516 -0.005849338687538101 0.0022842397363553929 -0.0011461541750958286 0.0052816035503982332 0.0062389636091311398 0.0053047547333644968 -0.00030141998861350642 0.0060088217019069546 0.00032353906661694419 -0.00028928100079509165 0.0034072010569309186 0.0029595515924443348 -0.0031599107380901972 0.010151170356118162 0.0067755450764208072 0.0047812316759785938 0.0057342591374592682 0.0033624524261042232 -0.0014155292984312073 -0.0012356863994163862 -0.0024558665449835046 -0.0019033420131401805 -0.018504857155300366 -0.0016359643166659965
leaf_count=551 165 44 568 39 1583 1302 162 1624 929 1945 4270 4348 7863 302 1936 7935 1874 2904 8110 46 337 1837 116 606 21002 484 403 326 60 10102
internal_value=0 -0.00945559 0.0377227 0.0100458 -0.0147819 0.00214202 0.0141468 -0.0092395 0.0374695 0.0569383 0.0466699 0.0381744 -0.011554 0.00609169 -0.00785267 0.0031145 0.0181233 0.0199733 -0.0244312 -0.0228319 0.0211643 0.0401925 -0.0101589 -0.000392513 -0.0157394 0.0236023 0.0134183 -0.0555948 -0.0751022 -0.0158253
internal_count=83773 66983 16790 14370 52613 11155 4619 33418 3215 1984 12171 7901 31054 1231 2504 11111 3176 3553 19195 18258 2364 2115 278 8469 22585 3388 2027 937 611 10148
shrinkage=0.1


Tree=20
num_leaves=31
num_cat=0
split_feature=0 4 1 2 0 2 1 3 0 0 4 3 3 3 1 0 3 3 1 1 3 0 0 0 0 0 0 2 0 3
split_gain=24.426 6.1593 3.64776 3.29219 2.91976 2.71696 1.82759 1.63442 1.55964 1.37603 1.25691 1.24882 1.20974 1.13089 0.947196 0.878318 0.806005 0.805925 0.796422 0.771191 0.995948 0.729305 0.748321 0.709067 0.652015 0.616348 0.5641 0.541525 0.523373 0.730839
threshold=1.0230178649390773 0.36142749507894262 -0.60062817099512111 -0.21204127672897846 0.10906824256815204 -0.90676130117597398 0.77909104354838021 -1.2199876988863241 -0.40436953092002365 2.4869429878780038 3.459227961678371 -0.4315343800289298 -0.13586438545354473 1.0000000180025095e-35 -1.7312639226341469 -0.54972102763560848 0.35691893883334297 -1.4171010286027055 -0.31474696003934838 -1.2990435381072982 0.15980560912184033 0.46322411704847194 -1.4870672064609447 1.7843078275105959 1.4773723421516574 -1.2915701652900575 0.57503801073986172 1.0874583449370248 1.2814844367162734 1.0000000180025095e-35
decision_type=2 2 2 2 2 2 2 2 2 2 2 2 2 2 2 2 2 2 2 2 2 2 2 2 2 2 2 2 2 2
left_child=1 2 19 6 12 16 8 9 25 14 21 -8 17 -7 -2 -14 -6 -4 23 20 -1 22 -5 27 -16 -3 -10 -9 29 -20
right_child=7 3 4 10 5 13 11 18 26 -11 -12 -13 15 -15 24 -17 -18 -19 28 -21 -22 -23 -24 -25 -26 -27 -28 -29 -30 -31
leaf_value=-0.0044388237995351045 -0.0085938344231766203 0.0056524541242979473 -0.0056315356063421709 0.0057027578266758113 0.0021545449187455059 -0.00098771284196838539 0.02292245322217544 0.0034705368844338263 0.0027412191174316508 0.0053761484674218589 0.0042112897732243491 0.0048649849962364416 -0.0013501873354795626 0.0010788312165172034 -0.0015837954571623698 -0.00011247915707633789 0.0060969159687328011 -0.0018524181218390044 0.0026189903697980813 -0.0025583309686292304 -0.016322913983478085 0.0019805771835663794 -0.0013468242485792801 0.0051317427822261015 0.0027686538051640151 -0.00050727634404304327 0.006578918743946064 -0.00049769988288560923 0.0068643026165087981 0.0067670224586329642
leaf_count=1499 115 175 591 155 1304 6557 39 1984 1670 747 564 2130 13458 4442 616 9989 861 12493 903 7353 74 865 5278 2766 780 2264 497 416 2386 802
internal_value=0 -0.00681653 -0.0112696 0.0123256 -0.00792638 0.00484253 0.0279626 0.0427745 0.0166918 0.018652 -0.00311315 0.0518967 -0.0125277 -0.00153129 0.00129478 -0.00822893 0.0372239 -0.0202312 0.0486586 -0.0298825 -0.049979 -0.00716324 -0.011457 0.0404044 0.00848089 -0.000653113 0.0362139 0.0278271 0.0590817 0.0457015
internal_count=83773 72258 58621 13637 49695 13164 6775 11515 4606 2258 6862 2169 36531 10999 1511 23447 2165 13084 9257 8926 1573 6298 5433 5166 1396 2439 2167 2400 4091 1705
shrinkage=0.1


Tree=21
num_leaves=31
num_cat=0
split_feature=0 3 1 2 0 0 1 3 3 0 1 1 3 2 1 0 2 3 4 0 0 1 0 2 4 0 0 4 2 0
split_gain=19.9751 5.15461 2.43603 2.08027 1.96967 1.84942 1.79611 1.65216 1.51873 1.2774 1.27069 1.12903 1.11333 0.940813 0.814871 0.80982 0.69929 0.669355 0.668673 0.667935 0.661636 0.652561 0.568921 0.555223 0.545834 0.525057 0.494004 0.490639 0.457725 0.453267
threshold=0.77721401983195093 0.84970226312023112 -0.046723676750470906 -0.43027247673500352 1.5612825877812477 -0.43305773921071467 -1.0839651433427826 3.5107322142743045 1.7367122468382559 -0.20134213447612656 2.4505469181618675 -1.1143728455321924 -0.23442105030929605 -1.2028536496359903 -0.88184980782644717 -1.4074863801087403 -0.99932652148358725 -1.6142143583174606 4.5902594270015431 2.1434084304689041 -0.34232822141803393 -1.5311082258607185 -0.91695521783446121 0.11477760071673052 0.36142749507894262 -1.4074863801087403 0.20244217470109707 2.991214941544643 -0.98803789823326982 1.0470591166179271
decision_type=2 2 2 2 2 2 2 2 2 2 2 2 2 2 2 2 2 2 2 2 2 2 2 2 2 2 2 2 2 2
left_child=1 2 11 28 6 7 -5 18 16 10 15 -1 -8 26 19 -4 -7 -15 25 21 22 -6 -13 -22 -10 -3 -11 -18 -2 -30
right_child=3 5 9 4 14 8 12 -9 24 13 -12 20 -14 17 -16 -17 27 -19 -20 -21 23 -23 -24 -25 -26 -27 -28 -29 29 -31
leaf_value=-0.0037176689709022765 0.0060557429930931644 0.0025600871385286512 0.0072519364748712114 -0.0059960070714399809 -0.0083215010184681491 0.0050510384508622034 0.00057912342297399726 0.0048479106063878188 0.0043097787640746918 0.00088840238364880819 0.019191488161243709 -0.00054541056467591765 0.0036587783822650808 -0.0098380713688849073 0.0053498920855250438 -0.0011332363668088705 0.0011892604172293504 0.00018812594092792022 0.0058781128604463787 0.0038115564200543791 -0.00036228172228597002 0.0010597039450554791 -0.0023426618951947788 -0.0017122284889466051 0.010947314952337915 -0.00047731770727663168 0.0066311293234111975 0.0096791645784729298 0.0023003748139516183 0.0047889545639856999
leaf_count=2733 1895 618 116 329 90 672 3470 738 218 263 31 2085 1774 67 2234 16226 2469 10780 183 1056 6015 421 11345 6174 287 7195 348 70 980 2891
internal_value=0 -0.00725253 -0.0113321 0.0328773 0.023684 0.0111573 0.0117128 0.00320733 0.0298427 -0.004686 -0.0103535 -0.0178561 0.0162094 0.00341258 0.0412362 -0.0107372 0.0218254 0.00126196 -0.000971076 0.0237537 -0.015795 -0.00592563 -0.0206364 -0.0104606 0.08082 -0.00237062 0.0415922 0.0142333 0.0478232 0.0415893
internal_count=83773 68633 56183 15140 9374 12450 5573 8734 3716 27831 16373 28352 5244 11458 3801 16342 3211 10847 7996 1567 25619 511 13430 12189 505 7813 611 2539 5766 3871
shrinkage=0.1


Tree=22
num_leaves=31
num_cat=0
split_feature=0 3 2 0 1 2 3 4 3 0 3 0 0 4 4 3 1 4 0 1 3 1 1 0 2 4 4 1 0 3
split_gain=16.3606 4.19225 2.34385 1.99979 1.94466 1.39261 1.04868 1.00333 1.27575 1.00563 0.948728 0.905695 0.861608 0.972811 0.853615 0.901628 0.821029 0.809579 0.780337 0.845938 0.742288 0.709954 0.681844 0.596583 0.551638 0.505097 0.501277 0.497131 0.483452 0.42355
threshold=0.64317961187655781 0.94825892797598244 0.027604144058612931 1.2176725025388482 1.0000000180025095e-35 -0.87759761540556258 0.65258893340872837 1.14144919530182 -1.5156576934600829 -0.27116847689031021 -0.82576103945681401 -1.2915701652900575 1.0470591166179271 0.16642207002322304 2.0440457341311502 0.45547560368909451 -0.70099263871936401 2.5399166721299795 -0.21101044063155774 1.7373759983340273 -1.7127710231748383 0.49685404527733629 0.49685404527733629 -0.43305773921071467 -0.27970542610897375 0.021560897124688769 -0.36844995298674998 -0.49559913586086474 -1.0183021180089895 -1.6142143583174606
decision_type=2 2 2 2 2 2 2 2 2 2 2 2 2 2 2 2 2 2 2 2 2 2 2 2 2 2 2 2 2 2
left_child=1 4 6 16 10 18 12 8 22 -10 29 -9 13 21 15 -12 -4 23 19 -3 26 -2 -6 -7 -13 -18 -5 -15 -16 -1
right_child=2 5 3 20 7 17 -8 11 9 -11 14 24 -14 27 28 -17 25 -19 -20 -21 -22 -23 -24 -25 -26 -27 -28 -29 -30 -31
leaf_value=-0.0046292949547386813 0.0016428870862619527 0.0012146943774921318 -0.0036525328667108962 -0.012485520386068923 -0.0049914643647320945 -0.00047629084187302841 0.0065986909142529337 0.012161064896744067 -0.0010651457238291372 0.00022187461338179826 -0.0010409260877135358 0.0033964269561461168 0.0040623234772730341 -0.0029442477986837429 0.0097603229550281313 -0.0028186687900921782 -0.0005393757173210741 0.0036114610000200376 0.0064621553967478115 0.0061729492781731378 0.0032981796919728948 -0.0044482693526198712 -0.018206042587688123 0.0017606766514032134 -0.00017804499632051297 0.0023120518200812515 -0.0003629716925536342 0.006668088048446371 0.0014228605857364504 -0.0022500047888087834
leaf_count=826 2266 1605 622 41 141 4570 1122 81 14627 10379 17006 753 5890 60 82 3428 1986 738 570 438 3626 209 54 1613 1012 904 203 521 458 7942
internal_value=0 -0.00716825 0.0272447 0.0137099 -0.0104258 0.0122355 0.0371686 -0.00428942 -0.00593785 -0.00530955 -0.0160062 0.0182144 0.0335542 0.0199297 -0.0123545 -0.0133916 -0.00356771 0.00480939 0.031905 0.022777 0.0293892 0.0112852 -0.0865089 0.00107282 0.0134693 0.00352559 -0.0239996 0.0567542 0.0268892 -0.0247415
internal_count=83773 66323 17450 7382 56789 9534 10068 27047 25201 25006 29742 1846 8946 3056 20974 20434 3512 6921 2613 2043 3870 2475 195 6183 1765 2890 244 581 540 8768
shrinkage=0.1


Tree=23
num_leaves=31
num_cat=0
split_feature=0 1 2 0 3 1 3 2 4 3 3 4 0 3 3 1 0 0 1 0 4 0 1 2 1 1 2 0 1 2
split_gain=13.286 3.57185 2.06215 2.08835 1.89529 1.59316 1.41474 1.17839 1.29164 1.15507 1.12875 1.10982 0.914527 0.788409 0.891275 0.753283 0.727526 0.712007 0.7938 0.684901 0.635009 0.590674 0.52551 0.484834 0.501939 0.480869 0.439955 0.437292 0.490262 0.434747
threshold=0.60864066642412518 0.53352978500523496 -0.7303767914686905 1.5612825877812477 -1.0228743691715689 2.4505469181618675 -0.62864770974205875 -0.56319496392771884 -0.067584440043640212 -1.5156576934600829 -0.62864770974205875 -0.1734445279310308 -0.70548161468189285 0.75114559826447957 0.45547560368909451 -0.88184980782644717 0.46322411704847194 -0.55639832813717616 -1.4570092714819582 -0.071054811365108175 2.8296390179270481 -1.1939848614126631 0.63452379840989603 -0.7303767914686905 -1.1465330434350556 0.19185709261149717 -1.3418920430387244 2.1434084304689041 -1.9015746844557861 -0.53183416059469335
decision_type=2 2 2 2 2 2 2 2 2 2 2 2 2 2 2 2 2 2 2 2 2 2 2 2 2 2 2 2 2 2
left_child=1 6 -2 4 29 7 19 8 12 -9 -10 17 -3 14 -6 27 20 -8 -19 23 -13 -7 -15 24 -1 26 -21 28 -5 -4
right_child=2 5 3 15 13 21 11 9 10 -11 -12 16 -14 22 -16 -17 -18 18 -20 25 -22 -23 -24 -25 -26 -27 -28 -29 -30 -31
leaf_value=-0.0073399176072549603 0.004331248792980978 -0.0018196586385742883 -0.0076934247607348769 -0.011297701954792598 0.001814378179903651 0.0040355972956293874 -0.0017768945797827973 -0.017047901476574381 0.018292708502968356 -0.00021796025755108431 0.0029680812194066973 -0.00032515459434359753 0.0015870422500081493 0.006593320188688633 -0.0020342098474351424 0.0045227339599161779 0.0033661282462207221 -0.012239065946284999 -0.00061431329038159758 0.012486042511527955 0.0028902977507266983 0.01146532033018216 -0.0015045719696596886 -0.0026909434970217522 0.00037728970683353577 0.0018802532475870031 -0.0013779907826147666 0.0029742218141468107 0.00044735544057942947 -0.0013230560351968571
leaf_count=93 4229 1282 113 38 5683 516 10076 41 49 7592 2515 12469 2045 485 673 2879 610 59 13399 23 646 135 96 7943 899 524 4747 1303 549 2062
internal_value=0 -0.00661368 0.0239798 0.0180899 0.00921632 0.00744285 -0.0104835 0.00511686 0.0157423 -0.00308361 0.0326095 -0.0072442 0.00274331 0.0172919 0.0140687 0.0350443 -9.75461e-05 -0.0114121 -0.00665276 -0.0189658 -0.00166772 0.0557632 0.0525529 -0.0243062 -0.00346198 -0.00995257 -0.0131114 0.0195328 -0.00312972 -0.0165402
internal_count=83773 65663 18110 13881 9112 14175 51488 13524 5891 7633 2564 37259 3327 6937 6356 4769 13725 23534 13458 14229 13115 651 581 8935 992 5294 4770 1890 587 2175
shrinkage=0.1


Tree=24
num_leaves=31
num_cat=0
split_feature=0 3 0 4 1 1 2 3 0 3 0 3 3 3 1 4 1 2 2 0 2 3 0 2 0 2 4 1 0 1
split_gain=10.9864 3.49064 2.41255 1.82517 1.20917 1.20732 1.18462 1.11697 0.992143 1.06547 0.963512 0.891387 2.98821 1.69583 0.827186 0.745151 0.684845 0.596836 0.560654 0.519466 0.487472 0.449366 0.670969 0.473955 0.394799 0.388207 0.373723 0.860219 0.388499 0.367664
threshold=1.0230178649390773 0.15980560912184033 0.2652536672877514 0.043847231416770889 -0.58993703403587405 -0.63231622143852739 -0.28748341268479333 -1.4171010286027055 2.05829223112399 -1.7127710231748383 -0.34232822141803393 0.45547560368909451 0.55403226854484611 0.35691893883334297 -1.2174180108087354 2.991214941544643 1.0423277572783201 -0.42331040831058697 -1.0901123478861499 -0.55639832813717616 1.7270328681278151 1.0000000180025095e-35 1.7843078275105959 -0.70531719543746541 -1.4870672064609447 -0.80770078493176933 -0.26258986509935939 0.26124398298026308 -1.0819487865520305 -1.4570092714819582
decision_type=2 2 2 2 2 2 2 2 2 2 2 2 2 2 2 2 2 2 2 2 2 2 2 2 2 2 2 2 2 2
left_child=1 7 3 14 -4 8 16 18 9 -2 24 13 -13 -6 -3 -8 -5 -12 -1 -16 -11 22 23 -7 -9 -26 27 -20 -28 -19
right_child=5 2 4 6 11 21 15 10 -10 20 17 12 -14 -15 19 -17 -18 29 26 -21 -22 -23 -24 -25 25 -27 28 -29 -30 -31
leaf_value=0.0057102771372430855 -0.007887406396509717 -0.011655759714160335 -0.0086107369526871487 0.0013016167375681292 0.0026812532900972086 0.0048506646692390576 -0.00061222622850249427 0.0094505133746748265 0.0029676789601372636 0.0012424612614861299 0.0003769153413068785 -0.0050032194458075607 0.0032681945136759784 0.01020507343555057 -0.0011020859680672447 0.0035128410823020437 0.0037303624543166452 -0.0044450879453053708 -0.0035609737674350845 6.3103301029090193e-06 -0.0035517856576901558 0.0047365073545269582 0.0049396584860080875 0.0016853625856123929 -0.00029974567765066336 -0.0016851521689150173 0.011157126854295317 -0.013028568486847423 -0.0019920629287683367 -0.00074034717431477131
leaf_count=72 159 68 96 3873 1135 581 3983 33 2394 1667 5979 541 2267 407 9420 492 1658 273 1623 7672 243 2573 1352 2546 2339 14952 23 102 974 14276
internal_value=0 -0.00457157 0.00330963 -0.000224511 0.024904 0.0286871 0.0105096 -0.0107011 0.0158159 -0.000222323 -0.00927686 0.0273539 0.0167459 0.0466711 -0.00648358 -0.00158699 0.0202967 -0.00464202 -0.029996 -0.00604566 0.00632513 0.036833 0.0307827 0.0227348 -0.0147689 -0.0149774 -0.0322999 -0.041208 -0.0168872 -0.00809864
internal_count=83773 72258 31612 27166 4446 11515 10006 40646 4463 2069 37852 4350 2808 1542 17160 4475 5531 20528 2794 17092 1910 7052 4479 3127 17324 17291 2722 1725 997 14549
shrinkage=0.1


Tree=25
num_leaves=31
num_cat=0
split_feature=0 1 2 0 4 2 3 3 3 1 0 3 3 1 0 4 1 4 4 0 4 2 2 2 3 3 3 0 1 3
split_gain=8.98224 2.6189 1.63503 1.59343 1.22919 1.209 1.16592 1.03934 0.932222 0.859997 0.803634 0.932577 0.838861 0.788154 0.753565 0.72717 0.654963 0.55772 0.549344 0.527594 0.475668 0.4579 0.423721 0.409997 0.409797 0.408551 0.394094 0.507727 0.37618 0.36578
threshold=0.55922082789024719 0.45482935930627028 -0.7303767914686905 1.2814844367162734 0.14413573573114091 -0.42331040831058697 -1.5156576934600829 -1.0228743691715689 -0.62864770974205875 -0.74218300315169594 -0.53696908650065001 0.75114559826447957 0.45547560368909451 -1.1465330434350556 1.4773723421516574 1.3865988725147245 0.49685404527733629 4.1222464068678173 3.7712366417675223 -1.1939848614126631 -0.87546405813162032 0.30663378059438351 2.2652871023647347 -0.99932652148358725 -1.7127710231748383 0.55403226854484611 0.45547560368909451 -0.59598161608095401 0.3491122881955992 -0.92431770431419147
decision_type=2 2 2 2 2 2 2 2 2 2 2 2 2 2 2 2 2 2 2 2 2 2 2 2 2 2 2 2 2 2
left_child=1 9 25 7 6 8 21 24 -6 17 19 12 -12 14 -5 16 -9 26 22 -11 -8 -3 -7 -22 -4 -2 -1 -28 -26 -21
right_child=2 4 3 13 5 18 20 15 -10 10 11 -13 -14 -15 -16 -17 -18 -19 -20 29 23 -23 -24 -25 28 -27 27 -29 -30 -31
leaf_value=-0.0018722067939510548 0.0031134452890881261 -0.026193958002588027 -0.0067899131994943705 -0.0094975806904274152 0.014495450011926933 -0.00041925880319913783 0.0047346046895231355 0.001145363366168292 0.0027436796170655711 0.0012380668083314316 -0.00037547542509113537 0.001563889472866592 -0.0023989815043155356 0.0031133297482462308 0.00095569910873902057 0.0053681018253561802 -0.0024371375213583591 0.0096343170692462753 0.0047136973292941642 -0.0029390604121667246 0.0012698297924685501 -0.0055049065034836536 0.0076926338287056284 -0.0004454370975838385 -0.0015288543295985683 0.0055303338018979284 -0.00093751768141462494 -0.0082673879362314667 0.0054961230767366946 -0.0012582549755117468
leaf_count=6215 3567 23 142 73 69 2644 202 5362 3108 794 19372 2217 2291 5208 1247 371 564 41 246 1414 1665 20 66 8547 1616 870 164 223 80 15352
internal_value=0 -0.00562724 0.019054 0.0139644 0.0052063 0.016446 -0.00138573 0.00462612 0.0299891 -0.00936512 -0.00767186 -0.00389558 -0.00589474 0.0256015 0.00377601 0.0107328 0.00804403 -0.019928 0.00189027 -0.0128073 -0.000707215 -0.165711 -0.002217 -0.00165774 -0.0162955 0.0358734 -0.02065 -0.0516119 -0.0119749 -0.0140001
internal_count=83773 64673 19100 14663 16590 6133 10457 8135 3177 48083 41440 23880 21663 6528 1320 6297 5926 6643 2956 17560 10414 43 2710 10212 1838 4437 6602 387 1696 16766
shrinkage=0.1


Tree=26
num_leaves=31
num_cat=0
split_feature=0 4 3 2 0 1 3 0 1 2 1 0 1 3 3 3 1 0 0 2 4 1 3 0 0 4 2 3 3 0
split_gain=7.33567 2.65309 1.6164 1.54195 1.30181 0.908999 0.906594 0.897454 0.825755 0.897277 0.779438 0.770216 0.93167 0.701151 0.663306 0.615418 0.568297 0.569711 0.51332 0.509076 0.482461 0.473767 0.384408 0.383392 0.38074 0.352687 0.345115 0.336482 0.331771 0.4978
threshold=1.0230178649390773 0.36142749507894262 -0.13586438545354473 -0.0090761276773640535 0.52845223040207878 -0.63231622143852739 -1.7127710231748383 -0.042658325956662586 0.47121434307423954 0.5991910302051745 0.77909104354838021 2.1434084304689041 -1.6194755504895049 1.1453722576956162 0.061248944257957884 1.4410422522628707 -1.2990435381072982 -0.54282320691608243 -0.27116847689031021 -1.4035059546554989 4.1222464068678173 0.37720873714811637 -1.6142143583174606 -1.4074863801087403 -1.6224431615327628 2.1276194877264585 3.5456197918653247 -1.2199876988863241 1.0000000180025095e-35 1.7843078275105959
decision_type=2 2 2 2 2 2 2 2 2 2 2 2 2 2 2 2 2 2 2 2 2 2 2 2 2 2 2 2 2 2
left_child=1 2 6 7 16 11 21 10 9 -6 23 12 -2 -10 -12 25 -4 -18 27 -20 24 -1 -14 -3 -5 -9 -26 -8 29 -7
right_child=5 3 4 20 8 28 18 15 13 -11 14 -13 22 -15 -16 -17 17 -19 19 -21 -22 -23 -24 -25 26 -27 -28 -29 -30 -31
leaf_value=-0.0048181074628761665 -0.0083457580199934444 0.0062461556579021492 -0.0081803951599110549 0.0058681031791074732 0.0036104914009321512 0.0018378603979901998 -0.0030376554939966411 0.0024795750044937781 -0.0027522763600027183 -0.0025464673481157352 0.012352164666272997 0.0025283644094600908 -0.0035713264040143581 0.0062658815383029552 0.0023817006059273361 0.0089273774069853328 -0.00079613690670047557 9.9489632161132329e-05 0.0068486329443244775 -0.00078108186035274422 0.0033012692782223435 -0.020526503287255766 0.00087579766517477213 0.00014802991203733369 -0.00084936930210099341 0.0065536756953283939 0.0047379704348874839 -0.0014242082542166986 0.0039559011911174599 0.0041343568442416059
leaf_count=480 129 106 93 89 1870 3127 1460 1601 529 271 69 2253 217 103 2023 195 14274 14136 88 14026 334 20 1864 3766 5096 245 113 11271 2573 1352
internal_value=0 -0.00373557 -0.00665815 0.00882762 -0.00174814 0.0234412 -0.012274 0.0177468 0.018936 0.0283117 0.0115527 0.0122727 -0.000991375 -0.0128254 0.0271055 0.0358466 -0.00376046 -0.00350499 -0.0114882 -0.00733511 -0.00384963 -0.0544644 0.00412066 0.00314972 -0.00617353 0.0302029 -0.00728162 -0.0160924 0.0305093 0.0253106
internal_count=83773 72258 58621 13637 31276 11515 27345 8005 2773 2141 5964 4463 2210 632 2092 2041 28503 28410 26845 14114 5632 500 2081 3872 5298 1846 5209 12731 7052 4479
shrinkage=0.1


Tree=27
num_leaves=31
num_cat=0
split_feature=0 3 3 0 4 1 0 1 3 1 3 0 2 0 0 2 1 2 3 3 0 3 1 3 1 1 4 1 2 4
split_gain=5.9756 1.86137 1.19938 1.4595 0.905821 0.844437 0.806286 0.738201 0.63181 0.553631 0.551808 0.547077 0.541721 0.790237 0.518402 0.511206 0.484274 0.473491 0.452301 0.41319 0.396653 0.39383 0.390389 0.367031 0.753221 0.360647 0.368895 0.352312 0.350941 0.343732
threshold=0.55922082789024719 1.2439289225513679 -0.33297771516504732 1.5612825877812477 3.2252214516115081 1.0000000180025095e-35 -0.45393361723225356 -1.2553052817395036 -1.2199876988863241 3.4166797915922653 2.0323822414055099 -1.1496689856952396 -0.11798546392101709 -0.53696908650065001 1.4773723421516574 0.5991910302051745 -1.0296886587758578 -1.2028536496359903 -1.8113276880322158 0.45547560368909451 0.85854262264396819 -1.4171010286027055 1.2086082224563193 0.94825892797598244 0.39920258302048667 -0.86376092158234974 1.1748786967399436 0.017415933394140888 -0.79799789434221957 0.03270406427073002
decision_type=2 2 2 2 2 2 2 2 2 2 2 2 2 2 2 2 2 2 2 2 2 2 2 2 2 2 2 2 2 2
left_child=1 4 3 8 5 16 9 14 25 27 -8 -6 13 -7 -4 23 -1 -10 29 -18 -17 -14 -13 24 -9 26 -2 -3 -29 -5
right_child=2 6 7 18 11 12 10 15 17 -11 -12 22 21 -15 -16 20 19 -19 -20 -21 -22 -23 -24 -25 -26 -27 -28 28 -30 -31
leaf_value=-0.002221472741772723 -0.0044125257993573802 0.004616641263459495 -0.020394399394059466 -0.0091262722943893423 0.010764753184332398 -0.00069028646505485576 0.0022214079238873259 0.0030823365472156835 0.0062759617290010913 0.0047191392459004326 0.0069466760036550257 0.0014272073481025962 -0.0052637826523576417 0.00068561209402107385 -0.0023554443222978576 -0.0021934858157682422 -0.00075050054231274113 0.00031187752683484323 0.0024818498259123302 -0.0019021683402207395 0.0019482085187050033 -0.00073254128012685028 0.014472107034331808 0.0053247300188099464 0.00011473797535626533 -0.00073610208628670357 0.0088041043798015878 0.0014143291823104803 -0.00051675280596720269 0.00066307974357574071
leaf_count=3168 527 181 21 58 82 7519 1074 5709 137 302 321 520 195 9384 66 366 22267 4693 4141 3622 628 11730 24 550 1006 1082 22 1396 2888 94
internal_value=0 -0.0045898 0.0155412 0.00856018 -0.00633079 -0.00673997 0.0119417 0.0245363 -0.000935962 0.00575375 0.0330873 0.0315046 -0.00290538 0.00073568 -0.0670967 0.0255016 -0.0105443 0.00481045 0.022852 -0.00911625 0.00423198 -0.00806637 0.0200272 0.0284117 0.0263775 -0.0179532 -0.038829 0.00295103 0.00112517 -0.0307233
internal_count=83773 64673 19100 10754 58511 57885 6162 8346 6461 4767 1395 626 28828 16903 87 8259 29057 4830 4293 25889 994 11925 544 7265 6715 1631 549 4465 4284 152
shrinkage=0.1


Tree=28
num_leaves=31
num_cat=0
split_feature=0 4 3 2 0 2 2 3 0 1 1 1 3 1 1 1 1 0 3 0 1 0 4 1 4 0 0 0 0 1
split_gain=4.93395 1.98002 1.18357 1.17362 0.81693 0.829181 0.732321 0.678203 0.6677 0.663362 0.627772 0.591329 0.593379 0.563666 0.495897 0.451513 0.446326 0.442055 0.43124 0.423152 0.412843 0.402624 0.399638 0.384685 0.358299 0.352363 0.350408 0.358698 0.34136 0.313616
threshold=1.0230178649390773 0.35028432793290132 -0.13586438545354473 -0.0090761276773640535 0.34800647854457661 0.064724499178725844 1.6328969723554536 -1.7127710231748383 -0.042658325956662586 0.48777885745073896 0.28776218493691463 0.77909104354838021 0.061248944257957884 -1.6194755504895049 1.118683683277568 -1.1143728455321924 0.64646305071839782 2.2460118907741546 1.4410422522628707 2.1434084304689041 -0.25287115216624095 -0.68662986523697545 -0.30159095011050335 -0.31474696003934838 -0.83089138954745601 1.9793206917706987 -1.345338951252004 0.33290450888896111 -0.061876184207941408 -0.52251609986081105
decision_type=2 2 2 2 2 2 2 2 2 2 2 2 2 2 2 2 2 2 2 2 2 2 2 2 2 2 2 2 2 2
left_child=1 2 7 8 15 9 13 20 11 -6 -7 -3 -13 17 16 28 -9 -2 29 -8 -1 -16 -22 25 -17 -15 -5 -28 -4 -10
right_child=6 3 4 26 5 10 19 14 18 -11 -12 12 -14 23 21 24 -18 -19 -20 -21 22 -23 -24 -25 -26 -27 27 -29 -30 -31
leaf_value=-0.0034874999655546478 -0.0066667006122380764 0.00028907711750099786 -0.0038121619875797381 0.0030635685755652808 0.0028529497373121623 0.00045296951106519316 -0.0022441992232433601 -0.0010151137641355825 -0.0018726402975071769 -0.00035806556906284439 -0.0047230023792827775 0.01128314068644411 0.0020465087353274186 0.0010981544370760232 3.9239211714473266e-05 0.0014406279625493446 0.0016848253180158505 0.00045895617246232415 0.0075695951899382267 0.0032418952487085458 -0.017173335470378082 -0.015070620201941992 -0.0020817011993910588 0.0030298849627672418 -0.00038742063416281647 0.0026440729463113703 -0.0008959878647801932 0.001203542620661961 -0.017447885520578851 0.003000569268345465
leaf_count=422 112 3947 146 289 2295 697 618 26066 143 894 353 72 2045 3322 29 1119 627 391 195 182 47 45 28 4239 25628 2651 4427 997 21 1726
internal_value=0 -0.00306362 -0.00561165 0.00769057 -0.00140077 0.0115025 0.0192246 -0.0104232 0.0154106 0.0195278 -0.0128714 0.0101228 0.0236065 0.0214036 -0.00974357 -0.00343306 -0.00951694 -0.0112767 0.0309461 -0.00996113 -0.0470253 -0.0914919 -0.115391 0.0230133 -0.00310942 0.0178428 -0.0032929 -0.00510068 -0.0552683 0.0262771
internal_count=83773 72258 58417 13841 31153 4239 11515 27264 8128 3189 1050 6064 2117 10715 26767 26914 26693 503 2064 800 497 74 75 10212 26747 5973 5713 5424 167 1869
shrinkage=0.1


Tree=29
num_leaves=31
num_cat=0
split_feature=0 3 4 2 3 3 0 4 3 0 0 1 1 3 3 0 3 0 1 1 0 4 3 0 1 1 2 0 2 3
split_gain=4.00791 1.45545 0.97727 0.865864 0.773222 1.77488 0.700736 0.811582 0.576507 0.82811 0.491258 0.488696 0.484809 0.654698 0.487326 0.477082 0.816597 0.597526 0.544038 0.476742 0.486835 0.443624 0.493876 0.466345 0.580551 0.40987 0.388093 0.359098 0.345398 0.341441
threshold=0.64317961187655781 0.25836227397759165 0.043847231416770889 -0.74698810092264345 0.45547560368909451 0.55403226854484611 1.2814844367162734 0.18870840431530536 0.35691893883334297 0.23931467952331614 -0.75621338017449236 -0.088960032889798604 0.24796956930552275 -0.33297771516504732 0.84970226312023112 -0.41912599764444486 1.6381555819825044 -1.345338951252004 2.4505469181618675 -1.1465330434350556 1.4773723421516574 3.7712366417675223 -1.6142143583174606 -0.87907297699669928 0.42158689928834464 0.46302662824411384 1.1951322004797607 -0.34232822141803393 -1.2185084821979355 -0.92431770431419147
decision_type=2 2 2 2 2 2 2 2 2 2 2 2 2 2 2 2 2 2 2 2 2 2 2 2 2 2 2 2 2 2
left_child=1 21 4 -2 8 25 7 12 -3 -10 -7 26 13 -5 -14 17 28 -4 -19 20 -8 22 23 -1 -25 -6 -9 29 -17 -24
right_child=3 2 15 6 5 10 19 11 9 -11 -12 -13 14 -15 -16 16 -18 18 -20 -21 -22 -23 27 24 -26 -27 -28 -29 -30 -31
leaf_value=0.0078271458072489818 0.0026545711324870132 -6.8760867378824092e-05 0.0024653954964198033 -0.00077238903740206946 -0.0042803452325039645 -0.0010481184943108509 -0.0079227265378791992 0.0016989127389832803 0.0015477134376685601 0.0084979361257337318 0.00033585684412987282 0.0039423963858446539 -0.0030672841384879624 0.001798814722895504 0.0042957514392910527 0.0058889918114823281 0.0063044971123910436 -9.4130372437896531e-05 0.0062862464790164503 0.0021334522107744583 0.00047670377822794393 0.0038852522024789881 -0.0019439239104054916 -0.0029889435365833919 -0.016500675215414078 0.00010146135105751456 -0.003587391439655445 -0.00039823212212117395 0.0011386260956869336 -0.00082390635179958405
leaf_count=38 3932 2413 1270 2821 1461 4078 73 576 1534 193 6912 823 889 1526 100 162 384 5449 137 5266 1261 206 3271 874 33 250 183 18671 2774 16213
internal_value=0 -0.00354791 0.00210246 0.0134847 -0.00257267 -0.00644123 0.00968563 0.00265324 0.00929559 0.0232443 -0.00177687 0.0225453 -0.0032443 0.00130224 -0.0232279 0.00983967 0.0196792 0.0050749 0.000623522 0.0170569 0.000170648 -0.0074317 -0.00767555 -0.0302585 -0.0348055 -0.036401 0.00424349 -0.00711623 0.0140074 -0.0101194
internal_count=83773 66323 27017 17450 16841 12701 13518 6918 4140 1727 10990 1582 5336 4347 989 10176 3320 6856 5586 6600 1334 39306 39100 945 907 1711 759 38155 2936 19484
shrinkage=0.1


Tree=30
num_leaves=31
num_cat=0
split_feature=0 4 3 0 1 3 2 1 3 1 2 0 2 0 3 0 1 0 3 4 2 3 0 3 0 2 1 2 2 3
split_gain=3.27331 1.33142 1.04143 0.796508 0.952253 0.833015 0.693458 0.537356 0.527555 0.42689 0.415094 0.379364 0.358457 0.338916 0.316994 0.315118 0.382029 0.306272 0.30064 0.39953 0.463596 0.295442 0.29338 0.444316 0.242095 0.241249 0.237763 0.297114 0.237448 0.234883
threshold=0.94583461930462465 3.459227961678371 0.15980560912184033 0.097250799332457269 -1.2990435381072982 0.45547560368909451 1.6328969723554536 0.76352515954067168 -1.3185443637445149 -0.63231622143852739 -0.43027247673500352 1.7843078275105959 3.5456197918653247 -0.34232822141803393 0.45547560368909451 0.3774790218458855 -0.15036431015467019 0.15488404716486251 -1.7127710231748383 0.043847231416770889 -0.21204127672897846 0.55403226854484611 1.3176323285007923 0.45547560368909451 1.1569788683040414 -0.44544227940662268 -0.41919395407487786 1.7790345984659828 -0.80770078493176933 -1.2199876988863241
decision_type=2 2 2 2 2 2 2 2 2 2 2 2 2 2 2 2 2 2 2 2 2 2 2 2 2 2 2 2 2 2
left_child=1 2 8 7 -5 -6 9 14 12 18 -9 26 17 28 -4 29 -17 -1 19 20 -2 22 23 -11 -20 -15 -8 -28 -10 -3
right_child=6 15 3 4 5 -7 11 10 13 21 -12 -13 -14 25 -16 16 -18 -19 24 -21 -22 -23 -24 -25 -26 -27 27 -29 -30 -31
leaf_value=-0.0025893282360424882 -0.014924226265128066 0.012876977464607496 0.00018260294692337009 -0.019120083093319251 0.0029107175735114 0.00037827315485638633 -0.0042614675648472598 0.0013861300268433979 8.1965062098310481e-05 0.0014446308884249646 -0.00028734045317603372 0.0016041872992288335 0.0064618131056284681 0.00031491278203395673 -0.00068676338156254302 -0.00062641920521855354 0.013314949676058577 -0.00069892399241534473 -0.0018418637813570407 0.0017002944809453295 -0.0023853182304827943 0.0037505959002126065 0.0025012912795473255 -0.0040899570852524171 0.0013196573441266884 -0.00047248681604616867 -0.0076283428934402764 0.0020384604339638065 -0.0010127451938748806 0.002432990599316964
leaf_count=2347 41 22 6374 23 2003 3695 369 3571 2294 2792 2534 306 52 5442 12264 29 61 1350 260 131 105 991 3619 153 3540 13654 40 155 14540 1016
internal_value=0 -0.00261803 -0.00316614 0.00123139 0.0118653 0.012685 0.0149248 -0.00122734 -0.00654239 0.0169616 0.00691523 -0.0123077 -0.0178306 -0.00536456 -0.00389449 0.0314651 0.0882273 -0.0189903 0.00871496 -0.0230907 -0.0590652 0.0214119 0.0189821 0.011571 0.0110334 -0.00248093 -0.0276889 0.000555264 -0.00863567 0.0265435
internal_count=83773 71271 70143 30464 5721 5698 12502 24743 39679 11632 6105 870 3749 35930 18638 1128 90 3697 4077 277 146 7555 6564 2945 3800 19096 564 195 16834 1038
shrinkage=0.1


Tree=31
num_leaves=31
num_cat=0
split_feature=0 4 2 2 1 3 3 4 0 3 3 4 2 0 0 3 3 3 0 1 0 1 1 0 4 4 2 4 0 2
split_gain=2.69083 0.999915 0.768207 0.746198 0.626761 0.621528 0.589489 0.573674 0.554528 0.717737 0.836956 0.40542 0.390747 0.473386 0.367885 0.353584 0.841377 0.583885 0.418657 0.351088 0.328686 0.313079 0.31242 0.354276 0.308 0.339817 0.313949 0.290869 0.281741 0.351065
threshold=0.55922082789024719 0.37814224579800421 -1.2028536496359903 0.13443693044960123 -0.046723676750470906 -1.6142143583174606 -1.5156576934600829 -0.10658552505478401 1.3176323285007923 0.65258893340872837 0.45547560368909451 4.1222464068678173 -1.0107013096696165 -0.21101044063155774 0.13159376179996232 0.45547560368909451 0.55403226854484611 1.0000000180025095e-35 0.46322411704847194 -0.13219114386790667 0.46322411704847194 0.76352515954067168 3.4166797915922653 -0.43305773921071467 0.65672142444903192 2.0440457341311502 0.16367457106152236 -0.84203455669349692 -0.84920997369799234 -0.55498030739067661
decision_type=2 2 2 2 2 2 2 2 2 2 2 2 2 2 2 2 2 2 2 2 2 2 2 2 2 2 2 2 2 2
left_child=1 4 -2 11 15 7 14 -4 9 10 -7 22 13 -8 -6 17 18 -1 -17 -10 -19 -11 23 -3 -5 -26 -27 -14 -13 -30
right_child=2 3 5 24 6 8 12 -9 19 21 -12 28 27 -15 -16 16 -18 20 -20 -21 -22 -23 -24 -25 25 26 -28 -29 29 -31
leaf_value=-0.00098393046804625957 0.0037395848581005912 0.00026039043286605495 -0.0042999112829824699 0.00079013852475064172 -0.0088895324155688279 0.00054482876172183418 -3.3966693075638587e-05 0.00084179440869908649 0.0013684676980904175 0.0037633379830786604 -0.0029792159716716853 0.0016977007095706903 0.0016112746471480931 0.0023244705989255861 0.0008636482280313172 -0.0040155615296426535 -0.00071630719225456991 0.00026193073883216288 -0.015326669560368723 0.0031921268408809642 0.0072277572577940713 -0.0012828002302822743 0.0048752344605165173 0.0017055543117979325 -0.0018067299958153807 -0.0097689026517087021 0.00079852800286971625 -0.0003507373906857201 0.010559760763200823 0.0022059223584896563
leaf_count=17244 1001 4472 432 1216 125 8236 2373 436 5958 877 734 237 780 1327 56 871 1840 3705 34 1283 69 143 194 2733 2087 29 920 24158 111 92
internal_value=0 -0.00307997 0.0104288 0.00511991 -0.0049655 0.00893738 -0.00183045 -0.0171721 0.0102526 0.0054229 0.00256462 0.0109057 -0.0014709 0.00811884 -0.0587197 -0.00876758 -0.0194414 -0.00737355 -0.0444051 0.0169159 0.00389287 0.0305589 0.00915197 0.0080857 -0.00554678 -0.0109331 0.00475603 -0.0028937 0.0403962 0.0677378
internal_count=83773 64673 19100 12091 52582 18099 28819 868 17231 9990 8970 7839 28638 3700 181 23763 2745 21018 905 7241 3774 1020 7399 7205 4252 3036 949 24938 440 203
shrinkage=0.1


Tree=32
num_leaves=31
num_cat=0
split_feature=0 1 3 0 2 4 3 0 3 1 2 4 1 2 1 4 0 3 3 2 0 1 4 2 4 2 4 0 1 1
split_gain=2.17957 0.871369 0.668523 0.718197 0.554853 0.479621 0.700179 0.515994 0.42088 0.413659 0.382269 0.415318 0.425214 0.378977 0.360466 0.330778 0.292081 0.618946 0.602953 0.299387 0.298939 0.299988 0.289075 0.267486 0.26136 0.466066 0.325289 0.259014 0.256777 0.241124
threshold=0.55922082789024719 0.45482935930627028 -0.72720437459943643 2.05829223112399 -0.87759761540556258 -0.067584440043640212 -0.72720437459943643 -0.69919223541070241 -1.7127710231748383 -1.7312639226341469 -1.1290026576302525 2.4229134170965483 0.39920258302048667 1.9876845826823732 -1.1143728455321924 -0.050869689324578304 -0.10042714140014895 0.75114559826447957 0.45547560368909451 -0.12616912287781898 -1.1939848614126631 0.3491122881955992 -0.095442357908742989 -1.3698216779245638 -0.29601936653748279 0.008505181880674886 -0.87546405813162032 1.1569788683040414 -1.7312639226341469 -1.4570092714819582
decision_type=2 2 2 2 2 2 2 2 2 2 2 2 2 2 2 2 2 2 2 2 2 2 2 2 2 2 2 2 2 2
left_child=1 14 3 8 5 7 -7 22 28 -4 -11 12 -12 24 -1 -8 20 18 -18 -19 21 -16 -3 -10 26 -26 -6 -13 -2 -5
right_child=2 4 9 29 13 6 15 -9 23 10 11 27 -14 -15 16 -17 17 19 -20 -21 -22 -23 -24 -25 25 -27 -28 -29 -30 -31
leaf_value=-0.0016424348014166931 -0.010350783529937409 -0.001343450513022947 -0.010523208308712066 9.0022423287646212e-05 0.0044359514405692205 0.01678955233313472 0.014489281736314297 0.0015559735195115802 0.0082630508736631757 0.0031841769477554504 0.0013982347346993562 0.008569329170907131 -0.00050960857615561187 0.0045165579791019142 0.0019765003348911608 0.0021511850063251838 1.2834154834203338e-05 0.0036876771260820011 -0.0023922121154398407 -9.1541040716553792e-06 -0.00063532916669471122 -0.0038344077761331115 -0.01323459266152765 -0.00027140459683743027 0.00094604155340507221 -0.00072741909661796405 -0.00070765091359059954 0.0021541255477887508 -0.0027010589664089768 0.0024677682972197574
leaf_count=2581 53 772 29 603 126 34 22 1349 37 1129 9021 122 1342 185 738 1764 10693 633 1155 335 31847 101 21 4922 4640 2595 5082 130 255 1457
internal_value=0 -0.00277197 0.00938596 0.00188664 0.00347705 0.0138017 0.0257379 0.00365984 -0.00430507 0.0140532 0.0143478 0.0124871 0.0115117 0.000237719 -0.00492806 0.0230317 -0.00427596 -0.000229819 -0.00221621 0.024083 -0.00586243 0.0127698 -0.0165835 -0.00207727 -0.000430259 0.00345816 -0.00583209 0.052599 -0.0401741 0.0177176
internal_count=83773 64673 19100 7327 16590 3962 1820 2142 5267 11773 11744 10615 10363 12628 48083 1786 45502 12816 11848 968 32686 839 793 4959 12443 7235 5208 252 308 2060
shrinkage=0.1


Tree=33
num_leaves=31
num_cat=0
split_feature=0 3 3 3 0 1 0 3 3 3 3 0 2 1 0 1 1 3 0 1 2 4 2 1 0 4 2 4 2 1
split_gain=1.84304 0.979771 0.991076 2.63238 1.3015 1.36598 0.656374 0.600959 0.550756 0.530244 0.517901 0.451368 0.418962 0.41792 0.377003 0.35005 0.33323 0.326609 0.451688 0.362224 0.277087 0.268236 0.500241 0.260678 0.360022 0.257302 0.253621 0.252481 0.251238 0.226974
threshold=1.0470591166179271 0.25836227397759165 0.45547560368909451 0.55403226854484611 0.2652536672877514 0.48777885745073896 -0.080711372226518183 2.0323822414055099 0.35691893883334297 0.35691893883334297 0.35691893883334297 0.30498735018977779 0.88015554726471046 -1.5311082258607185 2.2460118907741546 -0.94231284404786775 0.20437263254277563 -1.6142143583174606 -0.87907297699669928 0.42158689928834464 -1.4035059546554989 2.0440457341311502 -0.019145245994533686 -0.27369220772885278 1.8429251761215217 0.52857500226955934 0.37729932192123727 -0.6526007152107981 1.6328969723554536 -0.56884920736097788
decision_type=2 2 2 2 2 2 2 2 2 2 2 2 2 2 2 2 2 2 2 2 2 2 2 2 2 2 2 2 2 2
left_child=1 17 4 11 10 9 12 -8 -7 -6 29 16 -5 14 26 -13 -4 18 -1 -20 -19 27 -23 24 28 -12 -2 -22 -15 -3
right_child=13 2 3 6 5 8 7 -9 -10 -11 25 15 -14 23 -16 -17 -18 20 19 -21 21 22 -24 -25 -26 -27 -28 -29 -30 -31
leaf_value=0.0080373026863006618 -0.001041939697395801 0.0042470023131159981 -0.0031992195294846199 0.00018412819223154257 0.0049835729775526503 -0.0053133299233721334 0.00120554593029921 0.0073397200668920736 0.0032715580683495651 0.010673824597872483 0.0014118324869032463 -0.017319783277343959 -0.0019882985526797005 0.00055067034802525885 0.00023887166162823187 -0.0049811447088080451 -0.00046762223344856712 0.0025198239395173177 -0.0021918648956603076 -0.012255526093901388 -2.293059196669208e-06 0.0042019808019810754 -0.00071521111877438182 0.0020163927174145532 0.00173057991758777 0.0042280043492718498 -0.0083468450937538834 -0.00061622031029238023 -0.0022776296909432859 -0.00028461001559795178
leaf_count=42 89 115 1390 14414 434 147 4215 166 152 263 1816 24 946 3060 530 548 658 315 1072 37 8382 350 506 3799 3256 395 102 33358 350 2842
internal_value=0 -0.0018413 0.00272488 -0.00036988 0.0139516 0.0470512 0.00358283 0.0143798 -0.00949106 0.0713068 0.00757255 -0.0301525 0.000503316 0.0119483 -0.0113385 -0.0549885 -0.0232159 -0.00479736 -0.0214211 -0.0252762 -0.00435146 -0.00456998 0.0129532 0.0135527 0.00978495 0.0191495 -0.0494299 -0.00492935 0.00260376 -0.00108372
internal_count=83773 72587 28525 22361 6164 996 19741 4381 299 697 5168 2620 15360 11186 721 572 2048 44062 1151 1109 42911 42596 856 10465 6666 2211 191 41740 3410 2957
shrinkage=0.1


Tree=34
num_leaves=31
num_cat=0
split_feature=0 4 0 2 1 3 0 1 3 3 1 0 2 1 1 4 0 2 0 3 4 3 0 4 1 0 1 0 1 0
split_gain=1.50591 0.69746 0.565571 0.526712 0.45998 0.413083 0.405303 0.576295 0.425744 0.3865 0.386442 0.559605 0.337087 0.319323 0.269804 0.242904 0.232298 0.380128 0.23143 0.294233 0.228881 0.267264 0.20077 0.212067 0.200801 0.245195 0.199211 0.200336 0.226101 0.42566
threshold=0.55922082789024719 3.459227961678371 -1.4074863801087403 -0.7303767914686905 2.4505469181618675 0.84970226312023112 1.8429251761215217 -1.2174180108087354 0.45547560368909451 -0.33297771516504732 -0.74218300315169594 -0.53696908650065001 3.5456197918653247 0.49685404527733629 -1.4570092714819582 0.70129409303319634 2.1434084304689041 0.67882460824056323 0.57503801073986172 1.0000000180025095e-35 0.010417729978647596 2.3280522359808948 0.59273937294960433 -0.034154938605516778 -0.35002502767632687 0.87832647631426364 -1.0839651433427826 0.39107108380006322 0.81082446832654831 -0.75621338017449236
decision_type=2 2 2 2 2 2 2 2 2 2 2 2 2 2 2 2 2 2 2 2 2 2 2 2 2 2 2 2 2 2
left_child=1 2 5 18 10 -1 7 8 15 -9 12 -12 -4 -11 16 -5 17 -8 19 -2 -7 -22 23 -20 25 -24 -3 28 -28 -30
right_child=3 26 4 6 -6 20 14 9 -10 13 11 -13 -14 -15 -16 -17 -18 -19 22 -21 21 -23 24 -25 -26 -27 27 -29 29 -31
leaf_value=0.006839214994599857 -0.00036071380957089847 0.012192489481531085 -0.0011393669222678855 -0.0032422928655656785 0.0054338563188806631 -0.0027617276960333424 0.00042038596306077165 -0.00018748014402154191 -0.016781031870050356 0.0013230258516226849 -0.0005925683806988105 4.4526161423408427e-05 0.0046825984291044192 -0.0012197246081320503 0.0018345353456018542 0.0050087851651299461 0.00027730570055131812 -0.01352375610046746 -0.0086293933962128654 0.012243953650898261 0.0045088482924586252 0.00059799632559068934 -0.0033243621886131988 0.0037075810473073617 0.0022369535118350985 0.0011947357060055972 0.00053001959770562941 0.011148218335195755 0.001815172563944826 0.0088338482992217082
leaf_count=151 31 20 6478 419 139 126 46 5947 22 4183 24889 30909 101 560 2886 39 527 34 38 46 254 560 131 22 2731 1438 551 24 357 114
internal_value=0 -0.00230411 -0.00272924 0.00780176 -0.00312316 0.019843 0.00491305 0.00197302 -0.0319242 0.00349507 -0.00325121 -0.00239653 -0.0104999 0.0102281 0.0143147 -0.0253969 -0.00484893 -0.0550587 0.0173481 0.0716935 0.0120441 0.0181834 0.0163883 -0.0410584 0.0171899 0.00817424 0.0230631 0.0211728 0.019052 0.0351396
internal_count=83773 64673 63607 19100 62516 1091 14663 11170 480 10690 62377 55798 6579 4743 3493 458 607 80 4437 77 940 814 4360 60 4300 1569 1066 1046 1022 471
shrinkage=0.1


Tree=35
num_leaves=31
num_cat=0
split_feature=0 4 2 0 3 1 3 1 3 1 1 4 2 3 1 2 0 0 3 1 2 0 0 4 1 3 2 2 2 2
split_gain=1.24827 0.824139 0.879862 0.492789 0.546131 0.481947 0.457332 0.434971 0.511469 0.407703 0.406664 0.388797 0.379857 0.36597 0.360496 0.333078 0.327436 0.305553 0.298991 0.24723 0.246442 0.240546 0.234893 0.233998 0.317916 0.303741 0.222333 0.197882 0.231786 0.19325
threshold=1.0230178649390773 -0.21244561294217426 0.13443693044960123 -0.042658325956662586 1.4410422522628707 -0.84610866744018975 -1.7127710231748383 0.77909104354838021 -0.72720437459943643 -1.3474899824535409 -0.32212860795109127 -0.65817229878381867 3.5456197918653247 0.15980560912184033 -1.9015746844557861 -0.84951074827795381 0.94583461930462465 1.7212376671581044 -0.4315343800289298 -0.27369220772885278 -0.18655233913295269 -0.22870715853417137 2.05829223112399 -0.18458769507707165 -0.9624732250494813 -0.82576103945681401 1.6328969723554536 0.88015554726471046 0.67882460824056323 -0.23674539028799438
decision_type=2 2 2 2 2 2 2 2 2 2 2 2 2 2 2 2 2 2 2 2 2 2 2 2 2 2 2 2 2 2
left_child=1 6 3 7 5 -5 10 18 -9 13 27 16 23 20 17 -13 -11 -2 -3 22 -8 -15 26 24 -4 -25 -16 28 -1 -12
right_child=14 2 12 4 -6 -7 9 8 -10 11 29 15 -14 21 19 -17 -18 -19 -20 -21 -22 -23 -24 25 -26 -27 -28 -29 -30 -31
leaf_value=-0.0031857880338043709 -0.012078507772336405 -0.0011848562183009205 0.0092984205635730181 -0.0042175701722965411 0.005662490311354967 0.0014106102485194343 -0.0052125895157780879 0.011253650267734011 0.0011636334564019447 6.7254565784141438e-05 -0.01858585403216156 0.0002216379613591351 0.0037849675090490982 -0.0045279055966862608 0.00048453819209325045 -0.00070704884668846375 0.0060881145927891298 -0.0014157706188478386 0.00026115541333145484 0.0016884571255678721 -0.0010987730842767047 -0.018329886909898209 0.0014013626648598809 -0.001616951215767637 0.00075461605202129228 -0.00033783513145495752 -0.0018639485467897938 0.00054912317906402879 -0.014120929531583733 -0.0071905924665296205
leaf_count=163 30 1741 48 157 295 4922 188 51 3364 12184 22 4590 208 28 3869 24348 91 258 8003 3991 646 23 2917 2408 470 8105 450 135 22 46
internal_value=0 -0.00154096 0.00249341 0.00672686 0.0147959 0.0123663 -0.00436804 0.00343156 0.0131432 -0.00405307 -0.038543 -0.00359703 -0.0044875 -0.0252898 0.00966972 -0.00559745 0.0011189 -0.0252647 2.79065e-05 0.0105659 -0.0202611 -0.107523 0.00708081 -0.00528581 0.0154632 -0.00630816 0.00239848 -0.0236191 -0.0448618 -0.108773
internal_count=83773 72258 29772 18533 5374 5079 42486 13159 3415 42098 388 41213 11239 885 11515 28938 12275 288 9744 11227 834 51 7236 11031 518 10513 4319 320 185 68
shrinkage=0.1


Tree=36
num_leaves=31
num_cat=0
split_feature=0 4 2 3 3 3 3 0 1 0 0 3 2 3 1 0 1 1 3 1 1 0 0 0 4 4 3 4 2 1
split_gain=1.02633 0.529845 0.501325 0.411129 0.498676 0.980487 0.518384 0.40935 0.427944 0.394361 0.385387 0.354279 0.276983 0.316795 0.260131 0.223277 0.217542 0.205565 0.546179 0.196653 0.179793 0.402964 0.256249 0.261707 0.173568 0.170409 0.208816 0.162066 0.156716 0.155498
threshold=0.52845223040207878 4.1222464068678173 -1.2028536496359903 0.75114559826447957 0.45547560368909451 0.35691893883334297 0.55403226854484611 -1.4074863801087403 2.4505469181618675 1.0730133354167186 1.3521054635620151 0.84970226312023112 3.5456197918653247 -1.3185443637445149 0.43794219280894131 0.79691383240392388 -0.81482943432368038 0.72178004977606547 0.94825892797598244 0.27467626613082347 0.81082446832654831 -0.97798676184823774 -1.1302068239545326 -0.84920997369799234 0.29456849220269593 0.010417729978647596 2.3280522359808948 0.043847231416770889 -0.41537981337068736 0.052567974006149119
decision_type=2 2 2 2 2 2 2 2 2 2 2 2 2 2 2 2 2 2 2 2 2 2 2 2 2 2 2 2 2 2
left_child=1 7 15 4 5 9 10 11 12 -4 -6 24 13 -9 -7 29 -3 -5 -19 -8 22 -22 -18 -24 27 -13 -27 -1 -20 -2
right_child=2 16 3 17 6 14 19 8 -10 -11 -12 25 -14 -15 -16 -17 20 18 28 -21 21 -23 23 -25 -26 26 -28 -29 -30 -31
leaf_value=0.0055678727247023716 0.0091826157163207734 0.010215817531570793 -0.00015175185519408774 0.0027290975139326046 -0.0049036222581982543 0.0076635822895612313 0.0018075365770723044 -0.0012751302530555871 0.0049546090186763396 0.00086044864408829028 -0.00025280329492189936 -0.0024959588757466258 0.0035095507974966817 -0.00023292635818995719 0.001430182337200129 0.0019430531402572272 0.0064251710088067369 -0.0094413568850009247 0.0047104434531770253 -0.0022672715962731411 0.0013268927693423482 0.0088902425162333838 -0.0060361328467294795 0.0010074383952672049 0.0096176465941363413 0.0037833613976572624 0.00042714279787126264 -0.0044224096716127615 -0.0031172155375991553 0.0037403071159164292
leaf_count=62 75 35 6744 1123 481 239 448 3069 157 8967 283 126 193 58723 93 788 62 53 95 161 210 106 69 224 73 265 617 22 35 175
internal_value=0 -0.00194469 0.00629987 0.00511386 0.00383061 0.00539602 -0.0144606 -0.00224851 -0.00259668 0.00425958 -0.0318087 0.0163232 -0.00272875 -0.00284689 0.0591748 0.0276915 0.0252989 0.0222264 -0.00885259 0.00730288 0.0212898 0.0386397 0.00584602 -0.00651287 0.0605098 0.00944094 0.0143553 0.0295137 0.02603 0.05373
internal_count=83773 64013 19760 18722 17416 16043 1373 63307 62142 15711 764 1165 61985 61792 332 1038 706 1306 183 609 671 316 355 293 157 1008 882 84 130 250
shrinkage=0.1


Tree=37
num_leaves=31
num_cat=0
split_feature=0 3 1 1 2 3 2 1 4 3 2 4 3 3 3 1 4 1 3 3 4 4 0 1 4 0 4 2 0 0
split_gain=0.860376 0.702717 0.579499 0.521503 0.448845 0.414899 0.613249 0.596623 0.367516 0.508159 0.315798 0.368529 0.37925 0.349902 0.314647 0.253674 0.247898 0.329019 0.229858 0.268097 0.221343 0.31514 0.265998 0.218632 0.237267 0.234273 0.203588 0.200334 0.190499 0.182613
threshold=0.10906824256815204 1.0468155928317338 0.88721498346105798 0.81082446832654831 -1.0655983075399436 -1.0228743691715689 -0.7303767914686905 -1.0045133642110986 -0.0062970207404139319 -1.7127710231748383 -1.0433898154707633 -0.66374388235683923 0.061248944257957884 0.35691893883334297 0.45547560368909451 -0.088960032889798604 -0.49102479159320217 1.01107602835079 -0.62864770974205875 0.75114559826447957 -0.1734445279310308 -0.6693154659298598 -1.2915701652900575 0.47950391863883607 -0.70831655094100376 -0.87121253855319203 4.5902594270015431 2.7641972967088351 -0.75621338017449236 -0.9599170841305521
decision_type=2 2 2 2 2 2 2 2 2 2 2 2 2 2 2 2 2 2 2 2 2 2 2 2 2 2 2 2 2 2
left_child=3 2 4 5 -2 6 7 -1 9 -6 11 14 -13 -14 -5 -10 17 -4 -18 -20 21 -7 -22 24 -8 -25 29 -24 -28 -12
right_child=1 -3 16 10 8 20 23 -9 15 -11 26 12 13 -15 -16 -17 18 -19 19 -21 22 -23 27 25 -26 -27 28 -29 -30 -31
