tree
version=v2
num_class=1
num_tree_per_iteration=1
label_index=0
max_feature_idx=4
objective=regression
feature_names=M_h C_h S_h z_h Delta3_h
feature_infos=[-1.9787058374007516:8.797835079914595] [-4.9791887935950516:35.852763869850676] [-1.8364062218011754:49.361723086843554] [-2.472201945701697:8.9189103349461352] [-1.2403445097324994:19.44402308561132]
tree_sizes=2532 2586 2572 2589 2584 2586 2584 2587 2594 2586 2592 2586 2593 2611 2598 2612 2592 2610 2595 2616 2616 2618 2600 2610 2621 2613 2608 2599 2617 2608 2579 2589 2597 2614 2607 2574 2577 2608 2603 2559 2592 2612 2637 2619 2608 2601 2596 2613 2583 2612 2619 2622 2579 2589 2620 2582 2575 2610 2617 2594 2590 2625 2629 2599 2622 2582 2630 2590 2611 2626 2615 2619 2617 2620 2585 2632 2608 2601 2586 2626 2629 2603 2607 2596 2612 2634 2624 2603 2634 2640 2609 2642 2602 2655 2633 2623 2606 2634 2638 2653 2624 2631 2641 2624 2601 2611 2616 2636 2612 2673 2654 2613 2660 2644 2639 2639 2630 2638 2668 2642 2633 2633 2606 2647 2611 2623 2646 2640 2643 2635 2620 2650 2646 2653 2655 2637 2657 2644 2642 2620 2611 2655 2639 2660 2628 2626 2639 2675 2622 2615 2667 2624 2661 2639 2644 2647 2680 2666 2622 2616 2632 2646 2654 2653 2647 2679 2628 2638 2674 2620 2655 2617 2643 2644 2608 2632 2625 2648 2641 2666 2648 2667 2640 2678 2624 2637 2619 2687 2616 2654 2628 2684 2598 2622 2646 2626 2682 2629 2619 2674 2652 2658 2674 2624 2671 2642 2608 2619 2643 2689 2657 2641 2638 2704 2637 2641 2635 2692 2643 2647 2633 2622 2667 2643 2633 2622 2633 2685 2657 2663 2618 2622 2637 2679 2658 2655 2683 2642 2609 2640 2657 2639 2631 2633 2670 2645 2639 2662 2690 2639 2651 2648 2638 2695 2644 2663 2609 2665 2640 2643 2620 2680 2655 2620 2620 2635 2650 2667 2676 2661 2678 2655 2663 2669 2671 2662 2630 2682 2630 2642 2657 2656 2674 2662 2642 2642 2633 2661 2690 2639 2662 2672 2633 2666 2655 2640 2664 2649 2664 2609 2631 2649 2634 2697 2657 2677 2643 2666 2652 2647 2662 2637 2659 2655 2662 2673 2657 2641 2689 2677 2646 2615 2646 2646 2674 2642 2666 2627 2629 2653 2671 2687 2657 2646 2663 2700 2649 2658 2670 2664 2663 2627 2665 2648 2693 2665 2664 2657 2678 2672 2670 2641 2636 2647 2634 2654 2649 2648 2633 2678 2662 2663 2629 2678 2667 2666 2654 2668 2611 2595 2600 2646 2612 2681 2638 2651 2628 2658 2627 2614 2663 2652 2621 2654 2621 2681 2686 2664 2650 2634 2694 2691 2661 2672 2657 2666 2665 2676 2650 2667 2671 2642 2658 2681 2670 2654 2640 2674 2645 2680 2671 2661 2668 2655 2678 2673 2607 2638 2674 2640 2648 2719 2648 2660 2660 2654 2646 2587 2647 2677 2653 2665 2635 2637 2684 2670 2681 2649 2678 2673 2650 2635 2650 2695 2655 2633 2690 2663 2701 2651 2661 2663 2613 2599 2655 2619 2653 2628 2627 2672 2661 2655 2667 2666 2649 2645 2641 2652 2656 2630 2684 2656 2617 2661 2661 2640 2659 2606 2611 2698 2664 2660 2634 2659 2645 2691 2638 2643 2630 2665 2640 2652 2647 2688 2668 2674 2642 2229 2666 2674 2656 2656 2655 2642 2672 2659 2686 2649 2654 2657 2675 2672 2663 2647 2681 2682 2649 2675 2642 2669 2638 2698 2650 2652 2654 2682 2670 2672 2687 2648 2690 2667 2650 2659 2664 2661 2670 2639 2655 2635 2667 2626 2679 2673 2646 2688 2671 2680 2648 2657 2638 2633 2675 2673 2645 2650 2663 2679 2675 2713 2679 2679 2649 2672 2661 2627 2658 2675 2654 2680 2649 2674 2662 2670 2665 2689 2685 2658 2624 2655 2679 2689 2670 2649 2640 2662 2676 2649 2641 2341 2672 2680 2658 2665 2627 2682 2679 2659 2632 2655 2632 2660 2682 2631 2679 2675 2656 2654 2630 2685 2664 2667 2651 2620 2683 2666 2630 2663 2713 2669 2643 2656 2657 2632 2646 2659 2647 2690 2704 2660 2665 2686 2645 2646 2656 2639 2630 2641 2611 2637 2644 2687 2632 2710 2630 2667 2659 2688 2713 2655 2647 2635 2678 2654 2677 2635 2660 2681 2656 2636 2674 2664 2673 2669 2671 2661 2650 2657 2675 2671 2694 2679 2654 2675 2678 2652 2648 2451 2665 2654 2678 2667 2703 2680 2664 2689 2675 2683 2637 2662 2683 2671 2642 2687 2702 2644 2675 2649 2686 2668 2645 2665 2662 2682 2641 2687 2667 2599 2658 2642 2664 2658 2679 2658 2651 2655 2662 2641 2672 2622 2668 2676 2664 2646 2652 2685 2675 2479 2652 2652 2662 2665 2651 2655 2659 2687 2652 2681 2638 2666 2417 2670 2682 2649 2674 2676 2676 2689 2647 2672 2663 2653 2680 2000 2452 2684 2439 2704 2648 2640 2703 2676 2654 2629 2678 2655 2704 2655 2678 2655 2662 2670 2659 2636 2679 2590 2683 2692 2666 2636 2648 2687 2648 2629 2498 2655 2655 2690 2659 2650 2643 2645 2638 2700 2671 2660 2680 2650 2630 2639 2695 2641 2711 2663 2671 2614 2640 2675 2634 2330 2666 2665 2661 2696 2676 2681 2641 2654 2413 2663 2625 2646 2636 2641 2711 2680 2669 2632 2653 2691 2643 2653 2656 2671 2647 2690 2667 2680 2678 2677 2682 2670 2668 2682 2630 2655 2616 2640 2659 2693 2671 2679 2678 2268 2675 2691 2678 2707 2674 2685 2652 2667 2655 2663 2677 2638 2662 2690 2677 2673 2667 2632 2676 2642 2712 2662 2676 2694 2644 2634 2630 2630 2674 2691 2676 2687 2676 2683 2697 2659 2705 2692 2656 2633 2697 2651 2675 2653 2698 2667 2649 2697 2680 2694 2661 2688 2659 2634 2673 2639 2680 2624 2661 2640 2664 2644 2658 2635 2657 2513 2687 2641 2643 2635 2692 2678 2674 2709 2688 2663 2644 2662 2680 2655 2664 2661 2682 2665 2657 2645 2690 2715 2665 2670 2649 2678 2671 2670 2687 2652 2664 2641 2697 2087 2656 2680 2374 2634 2696 2635 2687 2649 2645 2667 2658 2641 2701 2704 2679 2669 2676 2661 2665 2642 2668 2673 2653 2712 2666 2694 2649 2689 2681 2692 2676 2674 2660 2688 2681 2672 2652 2650 2683 2687 2697 2656 2669 2678 2668 2686 2650 2649 2704 2671 2651 2650 2671 2672 2660 2653 2678 2690 2679 2673 2649 2693 2674 2691 2684 2693 2660 2636 2689 2638 2700 2639 2686 2680 2703 2676 2666 2636 2709 2696 2691 2688 2639 2652 2686 2702 2638 2652 2643 2655 2678 2697 2664 2698 2661 2698 2652 2660 2672 2661 2685 2668 2659 2667 2681 1855 2709 2683 1841 2641 2666 2669 2700 2668 2526 2253 2693 2671 2668 2691 2665 2669 2674 2696 2703 2692 2648 2690 2692 2709 2683 2636 2672 2695 2686 2651 2666 2637 2674 2691 2675 2626 2651 2166 2686 2679 2658 2658 2707 2696 2657 2682 2644 2670 2664 2693 2688 2651 2082 2676 2637 2684 2641 2651 2646 2658 2706 2678 2628 2659 2670 2672 2683 2667 2687 2663 2685 2642 2674 2673 2682 2658 2709 2670 2683 2681 2637 2704 2685 2652 2672 2680 2678 2668 2680 2674 2686 2708 2676 2657 2700 2673 2670 2657 2684 2671 2705 2642 2681 2656 2655 2691 2672 2683 2669 2656 2657 2674 2620 2678 2683 2697 2697 2697 2689 2644 2677 2664 2694 2637 2658 2635 2701 2661 2645 2682 2663 2649 2666 2618 2673 2697 2655 2655 2669 2637 2670 2675 2682 2668 2667 2673 2646 2641 2656 2699 2686 2655 2650 2642 2182 2669 2651 2689 2655 2676 2701 2655 2659 2685 2669 2634 2695 2675 2677 2665 2669 2685 2684 2684 2709 2644 2650 2645 2682 2670 2674 2673 2678 2683 2688 2731 2697 2658 2666 2686 2691 2687 2513 2704 2629 2670 2639 2655 2666 2685 2655 2663 2683 2669 2648 2681 2685 2687 2677 2693 2673 2691 2704 2674 2694 2660 2689 2690 2705 2642 2697 2659 2688 2663 2690 2717 2718 2690 2652 2702 2668 2664 2679 2634 2713 2662 2668 2658 2661 2663 2714 2663 2681 2659 2680 2641 2692 2358 2669 2671 2652 2649 2627 2680 2690 2689 2653 2664 2693 2693 2017 2686 2677 2643 2658 2656 2671 2656 2656 2679 2658 2672 2414 2663 2680 2686 2689 2671 2670 2671 2456 1849 2665 2639 2678 2706 2646 2664 2701 2703 2669 2683 2690 2670 2700 2659 2645 2705 2686 2671 2673 2678 2667 2715 2665 2688 2651 2654 2671 2668 2684 2698 2702 2689 2639 2694 2714 2687 2692 2685 2715 2646 2685 2731 2688 2712 2671 2723 2697 2650 2685 2271 2695 2697 2679 2692 2669 2669 2686 2689 2693 2587 2695 2721 2660 2658

Tree=0
num_leaves=31
num_cat=0
split_feature=0 1 3 0 3 3 3 0 0 0 3 2 0 3 3 0 4 3 4 4 0 3 4 0 4 0 0 0 2 3
split_gain=10371.9 2275.78 1959.15 1424.64 1012.93 268.53 207.505 194.727 113.721 102.417 101.58 96.041 78.1327 320.434 104.957 134.212 68.6971 59.1568 58.5888 55.431 50.8483 49.7548 45.6431 42.624 39.9206 32.2059 29.5444 29.1382 29.0114 28.8786
threshold=-0.082137827561999097 0.71454354657027463 0.51940035852604827 1.3260867072305269 -1.4368179419072211 0.97259349048919186 2.6480454935799753 -0.4133142199285621 0.72916486932827462 1.9275121869040899 0.28924028369866001 -0.52136029449575372 -0.41661122141609785 -0.28617583891709975 -0.055868195750237298 -0.55288221672619697 -0.82859585189779861 -0.51617156344653858 0.099182381057146121 3.0108208804311416 -0.3870043342942468 1.3245680772667663 0.3182462868100448 0.23665668135655235 1.0783545975942337 -0.90990483399917199 0.90110337543746699 -0.42341721903451107 2.2381146368117419 -1.5517353063600885
decision_type=2 2 2 2 2 2 2 2 2 2 2 2 2 2 2 2 2 2 2 2 2 2 2 2 2 2 2 2 2 2
left_child=1 5 18 4 8 12 20 11 29 17 23 21 14 28 15 -1 -15 -5 27 -13 24 -7 -20 -6 -4 -16 -12 -3 -14 -2
right_child=3 2 6 9 10 7 -8 -9 -10 -11 26 19 13 16 25 -17 -18 -19 22 -21 -22 -23 -24 -25 -26 -27 -28 -29 -30 -31
leaf_value=0.27666239175774748 0.22638602172460454 0.28635835168265233 0.24727074264254403 0.29460741331879237 0.27251189330076803 0.25477239361538895 0.31284547276679742 0.28734425199747748 0.27316573038137176 0.32767540055516764 0.2904801426208094 0.23764473305158373 0.22957828883880069 0.24376416279931892 0.26967617700997248 0.23494070359422317 0.26465605824725796 0.31728474087111491 0.19553354975146894 0.3085388604323766 0.29266258335111472 0.29270496810157554 0.23197356851776688 0.28372496461011543 0.28968888481593347 0.22605960801269481 0.30497325502377887 0.22011025773054965 0.27478752614880625 0.25150846833881452
leaf_count=1035 3758 79 1623 1933 5143 818 1098 1792 691 6076 7841 3388 9937 2331 172 3023 4846 2841 28017 114 392 599 348 9946 257 10747 1714 416 144 521
internal_value=0 -0.229819 -0.426382 0.404251 0.290676 -0.0671531 0.295119 0.114832 -0.121154 0.714244 0.37373 0.0120181 -0.105041 -0.0591768 -0.157889 -0.0205709 0.102316 0.604637 -0.510632 -0.0768645 0.122616 0.231684 -0.516584 0.322641 0.0543041 -0.208923 0.45441 -0.169558 -0.174149 -0.181941
internal_count=111640 71176 32230 40464 29614 38946 3370 6711 4970 10850 24644 4919 32235 17258 14977 4058 7177 4774 28860 3502 2272 1417 28365 15089 1880 10919 9555 495 10081 4279
shrinkage=1


Tree=1
num_leaves=31
num_cat=0
split_feature=0 1 3 0 3 3 3 0 0 1 2 2 1 0 0 3 2 4 4 4 3 4 1 3 0 0 3 3 3 0
split_gain=8401.23 1843.38 1586.91 1156.95 833.489 217.509 168.079 158.843 99.6408 97.7841 82.2869 71.5631 66.7363 75.1145 60.1333 48.7822 47.8697 50.2912 47.457 46.0858 45.6787 39.5202 37.8897 37.6539 32.1034 31.7712 76.9706 39.8092 30.7874 25.6741
threshold=-0.082137827561999097 0.71454354657027463 0.51940035852604827 1.4118930820551061 -1.4368179419072211 0.97259349048919186 2.6480454935799753 -0.39554793260521742 0.72916486932827462 -0.64093650952270009 -0.61131070342769023 0.040502049727950774 -0.09820933179195164 -0.40612596383800476 2.0012386879344608 1.083903509341597 0.36267300956520593 0.25559178471205785 0.099182381057146121 3.0108208804311416 -0.74630455365727699 -0.15339054640005764 1.2309657290998242 1.5553690981997497 0.90110337543746699 -0.41416068109832727 -0.28617583891709975 -0.055868195750237298 1.3245680772667663 0.11398194885318115
decision_type=2 2 2 2 2 2 2 2 2 2 2 2 2 2 2 2 2 2 2 2 2 2 2 2 2 2 2 2 2 2
left_child=1 5 18 4 8 11 16 10 -2 29 28 12 21 -14 20 24 17 -4 -3 -12 -5 -1 -20 -18 -11 27 -27 -13 -7 -6
right_child=3 2 6 14 9 7 -8 -9 -10 15 19 25 13 -15 -16 -17 23 -19 22 -21 -22 -23 -24 -25 -26 26 -28 -29 -30 -31
leaf_value=-0.011405542448402296 -0.016374708195822395 -0.015260220178487627 0.0093470666017445372 0.042253738964642268 0.013406456588458066 0.010101996583172696 0.058685839187920232 0.037355120248519502 0.022874276453295015 0.032925809853907084 -0.0077697505863371782 -0.0077923646564353735 -0.0038824497017108149 0.024477732397334594 0.072738435705358623 0.04942638213314432 0.038385555411539027 0.04870293477037399 -0.046620993209950841 0.055203893943689769 0.064179736978391883 0.0032946358247839705 0.05748954510050161 -0.02432195800209902 0.043332190131033149 -0.016849937829093522 0.0018751333069308711 -0.023791154235722096 0.041587286822822533 0.027412570582931912
leaf_count=9050 4279 495 1201 1405 1797 722 1098 1643 762 11873 3681 2240 2534 1479 5642 3003 118 445 28330 120 2935 2292 35 508 3951 6133 3419 5088 545 4817
internal_value=0 -0.206837 -0.383743 0.363826 0.267063 -0.0604378 0.265607 0.103349 -0.104418 0.34067 0.0157512 -0.0945365 -0.0451348 0.0656976 0.659311 0.377416 0.110355 0.19987 -0.459568 -0.0578163 0.570816 -0.0843492 -0.464925 -0.125017 0.355241 -0.139475 -0.101476 -0.189007 0.236454 0.236072
internal_count=111640 71176 32230 40464 30482 38946 3370 6711 5041 25441 5068 32235 15355 4013 9982 18827 2272 1646 28860 3801 4340 11342 28365 626 15824 16880 9552 7328 1267 6614
shrinkage=0.1


Tree=2
num_leaves=31
num_cat=0
split_feature=0 1 3 0 3 3 3 0 0 1 2 3 3 2 0 4 3 3 3 2 4 4 4 3 0 0 2 0 3 0
split_gain=6804.99 1493.14 1285.4 940.054 664.962 176.182 136.144 129.16 89.6439 84.447 67.1876 58.9493 133.812 66.8135 49.8041 44.1192 43.9678 43.8181 39.2337 38.7853 39.2893 38.4401 34.9128 28.1017 27.3454 25.5951 24.7153 23.6019 21.7454 21.7079
threshold=-0.082137827561999097 0.71454354657027463 0.51940035852604827 1.2421771528795953 -1.5517353063600885 0.97259349048919186 2.6480454935799753 -0.4133142199285621 1.7934509406517976 -0.64093650952270009 -0.40094046746756223 0.74958029678261962 0.7495169948297703 -0.42377951607951875 0.72916486932827462 -0.70997210845565373 1.3245680772667663 -0.28617583891709975 1.1890502589149408 0.44314248136137652 0.25559178471205785 0.099182381057146121 0.3182462868100448 1.5553690981997497 0.18362002866731711 -0.40841811440257231 0.84989544959424579 -0.42341721903451107 -1.3308818674467982 2.6404681788191149
decision_type=2 2 2 2 2 2 2 2 2 2 2 2 2 2 2 2 2 2 2 2 2 2 2 2 2 2 2 2 2 2
left_child=1 5 21 4 14 11 19 10 17 24 16 12 13 -1 -2 -12 -7 -5 -11 20 -4 27 -23 -21 -6 -13 -24 -3 29 -10
right_child=3 2 6 8 9 7 -8 -9 28 18 15 25 -14 -15 -16 -17 -18 -19 -20 23 -22 22 26 -25 -26 -27 -28 -29 -30 -31
leaf_value=-0.00054393620124230924 -0.017490197310098158 0.036373451146992704 0.0083283034508311454 0.036244153314670978 0.011534634071459137 0.003189964553667326 0.052817255259408384 0.032286146521687445 0.038352312120554177 0.031242402201293519 0.042393582916545297 -0.028131811185577185 0.034824865750649546 -0.011312349251528558 0.017996679278808578 -0.010402530564148261 0.035549127141153776 0.055411105342113832 0.046029983864321063 0.033874398445779524 0.042674583343063489 -0.042234279104176813 0.049850497617010492 -0.022594069309206002 0.024683260769438782 0.010721758089243605 -0.022158829006286421 -0.023249833535653755 0.066701605575908568 0.063414331821618194
leaf_count=7867 3758 79 1228 2327 2513 994 1098 1792 599 15740 167 1917 733 21532 442 3031 727 2447 2025 108 457 28017 57 479 4268 186 291 416 5528 817
internal_value=0 -0.186154 -0.345369 0.327443 0.230128 -0.054394 0.239046 0.0930137 0.566172 0.293042 0.00927973 -0.0850828 -0.0737854 -0.0843079 -0.137556 -0.0764551 0.168594 0.460685 0.32928 0.0993192 0.176436 -0.413612 -0.418433 -0.122046 0.198105 -0.246954 -0.103642 -0.137342 0.638694 0.528125
internal_count=111640 71176 32230 40464 28746 38946 3370 6711 11718 24546 4919 32235 30132 29399 4200 3198 1721 4774 17765 2272 1685 28860 28365 587 6781 2103 348 495 6944 1416
shrinkage=0.1


Tree=3
num_leaves=31
num_cat=0
split_feature=0 1 3 0 3 3 3 0 0 2 3 0 3 3 0 4 3 0 3 0 4 1 4 4 2 2 3 3 3 0
split_gain=5512.05 1209.44 1041.17 766.042 521.917 142.708 110.277 106.727 105.491 56.4233 54.7881 51.6697 225.83 77.324 109.656 55.0806 45.4053 42.1116 41.0448 36.0686 31.1365 28.411 28.2794 25.5064 23.8329 20.0194 19.8471 19.7679 19.3836 19.1175
threshold=-0.082137827561999097 0.71454354657027463 0.51940035852604827 1.0959572471381984 -1.4368179419072211 0.97259349048919186 2.6480454935799753 1.7285219157718259 -0.39554793260521742 -0.61131070342769023 0.05836416558908724 -0.41499178674294052 -0.28617583891709975 -0.055868195750237298 -0.52763726900333074 -0.82859585189779861 -0.28617583891709975 0.70478386063706833 2.4758680596657547 -0.3870043342942468 0.099182381057146121 -0.039791766991038917 0.3182462868100448 0.3182462868100448 2.2381146368117419 0.84989544959424579 1.3245680772667663 1.3245680772667663 -0.055868195750237298 -0.42341721903451107
decision_type=2 2 2 2 2 2 2 2 2 2 2 2 2 2 2 2 2 2 2 2 2 2 2 2 2 2 2 2 2 2
left_child=1 5 20 4 17 11 19 16 9 27 28 13 24 14 -1 -14 -5 -2 -11 23 29 -15 -22 -4 -13 -24 -12 -7 -6 -3
right_child=3 2 6 7 10 8 -8 -9 -10 18 26 12 15 21 -16 -17 -18 -19 -20 -21 22 -23 25 -25 -26 -27 -28 -29 -30 -31
leaf_value=0.023903809311313501 -0.013706215482258102 0.032736107148230074 -0.0041032974013326612 0.030020001994221036 0.021572995237462821 0.0086559314351693992 0.047535527923537962 0.057047736342891397 0.030390994463779703 -0.0066193003464062958 0.029447008107181101 -0.014124129488032645 -0.0028681970934048315 -0.019609623783636898 -0.011301007802865694 0.015911707326678178 0.04733505768552064 0.01677048182986126 0.056493570395516904 0.03653155948737475 -0.038010851928286335 -0.0084897483995577238 0.044865445897244574 0.02179956295903172 0.026993737175695965 -0.01994294547683902 0.041515589388661539 0.033885019055178919 -0.038483146329717451 -0.020924850239848289
leaf_count=1292 4217 79 1351 2872 11282 722 1098 7378 1643 3695 9354 9913 2322 7716 2807 4770 3204 508 106 392 28017 3272 57 529 143 291 1595 545 54 416
internal_value=0 -0.167538 -0.310832 0.294699 0.197591 -0.0489546 0.215142 0.489652 0.0837123 0.0123262 0.261599 -0.0765745 -0.0390212 -0.119258 -0.00204491 0.0976296 0.391506 -0.104296 -0.0485925 0.0893873 -0.37225 -0.162984 -0.376589 0.0318533 -0.135394 -0.0932778 0.312051 0.195082 0.212869 -0.123608
internal_count=111640 71176 32230 40464 27010 38946 3370 13454 6711 5068 22285 32235 17148 15087 4099 7092 6076 4725 3801 2272 28860 10988 28365 1880 10056 348 10949 1267 11336 495
shrinkage=0.1


Tree=4
num_leaves=31
num_cat=0
split_feature=0 1 3 0 3 3 3 0 1 4 2 3 0 4 0 0 3 0 2 3 4 4 0 1 3 0 0 0 3 0
split_gain=4464.76 979.65 843.349 626.393 457.764 115.593 89.3241 85.6197 67.0114 54.8424 50.011 54.9254 91.1945 47.7466 38.6269 35.2975 37.953 32.0214 31.3048 30.5512 29.765 27.2512 29.3753 25.76 24.2464 24.1237 22.3109 22.2895 21.8248 19.9216
threshold=-0.082137827561999097 0.71454354657027463 0.51940035852604827 1.4118930820551061 -1.5517353063600885 0.97259349048919186 2.6480454935799753 -0.4133142199285621 -0.64093650952270009 -0.70997210845565373 0.040502049727950774 -1.0926415321846752 -0.41911697445249069 3.0108208804311416 0.72916486932827462 2.1686516397166078 -0.86139113404951806 -0.43302352995994919 0.36267300956520593 0.97259349048919186 -0.19516364016209073 0.71149392509430465 -0.11138100610203561 1.2309657290998242 1.5553690981997497 -0.41152644394913179 0.18362002866731711 -0.97489118455555335 0.3412980142762066 0.66452614871264737
decision_type=2 2 2 2 2 2 2 2 2 2 2 2 2 2 2 2 2 2 2 2 2 2 2 2 2 2 2 2 2 2
left_child=1 5 23 4 14 10 18 9 26 -7 11 17 -13 -11 -2 16 -5 -1 20 29 -4 25 -23 27 -20 -12 -6 -3 -29 -10
right_child=3 2 6 15 8 7 -8 -9 19 13 21 12 -14 -15 -16 -17 -18 -19 24 -21 -22 22 -24 -25 -26 -27 -28 28 -30 -31
leaf_value=0.027225963512319141 -0.014413537773669353 -0.036501227875120612 0.0033821284545734092 0.028978186390415613 0.0085176192591894431 0.033991686673007081 0.042781977431054732 0.026247932626085914 0.022427210741192291 -0.0047697835583559219 -0.016237779507257674 -0.0077867519267523118 0.0088580983970878158 0.047388688847422603 0.0137387591069637 0.054475998535545168 0.047932662512524829 -0.021722592407567107 0.029845416227797586 0.035163144956340743 0.0304776929952668 0.012320540325128223 -0.024004470263544013 0.030886170275569443 -0.02047427030606562 -0.0083210540428862619 0.020238042107334736 -0.014452665559385276 -0.031829818568833101 0.029875185626419411
leaf_count=144 3758 14001 923 1473 2513 450 1098 1792 9036 4286 6827 7463 5889 183 560 4774 3735 1859 118 4063 723 937 292 62 508 8824 4592 762 14035 5960
internal_value=0 -0.150784 -0.279749 0.265229 0.19403 -0.0440592 0.193628 0.0753411 0.243814 0.00716629 -0.0689171 -0.027619 -0.00445416 -0.0263396 -0.107625 0.482651 0.425717 -0.182036 0.0804485 0.274713 0.152838 -0.106484 0.0369003 -0.335025 -0.109891 -0.117743 0.160926 -0.336412 -0.309349 0.253873
internal_count=111640 71176 32230 40464 30482 38946 3370 6711 26164 4919 32235 15355 13352 4469 4318 9982 5208 2003 2272 19059 1646 16880 1229 28860 626 15651 7105 28798 14797 14996
shrinkage=0.1


Tree=5
num_leaves=31
num_cat=0
split_feature=0 1 3 0 3 1 2 3 0 0 0 3 4 0 3 0 3 4 3 0 3 3 0 0 4 1 0 3 4 0
split_gain=3616.45 793.516 683.113 509.814 345.542 97.3751 79.5273 72.3525 70.1823 61.4167 73.2742 63.1091 58.9648 57.1736 45.1973 40.9345 62.1892 54.9313 35.1824 28.9491 56.031 53.5808 27.3959 21.5088 21.1901 20.8656 20.2351 18.1296 18.0749 17.1662
threshold=-0.082137827561999097 0.71454354657027463 0.51940035852604827 1.0959572471381984 -1.5517353063600885 -0.29827470134244738 -0.079219452633920481 2.6480454935799753 1.7285219157718259 -0.71969244900942331 -0.88342584706258009 -1.0926415321846752 0.67046863769960707 -0.12261984918252035 0.05836416558908724 -0.35721711477368118 -0.64068905274793131 -0.63513174168444875 0.05836416558908724 -0.43691537820118959 -0.055868195750237298 0.40433612855805184 -0.3870043342942468 0.70478386063706833 1.982726344930511 1.2309657290998242 0.21024770729341144 -1.3308818674467982 0.099182381057146121 2.8041737694444753
decision_type=2 2 2 2 2 2 2 2 2 2 2 2 2 2 2 2 2 2 2 2 2 2 2 2 2 2 2 2 2 2
left_child=1 5 25 4 23 12 9 22 18 10 -7 -11 19 -14 26 17 -17 -8 -5 20 -1 -21 24 -2 -4 28 -6 29 -3 -10
right_child=3 2 7 8 14 6 15 -9 27 11 -12 -13 13 -15 -16 16 -18 -19 -20 21 -22 -23 -24 -25 -26 -27 -28 -29 -30 -31
leaf_value=4.7451554517793801e-05 -0.013164303870425288 -0.010785007203777886 -0.00061933709836289918 0.02575589834919011 0.010987354365123582 0.039150064101448993 0.015611591858554513 0.038503778237469484 0.025537993610320331 -0.021532902653158017 -0.014667733539551676 0.01575860594849322 0.023066695002533822 -0.021206522728351152 0.025369897029219358 -0.015887260032919039 0.015388476442126998 -0.012992988621334987 0.0413709963043545 -0.0091425240024110045 -0.01928447971426081 0.012861089610810124 0.031288108738731446 0.0116696038628118 0.041837258650625625 0.027797552996930937 0.019557333177735749 0.048796403679403771 -0.03059904507437949 0.047187517125967582
leaf_count=1983 3705 468 1754 3718 4299 296 764 1098 732 490 1741 6144 1056 403 10949 956 1898 5536 2358 10293 6146 1240 392 385 126 62 7672 5913 28330 733
internal_value=0 -0.135706 -0.251774 0.238706 0.159486 -0.0396532 0.0147763 0.174265 0.397747 0.0834064 -0.0684738 0.130042 -0.0855889 0.108377 0.207266 -0.0502325 0.0491209 -0.0952412 0.318159 -0.099982 -0.145686 -0.0677675 0.0724037 -0.108266 0.0222616 -0.301523 0.164797 0.46329 -0.30277 0.363701
internal_count=111640 71176 32230 40464 27010 38946 17825 3370 13454 8671 2037 6634 21121 1459 22920 9154 2854 6300 6076 19662 8129 11533 2272 4090 1880 28860 11971 7378 28798 1465
shrinkage=0.1


Tree=6
num_leaves=31
num_cat=0
split_feature=0 1 3 0 3 3 3 1 0 3 4 1 4 0 2 4 0 3 2 0 4 0 4 3 2 4 4 1 3 4
split_gain=2929.33 642.748 553.321 415.59 302.521 86.8513 58.6055 51.2016 56.9861 111.93 67.7453 42.4371 40.3012 33.1009 30.9578 24.6382 24.3856 27.7574 24.2635 24.0183 33.8421 30.2251 22.0895 18.7153 18.4448 20.7851 17.2028 18.0063 16.8753 14.648
threshold=-0.082137827561999097 0.71454354657027463 0.51940035852604827 1.4118930820551061 -1.4368179419072211 1.3245680772667663 2.6480454935799753 -0.30800412847525854 -0.41152644394913179 -0.18838488585358429 -0.70997210845565373 -0.42283433750093308 2.4790565551028467 0.70478386063706833 -0.42377951607951875 -1.0620491375677898 2.1686516397166078 -0.86139113404951806 0.44314248136137652 -0.78196305564460622 0.041063355791943007 -0.99861441871287104 0.29623995666792879 1.1890502589149408 0.20362575255094084 0.3182462868100448 -0.82261136321640482 0.34333427692421131 1.5553690981997497 0.25559178471205785
decision_type=2 2 2 2 2 2 2 2 2 2 2 2 2 2 2 2 2 2 2 2 2 2 2 2 2 2 2 2 2 2
left_child=1 5 24 4 13 7 18 12 10 -10 -9 -6 15 26 -7 -1 17 -5 22 21 -21 -16 -4 -13 25 29 27 -2 -20 -3
right_child=3 2 6 16 11 14 -8 8 9 -11 -12 23 -14 -15 19 -17 -18 -19 28 20 -22 -23 -24 -25 -26 -27 -28 -29 -30 -31
leaf_value=0.025403349524169668 0.025997782260413334 -0.025302096781649366 0.0057986453656272644 0.022835908313485444 0.014893703517694019 0.026788681262383374 0.034653401339091811 0.015329118927537511 -0.0088759332253937912 0.017853656922877718 -0.0093369064032854717 0.021971096516673026 0.036404718454945743 0.011635488283283266 0.045462371331864392 -0.0089453006851789446 0.044355670392026939 0.039045742803072145 0.024715435734294633 0.0022570561147010077 0.03842909268508251 -0.017628289064021165 0.03184600860305984 0.032154945874519281 -0.0052801366413046981 0.041247989673336802 -0.012102115627200245 -0.028616895540444939 -0.019043355231758572 -0.029842015269869477
leaf_count=211 237 14445 1244 1473 9649 1048 1098 1305 2699 3734 7587 13714 201 824 87 20294 4774 3735 108 801 382 597 441 2078 381 44 3899 81 479 13990
internal_value=0 -0.122135 -0.226597 0.214836 0.156841 -0.0356879 0.156838 -0.0491198 -0.00530192 0.0663911 -0.0571689 0.201187 -0.0815505 -0.0669609 0.130338 -0.0859185 0.391933 0.34461 0.0651633 0.0531278 0.139373 -0.096036 0.126158 0.233111 -0.271371 -0.274295 -0.102781 0.120865 -0.109923 -0.275357
internal_count=111640 71176 32230 40464 30482 38946 3370 36031 15325 6433 8892 25441 20706 5041 2915 20505 9982 5208 2272 1867 1183 684 1685 15792 28860 28479 4217 318 587 28435
shrinkage=0.1


Tree=7
num_leaves=31
num_cat=0
split_feature=0 1 3 0 3 3 0 0 4 3 3 3 2 3 1 3 4 1 3 3 3 2 3 2 4 4 3 0 1 0
split_gain=2372.75 520.626 448.19 344.126 225.879 71.7396 51.4723 49.4577 48.0115 44.1015 88.3884 57.2501 38.1433 37.4618 34.3855 24.3686 23.0501 18.3619 16.4809 16.387 27.7002 17.4967 16.5299 16.1776 15.8399 15.5006 14.7085 14.6991 14.2598 13.7554
threshold=-0.082137827561999097 0.71454354657027463 0.51940035852604827 1.0614932911875994 -1.5517353063600885 0.97259349048919186 -0.39554793260521742 1.6088503932871017 0.34414077577205987 0.74958029678261962 0.7495169948297703 0.63447029392088172 -0.93047596426431622 0.97968432262473326 -0.77532258489050887 0.05836416558908724 -0.75756618216361071 0.81329817691261586 -1.4368179419072211 -1.6667695112762029 -1.6723779208044254 -0.82470582725128982 -1.7817281391720845 0.33025537514305686 0.099182381057146121 2.1232484616399185 1.3245680772667663 -0.42341721903451107 1.2309657290998242 -0.40841811440257231
decision_type=2 2 2 2 2 2 2 2 2 2 2 2 2 2 2 2 2 2 2 2 2 2 2 2 2 2 2 2 2 2
left_child=1 5 24 4 19 9 12 15 16 10 11 -1 -7 -14 -6 -5 -4 -18 -9 20 22 -22 -2 -10 27 -25 -16 -3 -26 -11
right_child=3 2 8 7 14 6 -8 18 23 29 -12 -13 13 -15 26 -17 17 -19 -20 -21 21 -23 -24 25 28 -27 -28 -29 -30 -31
leaf_value=-0.0042223133503959754 -0.0055734357143725141 0.032854697097658737 0.034757142686571978 0.019509394238609562 0.0092246886049311121 0.025387538581519393 0.021575666015322376 0.026550621341338277 0.033577150196029207 -0.021690342176936852 0.030107263436713761 -0.028625867353312337 0.027879133833200703 -0.0047060695032216521 0.017751745962034948 0.032923290094331578 -0.016126723413915172 0.0065801995266526157 0.03893594135635102 -0.022985178061406045 -0.012906833715234068 0.026242196558240751 -0.022993335570019438 -0.0040348929035312993 -0.024811644022735321 0.042253172354274754 0.027891897847208288 -0.014198395122478431 0.039057448410562107 0.0067928397547333472
leaf_count=28404 2080 79 211 3384 4953 578 1643 1270 1117 1917 733 995 386 4104 15992 2258 511 1175 6976 698 163 381 738 255 28330 101 1571 416 35 186
internal_value=0 -0.109922 -0.203937 0.193352 0.126687 -0.0321191 0.0619438 0.320922 0.141155 -0.0517021 -0.0419304 -0.0504824 0.012079 -0.0190476 0.165835 0.248778 0.0359765 -0.00301911 0.370284 -0.0904212 -0.0614734 0.145119 -0.101355 0.276608 -0.244233 0.090974 0.186588 -0.0668891 -0.247328 -0.191711
internal_count=111640 71176 32230 40464 26576 38946 6711 13888 3370 32235 30132 29399 5068 4490 22516 5642 1897 1686 8246 4060 3362 544 2818 1473 28860 356 17563 495 28365 2103
shrinkage=0.1


Tree=8
num_leaves=31
num_cat=0
split_feature=0 1 3 0 3 2 1 0 4 3 3 0 3 0 2 1 0 0 0 0 4 4 4 1 2 2 4 0 4 3
split_gain=1921.93 421.707 363.034 279.014 179.166 64.2726 58.9792 54.8405 43.9151 42.0976 41.4441 37.8321 26.5811 25.5636 24.6581 20.6637 19.8691 19.1482 21.3402 19.0965 16.5564 14.9928 14.3052 16.8779 14.2625 13.9504 15.2318 13.7429 11.5826 11.2597
threshold=-0.082137827561999097 0.71454354657027463 0.51940035852604827 0.90110337543746699 -1.4368179419072211 0.040502049727950774 -0.09820933179195164 1.6088503932871017 -0.15339054640005764 -1.2065569433974195 2.9932307141996279 -0.39554793260521742 -0.28617583891709975 -0.90990483399917199 3.0792901695618551 -0.82679476117604311 -0.086814721505963269 -1.0033239171123685 -0.43482447314063027 -0.3870043342942468 -1.0620491375677898 -0.75756618216361071 -0.8085384465019122 0.34333427692421131 -0.23800063714329264 0.20362575255094084 0.3182462868100448 2.3748246542868565 0.25559178471205785 0.97259349048919186
decision_type=2 2 2 2 2 2 2 2 2 2 2 2 2 2 2 2 2 2 2 2 2 2 2 2 2 2 2 2 2 2
left_child=1 5 25 4 22 6 8 12 20 -10 19 13 -5 -8 17 -6 -13 -7 -19 21 -1 -4 23 -2 -9 26 28 -26 -3 -14
right_child=3 2 10 7 15 14 11 24 9 -11 -12 16 29 -15 -16 -17 -18 18 -20 -21 -22 -23 -24 -25 27 -27 -28 -29 -30 -31
leaf_value=0.022632837669952267 0.022019773838856522 -0.020340067301604443 0.03489677254256094 0.015227325333322328 0.0081583332852250504 0.038299093954265118 0.036018725421470818 0.037830685095608843 -0.018258760252312524 0.014022500213509693 0.030534093193889431 0.021578855553924737 0.024256879193476581 0.001752272256520253 0.038637252628676975 0.016318412053928911 -0.017984896169337274 -0.011129214242340693 -0.0044469876616272707 0.025312119609574996 -0.0066549224476540369 -0.00047004318013628015 -0.0091557385671889244 -0.023846563158763781 0.024316324928792946 -0.0029726564463746206 0.036556058586575089 0.035457118743252317 -0.024377105857236972 0.036749745963613321
leaf_count=197 312 14445 128 3541 3847 92 229 3794 492 2258 940 2125 3356 4417 118 16052 135 8635 10703 416 9545 1886 4083 108 2386 381 44 2066 13990 919
internal_value=0 -0.0989297 -0.183543 0.174017 0.106647 -0.0289072 0.0118734 0.276368 -0.0291251 0.0824709 0.127039 0.0860341 0.21635 0.0344126 -0.069375 0.147409 0.192155 -0.0721427 -0.074308 0.0580664 -0.0606267 0.017777 -0.0734802 0.102256 0.333256 -0.21981 -0.222353 0.294863 -0.223263 0.269425
internal_count=111640 71176 32230 40464 24402 38946 19398 16062 12492 2750 3370 6906 7816 4646 19548 19899 2260 19430 19338 2430 9742 2014 4503 420 8246 28860 28479 4452 28435 4275
shrinkage=0.1


Tree=9
num_leaves=31
num_cat=0
split_feature=0 1 3 0 3 3 2 3 0 4 0 4 0 0 3 3 2 2 0 0 0 0 2 1 3 3 2 2 3 2
split_gain=1556.76 341.583 294.058 227.522 152.21 58.4643 37.4589 47.0257 72.9524 36.539 30.0809 28.3856 32.1038 26.8439 26.5599 26.0835 21.2901 19.2858 18.5787 28.1689 22.1535 17.3679 16.9295 19.4705 13.1844 22.0336 13.5129 13.0668 12.9874 12.8739
threshold=-0.082137827561999097 0.71454354657027463 0.51940035852604827 1.13176219241485 -1.5517353063600885 1.3245680772667663 0.1364267393876315 -1.0926415321846752 -0.4314952364175248 1.1398852152428602 2.0012386879344608 0.7519644250549804 -0.65448583291321627 -0.43482447314063027 0.28924028369866001 -0.51617156344653858 0.28419398825543613 -0.42377951607951875 -0.78196305564460622 -0.54408810564458376 -0.90990483399917199 0.18362002866731711 0.47685757097720166 0.81329817691261586 -1.6667695112762029 -1.6723779208044254 -0.82470582725128982 -0.42377951607951875 -1.7817281391720845 0.99014111216848322
decision_type=2 2 2 2 2 2 2 2 2 2 2 2 2 2 2 2 2 2 2 2 2 2 2 2 2 2 2 2 2 2
left_child=1 5 -3 4 24 6 7 13 -9 22 15 12 -8 -1 21 -5 -13 -7 20 -20 -19 -6 23 -4 25 28 -27 -17 -2 -24
right_child=3 2 9 10 14 17 11 8 -10 -11 -12 16 -14 -15 -16 27 -18 18 19 -21 -22 -23 29 -25 -26 26 -28 -29 -30 -31
leaf_value=0.026925341799316813 -0.0042511610713779928 -0.019782913455196508 -0.007146971378948281 0.015103338766753153 0.0060069352193885019 0.021876625537220033 0.014619572829427954 -0.0047118284465391038 0.0085702839960058574 0.028425836912533472 0.032044782751787529 -0.011689878906321338 -0.0091367884869451924 -0.016812705573893465 0.017933162844728887 0.032918587695429505 0.016997033791678957 0.027442617167671809 0.039776286419695217 0.0037779770757619454 -0.017281667295877542 0.013399067211953537 -0.016948387845421003 0.015541265024668233 -0.019741621261254422 -0.010565084461627686 0.023398825196047954 0.02201751364589339 -0.019651028316033891 0.028539267557789572
leaf_count=150 2123 28860 518 2971 4722 1048 591 9313 7438 920 5642 381 15177 2175 8876 2106 806 139 287 896 545 9723 458 1402 698 166 398 2301 738 72
internal_value=0 -0.0890367 -0.165189 0.156615 0.104967 -0.0260165 -0.0370368 -0.00663888 0.0118587 0.114335 0.265482 -0.0712375 -0.0824638 -0.139909 0.13628 0.223449 0.0778919 0.110201 0.0492602 0.125113 -0.0819296 0.109826 0.0505273 0.0942017 -0.0721523 -0.0466241 0.134024 0.272269 -0.0822358 -0.107689
internal_count=111640 71176 32230 40464 27444 38946 36031 19076 16751 3370 13020 16955 15768 2325 23321 7378 1187 2915 1867 1183 684 14445 2450 1920 4123 3425 564 4407 2861 530
shrinkage=0.1


Tree=10
num_leaves=31
num_cat=0
split_feature=0 1 3 0 3 1 0 0 3 4 4 0 0 2 4 2 3 2 0 3 4 4 1 3 0 3 2 4 0 2
split_gain=1261.06 282.087 239.535 183.836 114.689 49.1432 41.6065 37.3185 84.9864 54.002 35.9149 42.0049 34.7848 31.3955 30.3086 19.7274 19.4529 18.8513 19.4858 17.3171 16.2566 14.7805 13.8746 13.413 13.0925 12.6172 11.4866 12.3436 11.4207 10.5614
threshold=-0.071351573229900114 0.71454354657027463 0.51940035852604827 0.81240628445787644 -1.4368179419072211 -0.33328656794406053 1.6088503932871017 -0.40612596383800476 -0.64068905274793131 -0.70997210845565373 0.71149392509430465 -0.12261984918252035 -0.99861441871287104 1.0396509627202148 0.34414077577205987 0.39374530933667157 -0.28617583891709975 1.0934675614610156 -0.43899117333944215 -1.321551572312835 -0.82859585189779861 -0.75756618216361071 -0.73804444119841295 -1.5517353063600885 -0.3870043342942468 0.51941818300372367 0.20362575255094084 0.3182462868100448 2.8041737694444753 0.33025537514305686
decision_type=2 2 2 2 2 2 2 2 2 2 2 2 2 2 2 2 2 2 2 2 2 2 2 2 2 2 2 2 2 2
left_child=1 5 26 4 20 10 16 9 13 25 17 -12 -11 -9 21 -10 -5 18 -1 -19 -2 -4 -6 28 -23 -7 27 -3 -8 -16
right_child=3 2 14 6 22 7 23 8 15 12 11 -13 -14 -15 29 -17 -18 19 -20 -21 -22 24 -24 -25 -26 -27 -28 -29 -30 -31
leaf_value=-0.0092793614096091902 0.017741176844092793 -0.018127924364558595 0.026792273148149293 0.012204906353861527 0.006736682195410299 0.025108628008589481 0.0056900983753272703 -0.01529183897996185 0.017052819840487926 0.033122024233452972 0.022419771481359055 -0.016054872838906258 -0.0058162900565782542 0.034114492760984591 0.025794556682439268 0.0042449429099667658 0.021486663492826776 0.012150536728828836 -0.0020276947054110191 -0.014643227126949921 -0.008012188927407491 -0.00462107999805309 0.013236303731870248 0.028604176555509384 0.021137055828416795 0.0070029324393076769 -0.00058989086680855433 0.034878743575377895 0.027065192532456039 0.006028035384526979
leaf_count=6513 261 28491 213 4110 4283 700 506 1722 3859 235 902 414 9666 139 1123 1747 5011 258 8596 3708 4026 1467 14085 7246 228 855 382 44 494 356
internal_value=0 -0.0794503 -0.148685 0.142174 0.0828338 -0.0225604 0.219581 0.014141 0.0691471 -0.0217118 -0.0566195 0.10316 -0.0489209 -0.116016 0.102923 0.130615 0.173042 -0.0676429 -0.0515365 -0.129002 -0.0644428 0.0196377 0.117207 0.271059 -0.0115627 0.151534 -0.178156 -0.180462 0.162494 0.210367
internal_count=111640 71618 32304 40022 22655 39314 17367 18923 7467 11456 20391 1316 9901 1861 3387 5606 9121 19075 15109 3966 4287 1908 18368 8246 1695 1555 28917 28535 1000 1479
shrinkage=0.1


Tree=11
num_leaves=31
num_cat=0
split_feature=0 1 3 0 3 3 0 3 1 3 2 4 2 3 0 4 0 2 4 3 3 0 3 3 3 0 4 3 1 0
split_gain=1021.68 223.919 193.012 152.36 95.6408 44.0389 37.1391 32.4394 33.6494 26.4216 23.6571 22.6954 22.3973 16.5534 16.4772 19.3564 16.6143 13.2761 14.6012 12.8685 12.8194 12.2522 15.7125 14.471 9.50546 9.48861 10.1726 9.23921 9.22962 9.11472
threshold=-0.082137827561999097 0.71454354657027463 0.51940035852604827 0.75660708752017725 -1.4368179419072211 1.3245680772667663 1.8575331615214756 1.2098153568714076 -0.34259761378555248 2.6480454935799753 -0.10691434727078006 2.4790565551028467 -0.42377951607951875 2.4758680596657547 -0.78196305564460622 0.041063355791943007 -0.90990483399917199 0.36267300956520593 -0.19516364016209073 0.28924028369866001 1.5553690981997497 -0.3494228894120493 -0.40103285908122882 -1.2065569433974195 0.97259349048919186 0.12989567371765229 -0.82859585189779861 -1.5516880884125717 -0.92408381416682139 -0.97489118455555335
decision_type=2 2 2 2 2 2 2 2 2 2 2 2 2 2 2 2 2 2 2 2 2 2 2 2 2 2 2 2 2 2
left_child=1 5 21 4 25 7 12 8 11 17 -10 -1 24 14 16 -16 -7 18 -4 -6 -19 22 -3 -23 -5 27 -27 -2 -14 -24
right_child=3 2 9 6 19 13 -8 -9 10 -11 -12 -13 28 -15 15 -17 -18 20 -20 -21 -22 23 29 -25 -26 26 -28 -29 -30 -31
leaf_value=-0.0058294627678867061 0.0090147258422434064 0.029551871528228125 -0.00050957842778166275 0.01951050561425834 0.0081768189155332245 0.020918655767689337 0.025518709102048644 -0.031000454480920689 0.004838318902452475 0.022004592983798525 -0.0029094715506195394 0.028899203143817817 0.0052530488782884695 0.036897281288950652 0.0054892789215643173 0.02689567416183929 -0.01210739336351143 0.020408559580712374 0.018467945221700113 0.013656543443171191 -0.016180176442987689 -0.014735366540475631 -0.018103608416382359 0.05359651459888979 0.031329201237400808 0.014738814655873875 -0.0093169051866241019 -0.038107821676466203 0.014424306321691244 -0.014535944510084033
leaf_count=19586 552 75 923 3462 10816 201 6510 411 7359 1098 8485 190 1339 208 1235 642 629 118 723 7098 508 71 14003 55 847 185 3531 45 6079 14656
internal_value=0 -0.0721299 -0.133787 0.126876 0.0712937 -0.0211056 0.194619 -0.0306702 -0.0274471 0.0926757 0.00689114 -0.054958 0.160996 0.0971184 0.0762297 0.12811 -0.0410952 0.0311209 0.0782624 0.10348 -0.0928326 -0.160231 -0.161595 0.15092 0.218337 -0.0623928 -0.081193 0.0546278 0.127688 -0.162791
internal_count=111640 71176 32230 40464 22227 38946 18237 36031 35620 3370 15844 19776 11727 2915 2707 1877 830 2272 1646 17914 626 28860 28734 126 4309 4313 3716 597 7418 28659
shrinkage=0.1


Tree=12
num_leaves=31
num_cat=0
split_feature=0 0 3 3 4 4 1 0 4 0 2 0 3 1 4 2 3 0 1 3 3 2 2 3 3 3 2 3 0 2
split_gain=833.961 221.407 179.769 139.57 112.119 67.3468 48.7196 34.7727 33.8623 33.6577 33.6078 32.9506 28.8339 28.7503 27.4384 25.6423 22.4578 21.9503 21.4605 20.6315 19.744 17.274 15.7553 15.7158 15.675 14.2741 14.0688 12.6959 12.8457 11.2735
threshold=-0.35721711477368118 0.70478386063706833 -0.64068905274793131 1.3245680772667663 -0.70997210845565373 0.29910800979671764 -0.66210914996052617 -0.1396277525354982 -0.86045788921634059 1.5572162858874592 -0.42377951607951875 -0.071351573229900114 -1.5517353063600885 0.62925097256145246 2.7268940134111435 -0.57188728986791848 1.3248755882310606 0.067660189966125481 -1.1256442632159833 -0.74626795409991975 0.97259349048919186 1.641098294745523 0.60135896013000567 -0.6311395863987902 0.97259349048919186 2.6480454935799753 2.2381146368117419 -0.86139113404951806 2.5069689068012173 -1.1236010310074527
decision_type=2 2 2 2 2 2 2 2 2 2 2 2 2 2 2 2 2 2 2 2 2 2 2 2 2 2 2 2 2 2
left_child=3 2 11 4 19 13 17 -8 -9 24 -5 26 -13 18 16 -7 -12 23 -6 -1 22 -17 -21 -4 -3 -18 29 28 -11 -2
right_child=1 9 6 10 5 15 7 8 -10 27 14 12 -14 -15 -16 21 25 -19 -20 20 -22 -23 -24 -25 -26 -27 -28 -29 -30 -31
leaf_value=0.029240402815383721 0.02591500724453534 0.011985008679065757 0.021884666752580662 0.01782399409746515 0.01633212221728891 0.019359190592812377 0.019345402442283444 -0.0011956963256690204 0.011895467373861957 0.010504816903293515 0.034543568885117143 -0.0067369650774276191 0.0053981395475665456 -0.014724381794882538 0.031740766201644788 -0.0041218208148853909 -0.0075217680351446136 0.010841637498536364 -0.0097263674659686609 -0.001017767866145664 0.02451409803473574 0.035842186462624735 0.025226715046579275 -0.0046117687761254396 0.023832078648503636 0.017374138835759029 0.025623244231751375 0.024798140790809955 0.023133789272961731 -0.010736458965059984
leaf_count=330 85 9155 239 1918 324 625 4833 2445 10298 1595 154 3630 4251 28785 258 3152 2145 1669 12863 3261 391 112 246 3532 1272 258 111 5458 1627 6618
internal_value=0 0.084898 0.0404641 -0.087989 -0.103499 -0.117864 0.0956329 0.121229 0.0938367 0.172596 0.0761538 -0.0459439 -0.00191307 -0.129529 0.00659738 0.00802736 -0.0247632 0.0129345 -0.0908612 0.0523207 0.0319955 -0.0275051 0.00823163 -0.0293247 0.134302 -0.048488 -0.0968696 0.218597 0.16882 -0.102717
internal_count=111640 56818 37711 54822 50089 45861 23016 17576 12743 19107 4733 14695 7881 41972 2815 3889 2557 5440 13187 4228 3898 3264 3507 3771 10427 2403 6814 8680 3222 6703
shrinkage=0.1


Tree=13
num_leaves=31
num_cat=0
split_feature=0 0 3 3 1 1 3 3 3 3 4 4 0 4 0 0 3 2 3 1 0 2 1 3 1 2 3 4 3 0
split_gain=675.508 179.339 145.613 113.39 74.9064 39.4628 37.1073 34.0876 45.4622 61.129 31.1513 31.2482 28.1659 27.4285 27.2628 26.69 23.3555 23.3042 21.3952 20.3439 17.7798 14.7717 14.3492 13.8549 12.979 11.3957 10.9655 10.6921 10.5034 8.97683
threshold=-0.35721711477368118 0.70478386063706833 -0.64068905274793131 0.97259349048919186 0.68563892963188133 -0.66210914996052617 2.6480454935799753 0.97968432262473326 1.083903509341597 1.0947739006908799 -0.73712872888535508 -0.052870897177525016 -0.1396277525354982 -0.86045788921634059 1.5572162858874592 -0.071351573229900114 -1.5517353063600885 -0.46035092106642533 0.74958029678261962 -0.52424068337947427 0.067660189966125481 0.29882866305818401 1.2309657290998242 0.05836416558908724 -1.1915999058690734 2.2381146368117419 -1.7820222350012072 -0.83769647399584957 -1.8968653616487881 -0.30845647266160287
decision_type=2 2 2 2 2 2 2 2 2 2 2 2 2 2 2 2 2 2 2 2 2 2 2 2 2 2 2 2 2 2
left_child=3 2 15 4 10 20 7 -5 -9 -10 18 24 29 -14 23 25 27 -13 19 -1 21 -4 -6 -3 -12 28 -16 -17 -2 -7
right_child=1 14 5 6 22 12 -8 8 9 -11 11 17 13 -15 26 16 -18 -19 -20 -21 -22 -23 -24 -25 -26 -27 -28 -29 -30 -31
leaf_value=-0.00077326768989193818 0.031072860039421359 0.0090213727064641352 0.0043657833374279951 0.023373326681908502 -0.013059037116411709 0.010211382715020091 0.01971811172141635 -0.028641291229157814 0.029656918672237693 -0.0028650869564974726 0.015145128729622721 0.015591158733861982 -0.0010761266789643916 0.010705920552806281 0.0046488562084319399 0.019128993799930199 0.0048583256114964604 -0.0030803030120795912 -0.01777416439823459 0.016339548172516562 0.0097574737278067012 -0.0082311970092827872 0.027614003416129403 0.016421277603920117 -0.010150903072547788 0.02306091981554018 0.020514529119710283 -0.0072324684592936827 -0.0096331769372081256 0.019990776829652546
leaf_count=1464 64 6107 1674 585 28922 1275 1145 576 652 5089 207 827 2445 10298 460 161 4251 3487 386 1322 1669 2097 87 4320 10073 111 8220 3469 6639 3558
internal_value=0 0.0764082 0.0364177 -0.0791901 -0.0980535 0.0860696 0.0304575 0.00279904 -0.0185871 0.00828407 -0.0469178 -0.0664397 0.109106 0.084453 0.155336 -0.0413495 -0.00172176 0.00499043 0.0429004 0.0734703 0.011641 -0.0263922 -0.129371 0.120872 -0.0964154 -0.0871826 0.196737 -0.0606327 -0.0924452 0.174109
internal_count=111640 56818 37711 54822 46775 23016 8047 6902 6317 5741 17766 14594 17576 12743 19107 14695 7881 4314 3172 2786 5440 3771 29009 10427 10280 6814 8680 3630 6703 4833
shrinkage=0.1


Tree=14
num_leaves=31
num_cat=0
split_feature=0 1 3 0 3 0 2 4 0 2 4 4 2 3 0 0 2 1 0 2 4 3 3 2 2 4 2 3 0 3
split_gain=549.755 120.65 103.479 81.3136 58.2914 29.8898 28.7735 28.4416 18.9577 38.3952 36.1724 17.9887 16.8039 14.9236 12.3761 11.356 10.7201 13.1149 10.2178 9.38138 9.17882 8.658 15.3002 8.81516 8.55399 8.5518 8.2624 7.78218 7.51966 6.54253
threshold=-0.071351573229900114 0.71454354657027463 0.51940035852604827 1.2829030699200408 -1.5517353063600885 -0.97489118455555335 -0.86853977637287871 -0.25575294712163538 -0.76407986661055294 0.45951571130069246 0.6295900774659019 2.2902514324812047 0.099752693480108109 0.97259349048919186 -0.70458923162493636 0.22370804070224956 0.44314248136137652 0.81329817691261586 2.5069689068012173 0.9661326040636673 -0.64877964494529694 -1.6667695112762029 -1.6723779208044254 -0.82470582725128982 1.641098294745523 -0.17280350722435023 -1.0338693138764292 -1.6723779208044254 -0.97489118455555335 1.9014009375400402
decision_type=2 2 2 2 2 2 2 2 2 2 2 2 2 2 2 2 2 2 2 2 2 2 2 2 2 2 2 2 2 2
left_child=1 5 24 4 21 -1 7 14 9 -8 -10 16 -5 15 -7 20 17 -4 27 -18 -6 22 25 -24 26 -2 -3 -14 -28 -15
right_child=3 2 11 12 13 6 8 -9 10 -11 -12 -13 18 29 -16 -17 19 -19 -20 -21 -22 -23 23 -25 -26 -27 28 -29 -30 -31
leaf_value=0.026274199692877261 0.00020912174400335409 0.042537275921287282 -0.0065446603783159548 0.019857048248552167 0.0088506352829769257 -0.011076298267038785 -0.013474978685980611 0.019049954286689572 -0.003186213999724258 0.039378525569135778 0.0085894785025791218 0.023478823698511984 -0.0068297523742001697 0.012503020664815984 0.003926325890072759 0.0089730987290713403 -0.013244500145514052 0.011244593302907425 0.019324576684826306 0.020744354386291283 0.0011940044985717124 -0.014680341804367409 -0.0073684483245458638 0.019592529577106974 0.050620823082598777 -0.010726402670740855 -0.013472434017736535 0.010526716066501733 -0.010243108763220852 0.024834289879665204
leaf_count=383 1389 28 551 6557 2459 679 2638 1168 28539 145 2871 541 282 3478 2891 13849 527 1672 1367 96 4310 684 168 436 22 1474 14014 3078 14853 491
internal_value=0 -0.0524582 -0.0977372 0.0938721 0.0656275 -0.0152527 -0.0179876 0.0550455 -0.0281075 -0.107212 -0.0210987 0.0676366 0.165805 0.0841329 0.0107289 0.0733235 0.0358625 0.0683529 0.120355 -0.0800705 0.0397546 -0.0439826 -0.0236972 0.120934 -0.117107 -0.0542097 -0.117582 0.0907001 -0.118108 0.140285
internal_count=111640 71618 32304 40022 28738 39314 38931 4738 34193 2783 31410 3387 11284 24587 3570 20618 2846 2223 4727 623 6769 4151 3467 604 28917 2863 28895 3360 28867 3969
shrinkage=0.1


Tree=15
num_leaves=31
num_cat=0
split_feature=0 0 3 3 4 4 1 0 3 3 3 2 4 0 3 4 3 3 0 4 1 3 1 1 0 3 3 3 3 0
split_gain=450.839 117.281 109.455 83.6961 69.2917 36.7533 31.8526 24.5464 23.954 27.6879 23.3084 22.0385 21.0225 20.1798 18.9771 18.069 18.0458 17.8043 17.2512 45.4132 23.4708 16.6146 17.231 14.4949 13.1372 15.4085 12.3895 10.0892 9.44542 8.80849
threshold=-0.35721711477368118 0.70478386063706833 -0.74630455365727699 1.3245680772667663 -0.70997210845565373 0.29910800979671764 -0.66210914996052617 -0.1396277525354982 -0.86133009968667718 -0.86139113404951806 -0.97624995195124031 -0.47223931296895971 -0.86045788921634059 2.0821491257721272 -1.321551572312835 2.7268940134111435 1.3248755882310606 -0.069578494419719597 -0.62966891106208689 0.71149392509430465 -0.47835122990029216 -0.74626795409991975 -0.99508069918883646 -1.1256442632159833 0.067660189966125481 -0.74626795409991975 -0.055868195750237298 1.439692322520397 -0.74626795409991975 -0.57282984820106175
decision_type=2 2 2 2 2 2 2 2 2 2 2 2 2 2 2 2 2 2 2 2 2 2 2 2 2 2 2 2 2 2
left_child=3 2 8 4 21 14 24 28 9 10 -2 -5 -9 17 -6 16 -13 -3 20 -20 -7 -1 29 -16 25 -4 -24 -18 -8 -23
right_child=1 13 6 11 5 18 7 12 -10 -11 -12 15 -14 -15 23 -17 27 -19 19 -21 -22 22 26 -25 -26 -27 -28 -29 -30 -31
leaf_value=0.026123850639260406 -0.0037293487776629414 0.0074873640260303539 0.025705144723458962 0.014913087160492481 0.020764229011490221 0.028893920719026696 0.042201226512571022 -0.0014222568580441377 -0.023327459191195728 0.012811829187208712 -0.025486958489834684 0.031209756476674112 0.0087357395988577492 0.017933991665060642 0.012664777638161914 0.02517190543659005 -0.029067389948948009 0.014704477558190335 -0.004652693278539107 0.028513215892924295 -0.0087511750189716488 0.038244796620512556 0.018127013931916174 -0.009964563574807371 0.0077002692475899434 -0.0036570848737756388 0.0026537702073802672 -0.0021453046934252081 0.01426289587015859 -0.014781346718229137
leaf_count=330 11204 7836 187 1810 204 181 124 2521 629 980 515 157 10620 5208 285 277 148 6063 1097 662 1949 33 646 41483 1875 4038 2601 2341 5018 618
internal_value=0 0.0624217 0.0300822 -0.0646944 -0.0767052 -0.0879983 0.0699134 0.0907905 -0.0427872 -0.0333521 -0.046855 0.0624152 0.0678701 0.126249 -0.0966155 0.0087185 -0.0167203 0.106356 0.00500258 0.078293 -0.0555223 0.0457914 0.0275519 -0.0981015 0.00734026 -0.023575 0.0573222 -0.0374614 0.149366 -0.120934
internal_count=111640 56818 37711 54822 50089 45861 24383 18283 13328 12699 11719 4733 13141 19107 41972 2923 2646 13899 3889 1759 2130 4228 3898 41768 6100 4225 3247 2489 5142 651
shrinkage=0.1


Tree=16
num_leaves=31
num_cat=0
split_feature=0 3 3 1 3 3 3 3 3 3 0 0 2 0 0 1 2 2 2 3 3 3 4 0 0 3 2 3 0 0
split_gain=366.052 85.126 86.9938 69.1545 61.8463 58.2947 57.2182 56.1864 50.727 79.7932 74.1739 44.706 15.2506 14.7717 12.1446 9.33358 7.99319 7.81972 7.02772 6.94641 12.6001 8.007 6.50373 5.88693 4.95104 4.52422 4.5065 4.44998 4.41296 4.25988
threshold=-0.082137827561999097 0.51940035852604827 0.51941818300372367 0.68563892963188133 0.6344227612890504 -1.5517353063600885 0.63447029392088172 0.7495169948297703 0.40434392498779065 0.40433612855805184 -0.53515876620423353 1.4610243615201453 -0.79847311999927573 2.8041737694444753 -0.80073823943047329 -0.81417330654907649 -1.0338693138764292 -0.1854562903947638 1.5948865957685838 -1.6667695112762029 -1.6723779208044254 -1.7817281391720845 -0.56716705770664222 -0.97489118455555335 2.5069689068012173 1.439692322520397 -0.75666986115616985 1.7857214959136589 -0.37110055473731884 -0.4133142199285621
decision_type=2 2 2 2 2 2 2 2 2 2 2 2 2 2 2 2 2 2 2 2 2 2 2 2 2 2 2 2 2 2
left_child=1 3 28 8 -4 13 29 -8 9 10 -1 12 27 19 -11 22 -5 -13 23 20 21 -2 -14 -18 -19 -17 -22 -7 -3 -6
right_child=5 2 4 16 6 11 7 -9 -10 14 -12 17 15 -15 -16 25 18 24 -20 -21 26 -23 -24 -25 -26 -27 -28 -29 -30 -31
leaf_value=0.012830625069199852 -0.0023234604157844328 0.04039500317131179 -0.023314042429940229 0.039626672101969074 0.042223141964089564 0.011212302959868976 -0.022181842059795582 0.0024860471716558826 -0.022753535762746285 0.001403213081842599 -0.0047523769474313625 0.01839348312886099 0.0064276598773491816 0.014424899954283761 0.028980485419063468 0.0066020954807697891 -0.011135527392156667 0.0099940605457019775 0.041377348207903134 -0.012955876712001498 -0.0041342803044244645 -0.014095723043450817 -0.0012173792031220469 -0.0082792854468790988 0.017446391623104029 0.014180100201941029 0.013079317209105941 0.024415451191444917 0.025259597360801241 0.025205716159608628
leaf_count=2710 2661 473 1029 33 231 5002 995 12823 1175 192 20919 4316 1877 494 949 15865 14013 2861 27 698 201 738 2733 14877 1295 829 625 269 325 405
internal_value=0 -0.0431747 0.0203277 -0.0620085 0.00373271 0.0759441 0.020596 0.00709773 -0.0245163 -0.0148858 -0.0273579 0.0908663 0.0707006 -0.0206001 0.2434 0.0587848 -0.0956091 0.154122 -0.0961704 -0.037142 -0.0218741 -0.0487949 0.0189536 -0.096647 0.123162 0.0697841 0.0889054 0.118861 0.342308 0.313866
internal_count=111640 71176 16281 54895 15483 40464 14454 13818 25945 24770 23629 35047 26575 5417 1141 21304 28950 8472 28917 4923 4225 3399 4610 28890 4156 16694 826 5271 798 636
shrinkage=0.1


Tree=17
num_leaves=31
num_cat=0
split_feature=0 3 3 4 0 0 4 1 0 2 3 3 0 3 0 4 1 0 3 2 0 3 3 0 2 4 0 0 1 4
split_gain=305.069 85.6866 60.7255 53.6088 48.7572 38.9118 27.6956 23.1874 20.0975 19.3882 19.0001 20.7362 18.6536 18.6505 17.0454 37.0865 20.7272 16.4797 15.6696 14.1365 13.3729 13.9486 12.4269 12.353 11.3856 16.0216 10.8348 20.201 10.755 10.7018
threshold=-0.35721711477368118 -0.74630455365727699 1.6699167719146226 -0.74369417470532362 0.72916486932827462 1.0291266502107697 0.29910800979671764 -0.65127878587710519 -0.13259495071495273 -0.1329852182357075 -0.86133009968667718 -0.86139113404951806 -0.086814721505963269 -0.97624995195124031 -0.6213645515705396 0.67046863769960707 -0.46027677571954018 -0.42864497108594296 -1.321551572312835 0.9661326040636673 -0.71969244900942331 -0.74626795409991975 0.97259349048919186 2.5069689068012173 0.49394231297658897 -0.91389543878655133 -0.78196305564460622 -0.50658759306959789 -1.3505875043443571 2.2902514324812047
decision_type=2 2 2 2 2 2 2 2 2 2 2 2 2 2 2 2 2 2 2 2 2 2 2 2 2 2 2 2 2 2
left_child=2 4 3 20 10 7 18 24 -9 17 11 13 -10 -2 16 -16 -8 -4 -5 26 -1 -22 -23 -6 25 -3 29 -28 -20 -11
right_child=1 5 9 6 23 -7 14 8 12 19 -12 -13 -14 -15 15 -17 -18 -19 28 -21 21 22 -24 -25 -26 -27 27 -29 -30 -31
leaf_value=0.029063799319084028 -0.0030551807973674665 -0.0080615689277509714 0.018046831312860008 0.019213970434663934 0.0042698093757154764 0.013709447446896693 0.024618794365050316 0.013119521474022398 -0.0038291651381630216 -0.014297138123008589 -0.020537612467577803 0.011136382455009756 0.007193464473855448 -0.022512580043482552 -0.004226179484592852 0.024816635467480971 -0.0075830626234668413 -0.010993950583957355 0.0226986361389751 0.02973380906480378 0.025851053901715205 -0.00019043058691978892 0.019003854047259378 0.013992072159350853 -0.0033896521480329782 0.0083261891670104865 0.034569854151009896 -0.0077853640163279827 -0.0080572397397635012 0.021762136601255803
leaf_count=222 11342 756 1631 213 4722 9009 219 5277 1723 781 629 994 14093 515 1047 758 2290 222 114 138 265 2941 381 1807 3122 2829 181 298 43029 92
internal_value=0 0.051348 -0.0532175 -0.0616988 -0.00132376 0.0799798 -0.0708207 0.061471 0.0777564 0.077386 -0.0356784 -0.0273724 0.0599266 -0.039003 0.00559226 0.0797019 -0.047723 0.145676 -0.0784239 -0.00754079 0.0524629 0.0377222 0.0201096 0.0696059 0.0102546 0.0487036 -0.0386601 0.0821943 -0.0797597 -0.104971
internal_count=111640 56818 54822 51479 20009 36809 47670 27800 21093 3343 13480 12851 15816 11857 4314 1805 2509 1853 43356 1490 3809 3587 3322 6529 6707 3585 1352 479 43143 873
shrinkage=0.1


Tree=18
num_leaves=31
num_cat=0
split_feature=0 3 3 4 0 0 4 4 1 0 2 2 2 0 3 1 0 0 3 0 3 2 3 0 4 1 1 1 0 0
split_gain=247.296 70.1981 49.62 44.6268 36.6135 34.4903 25.3569 22.2167 20.7811 16.9721 15.7061 14.7195 14.6684 13.8254 24.849 13.4932 12.5066 12.4992 11.7805 15.0261 11.4902 11.4306 11.199 10.9512 10.4948 10.2946 10.1874 9.96203 8.99481 8.94211
threshold=-0.3494228894120493 -0.97656386277900598 1.6699167719146226 -0.71677060874231691 1.13176219241485 -0.071351573229900114 0.058461304334797591 0.29910800979671764 -0.82679476117604311 2.3748246542868565 -0.1329852182357075 0.61868145621562831 -0.57188728986791848 -0.23809185687372003 -1.0914149412040453 -1.1064904336826225 -0.73452277543607047 -0.42864497108594296 -1.7820222350012072 0.2648731396491289 -1.7817281391720845 0.9661326040636673 -1.3800848065945057 0.098520716821214604 -0.61473909544535121 -0.77532258489050887 -1.6268543786806593 -0.52424068337947427 -1.0436166579606263 -0.78196305564460622
decision_type=2 2 2 2 2 2 2 2 2 2 2 2 2 2 2 2 2 2 2 2 2 2 2 2 2 2 2 2 2 2
left_child=2 5 3 11 6 13 8 15 23 18 17 16 -9 14 25 -5 -1 -4 19 -7 -20 29 -17 -3 -19 -2 -15 -18 -14 -12
right_child=1 4 10 7 -6 9 -8 12 -10 -11 21 -13 28 26 -16 22 27 24 20 -21 -22 -23 -24 -25 -26 -27 -28 -29 -30 -31
leaf_value=0.027221243040991428 0.035291948175531697 -0.0050736949708290544 0.016242148325471994 0.01141806018114902 0.012336442145950293 0.021323369670066764 0.010412753950547119 0.013304175446288381 0.0051589788222625452 0.011406834531456829 -0.0094473692552636754 0.024023732700542637 0.034090385330257135 0.030105317612018054 -0.023128850574767781 0.027211212196654861 -0.0046840092840021493 -0.025191541665278944 0.017462673772144777 -0.0090740657750245958 0.0010915471524411602 0.026706414426536224 -0.00734322729064591 0.0050051852967514417 0.018642144541478379 0.0058224033576058654 -0.012158030264829305 0.0055973405560496119 -0.002888322502041366 0.0074991376460568351
leaf_count=194 169 3551 1631 390 9296 178 7213 730 19432 1590 873 343 67 58 252 94 1647 144 457 1882 6927 139 42627 1548 88 397 3426 2203 3610 484
internal_value=0 0.0465986 -0.0475362 -0.0551589 0.0681694 -0.0111263 0.052006 -0.0640683 0.0366804 0.0184852 0.0702533 0.0413436 0.00356083 -0.0870756 0.0299189 -0.0709816 0.024474 0.131529 0.0023928 -0.0644749 0.0210477 -0.00605467 -0.072672 -0.0201386 -0.0856497 0.146216 -0.114544 0.0119906 -0.0221452 -0.0340307
internal_count=111640 56376 55264 51905 41040 15336 31744 47518 24531 11034 3359 4387 4407 4302 818 43111 4044 1863 9444 2060 7384 1496 42721 5099 232 566 3484 3850 3677 1357
shrinkage=0.1


Tree=19
num_leaves=31
num_cat=0
split_feature=0 3 3 4 0 2 3 3 4 0 2 3 3 3 4 2 0 2 0 0 0 0 4 2 3 3 4 0 0 1
split_gain=200.31 58.0525 40.6713 34.9853 33.7891 27.1887 19.1797 18.4647 18.3563 17.4759 16.281 14.0188 16.6422 14.106 13.6463 13.0955 12.1939 17.1314 15.4675 24.715 16.081 11.8763 15.3664 11.4027 10.8789 10.1019 9.69267 16.7956 15.3455 9.58548
threshold=-0.3494228894120493 -0.74630455365727699 1.3245680772667663 -0.72357427322347645 0.47808183103135055 0.29882866305818401 1.2098153568714076 -1.7820222350012072 0.29910800979671764 1.3260867072305269 -0.26397535857618964 -0.86133009968667718 -0.86139113404951806 -0.97624995195124031 2.7268940134111435 0.083151422183614196 -0.30845647266160287 0.99014111216848322 -0.15372069747007575 -0.10605746366621104 -0.23809185687372003 -0.42864497108594296 -0.50597702111020715 0.61868145621562831 -1.3800848065945057 1.3248755882310606 -0.86045788921634059 -0.095361106029019774 -0.082137827561999097 -0.99508069918883646
decision_type=2 2 2 2 2 2 2 2 2 2 2 2 2 2 2 2 2 2 2 2 2 2 2 2 2 2 2 2 2 2
left_child=2 4 3 23 11 9 8 -6 24 26 -10 12 13 -2 15 21 17 -7 20 -20 -18 -4 -23 29 -5 -17 28 -28 -3 -1
right_child=1 5 14 6 7 16 -8 -9 10 -11 -12 -13 -14 -15 -16 25 18 -19 19 -21 -22 22 -24 -25 -26 -27 27 -29 -30 -31
leaf_value=-0.008355871531564911 -0.003120147245903886 -0.0041164588061155501 0.0098326451724398273 0.023281584835551199 -0.005653229554769483 0.013568074690865538 -0.025802629255924941 0.0067596382676775053 0.011804748083062869 0.013808107937759481 -0.0029589319748077277 -0.018390343498426463 0.010722471707139813 -0.020223886579803126 0.01927892537879684 0.027945520571536486 0.0041237939604502477 -0.018623996669015732 -0.010809484742490204 0.0039902502432320758 0.024111724764144582 -0.021769125807406184 0.019787348232303676 0.02140214851543085 -0.0063820127887311345 -0.0065548532516626762 0.013852064327669035 0.0063421600852315713 0.0087065024436609097 0.0045628514639786052
leaf_count=706 9492 1795 2216 124 1445 233 479 7022 1012 4898 2852 614 833 508 556 90 972 569 1311 8100 687 282 130 335 41913 1489 3962 11991 1944 3080
internal_value=0 0.0419387 -0.0427826 -0.0511139 -0.00148276 0.0656537 -0.0589595 0.0464123 -0.0568822 0.0846276 0.00907746 -0.0369093 -0.0285778 -0.0398902 0.0455524 0.0260935 0.0263538 -0.0927144 0.03498 0.0192857 0.124009 0.0693402 -0.0865665 0.0371853 -0.0629451 -0.045884 0.0713321 0.0820728 0.0255052 0.0215381
internal_count=111640 56376 55264 50501 19914 36462 46380 8467 45901 24590 3864 11447 10833 10000 4763 4207 11872 802 11070 9411 1659 2628 412 4121 42037 1579 19692 15953 3739 3786
shrinkage=0.1


Tree=20
num_leaves=31
num_cat=0
split_feature=0 3 3 0 4 3 3 2 3 0 1 0 0 3 0 0 0 3 0 0 3 2 3 4 1 4 3 0 4 0
split_gain=162.273 47.1938 33.2097 31.5176 29.8572 21.0987 22.432 20.5335 18.2542 17.6079 16.3091 13.0563 13.0229 13.0013 12.7342 12.5864 11.463 19.902 19.1733 20.8791 11.4221 10.9388 11.8494 10.4714 10.206 8.84089 8.39169 8.35423 8.32392 7.29338
threshold=-0.35721711477368118 -0.64068905274793131 1.6699167719146226 0.42686587497036393 -0.67597117023040043 -0.74626795409991975 -0.74630455365727699 0.24267709505142512 -1.7820222350012072 -1.1039452310566682 -1.0900745668314284 1.2058399067961589 -0.082137827561999097 -0.74626795409991975 -0.36690372937910981 -0.71969244900942331 -0.30845647266160287 0.28924028369866001 -0.14602865785633559 0.026005889345456213 -0.86133009968667718 -0.46035092106642533 1.6706170341829283 2.1232484616399185 -0.50588470377985839 -0.19516364016209073 -0.17082738340479617 -0.46378441537476961 -0.73028918850713243 2.3748246542868565
decision_type=2 2 2 2 2 2 2 2 2 2 2 2 2 2 2 2 2 2 2 2 2 2 2 2 2 2 2 2 2 2
left_child=2 3 4 5 13 6 20 11 -5 -6 14 25 -8 -1 -11 -12 17 28 -18 -20 -2 -4 -23 -24 27 -3 -26 -15 -9 -10
right_child=1 7 21 8 9 -7 12 16 29 10 15 -13 -14 24 -16 -17 18 -19 19 -21 -22 22 23 -25 26 -27 -28 -29 -30 -31
leaf_value=0.020440333938812449 -0.0026960871803866182 0.0049626503743435014 0.012705766616630363 -0.0053455748283361137 0.03342973463730807 -0.023216556423292387 0.032859781466992609 0.017405000231715283 0.0045782028336700132 0.020187929846635498 -0.0077108352896147194 0.012250005136815312 0.0043872642192805747 0.0030946353898874575 -0.019452934356240129 -0.0042986300759541348 0.013636209526215826 0.019059227976853998 -0.0062233473216851479 0.0046559381054572619 -0.016574245341868393 0.036508622953875199 -0.0038322684634767936 0.016584249062056577 0.019911686514791086 0.0096870696352610655 0.0030337531651320037 -0.010412725926554275 -0.019641413986864795 0.011594627053517699
leaf_count=382 10372 12073 1355 1643 117 508 259 67 6498 410 17574 5090 423 812 101 28087 1596 208 2409 6589 629 90 1600 298 332 5895 2614 1050 640 1919
internal_value=0 0.0374496 -0.0388131 0.00152799 -0.0450851 -0.0326606 -0.0239857 0.0605726 0.0429587 -0.0531492 -0.054131 0.0777916 0.152001 0.0268374 0.123528 -0.0561192 0.0260746 -0.081312 0.0353496 0.0174327 -0.0348959 0.0577702 0.0105445 -0.00626725 0.0127296 0.0651265 0.0493581 -0.045223 -0.161307 0.0617788
internal_count=111640 56818 54822 22251 51479 12191 11683 34567 10060 46289 46172 23058 682 5190 511 45661 11509 915 10594 8998 11001 3343 1988 1898 4808 17968 2946 1862 707 8417
shrinkage=0.1


Tree=21
num_leaves=31
num_cat=0
split_feature=0 3 3 3 3 3 3 3 0 3 0 3 1 3 3 3 3 3 3 0 0 4 3 0 0 2 0 2 0 0
split_gain=131.441 40.0733 28.3545 27.9002 22.97 31.7831 42.4178 41.0126 21.9057 20.2909 44.9687 21.4148 18.3761 17.1778 22.4131 19.3271 14.421 42.4343 18.7878 13.794 11.1813 10.9579 8.54656 8.33658 7.29016 7.14646 6.39524 3.214 2.89377 2.81373
threshold=-0.35721711477368118 -0.97656386277900598 -1.0914149412040453 0.97259349048919186 0.97968432262473326 1.083903509341597 1.0947739006908799 1.1890502589149408 1.4610243615201453 -0.40103285908122882 -0.52038337924590305 -0.40111716828336663 -0.81417330654907649 -1.0926415321846752 -1.2063377505717561 -1.2065569433974195 0.86461012590691533 0.86447085115943423 0.74958029678261962 -0.082137827561999097 -0.37110055473731884 0.058461304334797591 -0.97624995195124031 0.098520716821214604 -0.086814721505963269 -0.95489219542901005 -0.095361106029019774 -0.43471672280878271 -0.082137827561999097 2.0012386879344608
decision_type=2 2 2 2 2 2 2 2 2 2 2 2 2 2 2 2 2 2 2 2 2 2 2 2 2 2 2 2 2 2
left_child=3 2 13 9 -5 -6 -7 -8 12 10 -1 20 22 14 15 -2 17 18 -11 -15 -12 25 24 -24 -3 -14 -23 -10 -16 -29
right_child=1 8 -4 4 5 6 7 -9 27 16 11 -13 21 19 28 -17 -18 -19 -20 -21 -22 26 23 -25 -26 -27 -28 29 -30 -31
leaf_value=0.022228901790422511 -0.0017696277696309074 0.035853328660709192 -0.022133456324708874 0.02102731110277371 -0.022115532352796032 0.026606294987123302 -0.025744331060483034 0.0023747213276477446 0.012719507278093407 -0.0046815732002707363 -0.0015839379570276363 0.037210603415220977 0.0082823400566608401 0.036682789857100162 -0.019401528426447816 0.010423141678775234 -0.01782677658718625 0.043384129817055153 -0.018820254339714557 0.0066704140344143173 -0.016048973686443337 0.013934631400258073 -0.0043142254500677241 0.0035411643069082686 0.0056158907843173933 0.0031947961879356434 0.0068406374915562342 0.0052670732962767962 -0.052980164245322904 0.010884835224572426
leaf_count=889 11364 103 609 585 576 652 571 5663 2976 40819 2228 125 3260 175 519 1468 867 182 962 1226 703 1671 4129 2008 353 18040 5306 1666 27 1918
internal_value=0 0.0337046 -0.00987171 -0.0349318 0.0194579 0.00449851 0.023374 -0.00200829 0.0498898 -0.0442888 0.0243381 -0.0332465 0.0399163 -0.00115794 -0.0121907 -0.00374757 -0.0506099 -0.0479723 -0.0500711 0.104193 -0.0505338 0.0510011 -0.00762548 -0.0174398 0.124458 0.0397345 0.0853966 0.102904 -0.21062 0.0827345
internal_count=111640 56818 15388 54822 8047 7462 6886 6234 41430 46775 3945 3056 34870 14779 13378 12832 42830 41963 41781 1401 2931 28277 6593 6137 456 21300 6977 6560 546 3584
shrinkage=0.1


Tree=22
num_leaves=31
num_cat=0
split_feature=0 3 3 3 3 3 2 0 1 3 0 3 3 2 2 0 0 0 0 4 3 3 0 3 4 3 3 0 3 2
split_gain=107.185 31.8502 66.7231 40.7557 41.5536 35.6728 28.9154 19.6918 18.5005 29.2343 55.4701 14.2427 11.9998 8.77389 8.50849 6.82427 6.45735 5.69458 5.03921 6.41801 4.75136 4.62951 6.0718 4.61473 4.35564 4.35561 8.63936 4.18075 4.03959 3.91864
threshold=-0.071351573229900114 0.51940035852604827 0.51941818300372367 0.6344227612890504 0.63447029392088172 0.7495169948297703 -1.1051238954079567 1.4610243615201453 0.35936541900065772 0.40434392498779065 -0.53515876620423353 -1.5517353063600885 0.40925141832810608 1.7983191527175058 -0.79847311999927573 -0.37110055473731884 0.12989567371765229 -0.4133142199285621 0.18362002866731711 -0.64877964494529694 0.166778510279605 0.05836416558908724 2.5069689068012173 -1.6723779208044254 -0.83769647399584957 -0.74630455365727699 -0.93524538737568186 -0.75293470338158019 -1.6667695112762029 -1.1646192083908964
decision_type=2 2 2 2 2 2 2 2 2 2 2 2 2 2 2 2 2 2 2 2 2 2 2 2 2 2 2 2 2 2
left_child=1 6 15 -4 17 -6 12 11 9 10 -8 16 25 20 -13 -3 28 -5 19 -16 -10 22 23 -9 -18 26 -1 -27 -2 -26
right_child=7 2 3 4 5 -7 8 21 13 -11 -12 14 -14 -15 18 -17 24 -19 -20 -21 -22 -23 -24 -25 29 27 -28 -29 -30 -31
leaf_value=0.024600592085712213 0.014286165668096358 0.037318497059505483 -0.01910151269272432 0.03875344786833311 -0.017938172342115311 0.0017123718941537852 0.012866829380641499 -0.0074071286855408331 -0.006697976099549416 -0.01838046140213373 -0.0027328601783848452 0.0073949892254869809 -0.017511197942935052 0.036851023646945862 0.0050182550622148488 0.018647782745161847 0.010678117431603797 0.019214208221069656 0.0038495778800136438 -0.0019417503492581913 -0.0041951363691787895 0.011645593159371465 0.010294643379977035 0.0052327944817663506 0.037640482847663491 0.00056612763908647356 -0.013735536305421545 0.021972543580792765 -0.016011019460126466 -0.0046900351697753313
leaf_count=108 321 473 1032 231 995 12914 2572 313 15826 1006 20039 5205 122 49 2000 334 201 421 15078 3925 14566 2666 2827 3742 22 105 129 696 51 3671
internal_value=0 -0.0231631 0.0155327 0.00102197 0.0146325 0.00306642 -0.0346559 0.0414495 -0.038008 -0.0170051 -0.00958396 0.0290335 0.12156 -0.0543027 0.0377556 0.295911 -0.0245509 0.261369 0.0287859 0.00407619 -0.0549844 0.0810775 0.0673723 0.0425714 -0.0365761 0.156429 0.0373409 0.191665 0.101325 -0.0443786
internal_count=111640 71618 16400 15593 14561 13909 55218 40022 54058 23617 22611 30474 1160 30441 26208 807 4266 652 21003 5925 30392 9548 6882 4055 3894 1038 237 801 372 3693
shrinkage=0.1


Tree=23
num_leaves=31
num_cat=0
split_feature=0 3 3 4 3 0 2 0 0 3 1 3 4 0 0 0 3 3 0 1 0 1 0 3 2 3 4 2 2 0
split_gain=88.9691 29.8635 21.9325 23.3237 21.6449 18.4065 16.0616 12.6587 20.0621 19.4381 11.9754 10.853 10.0932 8.9506 8.58874 8.02225 11.5386 8.97768 7.72924 11.8979 9.54014 7.33334 8.47112 6.62622 6.57084 5.75726 5.70706 3.91647 3.86621 7.13114
threshold=-0.3494228894120493 -0.97656386277900598 2.245580724185408 -0.79728528875172944 -1.0914149412040453 -1.1039452310566682 0.29882866305818401 -0.25590854748865349 -0.082137827561999097 -1.0926415321846752 -1.3191588060468262 -1.3800848065945057 0.29910800979671764 2.8041737694444753 1.2421771528795953 -0.37110055473731884 -0.17082738340479617 0.97259349048919186 -0.11744071707345485 -0.91126437665788496 -0.082137827561999097 -0.67274892334055869 0.08206474662314138 -1.4365674897801934 0.52964713484165371 0.28924028369866001 -1.0159278992693044 -0.1854562903947638 0.075620246254665041 -0.80073823943047329
decision_type=2 2 2 2 2 2 2 2 2 2 2 2 2 2 2 2 2 2 2 2 2 2 2 2 2 2 2 2 2 2
left_child=2 4 3 15 7 -5 14 23 9 -9 -7 -12 21 -10 18 16 -1 -18 19 -3 -20 22 -8 -2 -25 27 -23 -17 -4 -30
right_child=1 6 28 5 -6 10 12 8 13 -11 11 -13 -14 -15 -16 25 17 -19 20 -21 -22 26 -24 24 -26 -27 -28 -29 29 -31
leaf_value=0.019113586119188807 0.035775492116662228 -0.0021562791375935764 0.011454185585136688 0.025734380210412702 -0.019735136780692442 0.018146188272734936 -0.0062626749833665403 -0.0092825521301402626 0.00029908175547304695 0.031912285017491389 0.022796782823156145 -0.0040532251525957188 0.0070459581541696785 0.0095520035139350229 0.0089811864810533486 -0.01740431477411641 0.00039156404397687022 0.01664134193786183 -0.0049594698631043599 0.010143832054248989 0.0042737750671945412 -0.010219632567145382 0.0024610491323713082 0.0014149472934668922 0.037797651986681648 0.01866490886785795 0.0029373164828338291 0.0053527530983533012 -0.0039489880561506237 0.025789794010319275
leaf_count=619 127 957 1180 211 591 246 2839 3058 9962 119 151 49688 2665 1168 5997 301 1716 424 1215 4412 14169 347 1831 249 62 74 6608 101 455 98
internal_value=0 0.0279501 -0.0285125 -0.0320969 -0.00970037 -0.0373907 0.0420195 -0.00217906 -0.00730572 -0.0773953 -0.0386324 -0.0397188 0.0149528 0.012701 0.0564787 0.050208 0.0708922 0.0361115 0.0468464 0.0795139 0.0354455 0.00222798 -0.028423 0.16528 0.0866809 -0.0696821 0.0228089 -0.116867 0.0822074 0.0132118
internal_count=111640 56376 55264 53531 15336 50296 41040 14745 14307 3177 50085 49839 14290 11130 26750 3235 2759 2140 20753 5369 15384 11625 4670 438 311 476 6955 402 1733 553
shrinkage=0.1


Tree=24
num_leaves=31
num_cat=0
split_feature=0 3 3 4 4 0 0 2 1 4 2 2 0 3 3 2 3 0 0 4 3 3 1 3 3 1 3 0 0 3
split_gain=72.16 25.5525 24.4841 20.3177 20.4456 15.4118 14.2668 13.1245 12.7137 11.4416 10.4753 10.3255 9.25 9.03417 14.6959 8.84607 12.9239 12.6107 27.855 10.879 8.76143 11.6443 8.22502 7.58375 9.34715 6.55886 9.61265 8.26981 6.50836 6.33006
threshold=-0.36301068040035039 -0.51617156344653858 -0.6311395863987902 0.3182462868100448 -0.75077246373936546 -0.46378441537476961 2.3748246542868565 -0.26397535857618964 -0.59860368500848782 -0.17280350722435023 1.641098294745523 -0.95489219542901005 -0.37110055473731884 -1.3308818674467982 -1.4365674897801934 0.083151422183614196 -1.2063377505717561 -0.48902711391908954 -0.70458923162493636 0.13927352434115095 -0.055868195750237298 0.166778510279605 -1.0102436869494358 0.42206064342591726 0.51940035852604827 -0.49684067962568973 -0.5161056919336412 -0.13259495071495273 -0.55288221672619697 -1.321551572312835
decision_type=2 2 2 2 2 2 2 2 2 2 2 2 2 2 2 2 2 2 2 2 2 2 2 2 2 2 2 2 2 2
left_child=3 2 6 4 12 7 13 23 -9 11 -10 -3 20 14 -2 17 -17 18 -6 -19 22 -22 -1 -5 -25 26 -13 -27 -18 -15
right_child=1 9 -4 5 15 -7 -8 8 10 -11 -12 25 -14 29 -16 16 28 19 -20 -21 21 -23 -24 24 -26 27 -28 -29 -30 -31
leaf_value=-0.00021383915687309338 -0.0018870210201030761 0.0078765487594668806 -0.025306192525227866 0.023138750545236716 -0.004827538825124887 0.017912809933641343 0.007782193806398368 0.023690232982732019 -0.0050115860827966621 0.0068433422666971709 0.024733895096715874 0.011579345091121221 -0.012329685694018117 0.0081858859279091128 -0.019797148607640602 0.027248504314155986 -0.0044874206075682264 -0.0040487982388790044 0.0091888263614104196 0.030809405588855351 -0.01087239092891279 0.0057545256007191497 0.020027201928972234 -0.023766202350648552 0.0072198805674387788 0.0084293859890247347 -0.0021350831676068918 0.001920111531323637 -0.0084480965878762776 0.00057539618446768455
leaf_count=294 7992 3510 375 277 3117 613 2388 176 3161 11561 123 566 326 1200 486 121 15834 17237 2601 90 534 1994 633 104 1523 2478 5267 9191 5622 12246
internal_value=0 0.0247761 0.000510769 -0.0260882 -0.0328806 0.028918 0.004422 0.011752 -0.0249418 0.0431667 -0.0389749 0.0292646 0.0377243 -0.00357285 -0.0291372 -0.0388632 -0.0534143 -0.0252391 0.0154822 -0.0386774 0.0529176 0.0224235 0.136077 0.0784329 0.0523921 0.0193373 -0.00804316 0.033024 -0.0552522 0.012546
internal_count=111640 57260 24687 54380 48403 5977 24312 5364 3460 32573 3284 21012 3781 21924 8478 44622 21577 23045 5718 17327 3455 2528 927 1904 1627 17502 5833 11669 21456 13446
shrinkage=0.1


Tree=25
num_leaves=31
num_cat=0
split_feature=0 4 3 4 3 2 2 3 0 3 0 1 1 3 0 0 1 3 0 0 0 2 3 3 0 3 3 4 3 3
split_gain=62.2897 24.3997 22.7042 20.234 14.1426 13.4182 10.2599 15.2525 10.136 19.5523 10.8478 10.6977 8.45307 8.66752 8.32967 8.1215 7.76498 6.86279 6.72941 5.10789 3.79675 2.62162 2.09995 3.87964 4.81075 1.76939 1.47285 1.37633 1.49635 2.45969
threshold=0.42686587497036393 0.3182462868100448 -1.8968653616487881 -0.56037370921643348 -1.7820222350012072 -0.57188728986791848 0.075620246254665041 1.3245680772667663 -0.62966891106208689 -0.28617583891709975 -1.1039452310566682 -0.43711371208253486 -0.21838320840940947 -1.3308818674467982 -0.082137827561999097 -0.29104600413176585 -0.41413712697833788 1.083903509341597 2.0012386879344608 -0.082137827561999097 2.9924350435010543 -1.2397608316725983 -1.8968653616487881 -1.8969585823323023 0.72916486932827462 -1.7817281391720845 2.1303556251309783 4.9914841888646757 0.28947602329507816 0.7495169948297703
decision_type=2 2 2 2 2 2 2 2 2 2 2 2 2 2 2 2 2 2 2 2 2 2 2 2 2 2 2 2 2 2
left_child=1 2 -1 12 20 27 7 -5 10 16 26 -12 14 -14 -4 -8 -10 18 21 -11 22 -6 23 -2 -25 -23 -7 28 -3 -30
right_child=4 5 3 6 17 8 15 -9 9 19 11 -13 13 -15 -16 -17 -18 -19 -20 -21 -22 25 -24 24 -26 -27 -28 -29 29 -31
leaf_value=0.027033048921945954 -0.0078538382532281539 0.013410323727526192 -0.0024003835695358801 -0.0022539772296213795 0.0086900342413223277 0.026609784089238711 -0.0053521377706399632 0.0085670929305463293 -0.0059944927415832346 0.012248524958667063 0.019350892324353011 -0.007077630964441594 -0.0099919261685995908 0.0037948375512996215 0.0031046692136765175 -0.0010049096803072539 0.0081550676935891082 0.010871544771703703 0.0076791541498207327 0.0036429553687668394 0.0085043384406703702 0.010894167218436251 -0.014480518421222425 0.02988473879365576 -0.0012900718852793961 0.0030756439216986821 0.010310754853967034 0.018787893895923304 0.00026272590861776122 0.0094044438945621381
leaf_count=270 893 570 10773 24407 929 71 21279 1376 1846 1931 163 2537 484 7884 3690 5385 491 1836 5107 1073 195 295 261 63 231 15387 253 151 370 1439
internal_value=0 -0.0127529 -0.019133 -0.0201712 0.0437511 0.0314881 -0.0309883 -0.0167647 0.012188 0.0383806 -0.0340735 -0.0548213 0.00467755 0.0299742 -0.00995859 -0.0447418 -0.0302169 0.0500082 0.0450452 0.091747 -0.0459514 0.0352849 -0.0635923 -0.045735 0.0539024 0.0322272 0.138825 0.0953006 0.0894245 0.0753466
internal_count=111640 86443 75548 75278 25197 10895 52447 25783 8365 5341 3024 2700 22831 8368 14463 26664 2337 23554 21718 3004 1643 16611 1448 1187 294 15682 324 2530 2379 1809
shrinkage=0.1


Tree=26
num_leaves=31
num_cat=0
split_feature=0 4 1 3 3 2 2 3 1 0 3 3 0 0 3 3 0 2 3 3 0 1 0 0 0 0 3 0 0 2
split_gain=50.4546 19.7637 18.8129 16.1732 11.4555 11.2132 11.1837 12.1599 7.54118 7.21205 15.5892 12.7843 11.6929 6.92786 6.56578 5.69722 5.60823 3.40916 3.58618 3.09511 3.07536 3.01037 6.45263 6.62615 4.57599 2.57668 2.0367 3.16739 1.95915 1.86262
threshold=0.42686587497036393 0.3182462868100448 0.65746103810149747 -1.8968653616487881 -1.7820222350012072 -0.26397535857618964 -1.1051238954079567 1.7857214959136589 -0.67274892334055869 -0.80073823943047329 0.51941818300372367 0.51940035852604827 -1.1039452310566682 -0.3494228894120493 0.28947602329507816 0.97259349048919186 2.0012386879344608 0.99014111216848322 -0.36609699412935487 -1.3308818674467982 2.9924350435010543 0.13923170247131819 -0.60388381523871437 -0.88342584706258009 -0.40731127486009816 -0.35721711477368118 0.97259349048919186 -0.45255746962297144 -0.086814721505963269 -1.2397608316725983
decision_type=2 2 2 2 2 2 2 2 2 2 2 2 2 2 2 2 2 2 2 2 2 2 2 2 2 2 2 2 2 2
left_child=1 2 3 -1 20 21 8 -8 -5 10 -7 14 -12 17 -11 16 29 18 -4 -15 -2 22 23 -3 -24 -13 27 -23 -21 -6
right_child=4 5 13 6 15 9 7 -9 -10 11 12 25 -14 19 -16 -17 -18 -19 -20 28 -22 26 24 -25 -26 -27 -28 -29 -30 -31
leaf_value=0.024145389631000779 -0.0057233044374727935 0.018787932409826749 0.034730447332064311 0.018926816067022803 0.0075823926079960626 0.034398093662653749 -0.0011009572359499088 0.018940545286922184 0.0035742134292594055 0.00064378400316993133 0.011420687715144595 0.013414941622820451 -0.013396602550557142 -0.0087788842314360099 -0.010930717399265559 0.0089054261193213368 0.0068683253642924979 0.020151683250915702 -0.0039402703509857978 0.012575899575789999 0.0076539042951443634 0.028552522859198678 0.021349719197833954 -0.0083584103715958098 0.0056468385984771892 0.0054672718961558293 0.0083156319790169513 0.0095964704623689671 0.0028404273138477095 0.0027764387069138955
leaf_count=267 1448 108 24 370 852 89 40860 305 2365 3459 232 827 1045 147 571 2611 5014 59 30303 357 195 138 227 537 1017 805 1596 244 491 15077
internal_value=0 -0.0114776 -0.0172197 -0.00391819 0.039376 0.0283393 -0.00541055 -0.00952466 0.0565117 0.00454226 -0.0606766 0.0202768 -0.088879 -0.0359408 -0.00996176 0.0450074 0.039516 -0.0386295 -0.0390967 0.0461683 -0.0413563 0.0715888 0.0430379 -0.0381298 0.0851224 0.0949468 0.0988551 0.164445 0.0693897 0.030335
internal_count=111640 86443 75548 44167 25197 10895 43900 41165 2735 7028 1366 5662 1277 31381 4030 23554 20943 30386 30327 995 1643 3867 1889 645 1244 1632 1978 382 848 15929
shrinkage=0.1


Tree=27
num_leaves=31
num_cat=0
split_feature=0 4 1 3 3 2 3 2 3 0 4 2 0 2 3 3 0 1 1 0 2 3 0 3 3 0 1 0 3 0
split_gain=40.8682 16.0086 15.2384 13.1003 9.44325 9.08273 9.07092 9.25752 5.87377 11.9721 10.0853 7.33663 5.61157 5.22193 3.80228 4.57048 7.89756 3.22369 3.25965 2.86638 2.76142 2.9048 2.68609 2.53857 2.50704 2.49105 2.4384 5.22835 5.79169 3.96231
threshold=0.42686587497036393 0.3182462868100448 0.65746103810149747 -1.8968653616487881 -1.6723779208044254 -0.26397535857618964 1.7857214959136589 -1.1051238954079567 -1.0926415321846752 -0.6213645515705396 0.7519644250549804 0.84989544959424579 -0.3494228894120493 -0.42377951607951875 -1.7817281391720845 -1.7820222350012072 0.75660708752017725 0.020379437627139906 -1.0900745668314284 2.2694466065690579 0.99014111216848322 -0.36609699412935487 -0.43302352995994919 1.3245680772667663 -1.3308818674467982 2.9924350435010543 0.13923170247131819 -0.61478531612924481 0.42206064342591726 -0.12724085773618735
decision_type=2 2 2 2 2 2 2 2 2 2 2 2 2 2 2 2 2 2 2 2 2 2 2 2 2 2 2 2 2 2
left_child=1 2 3 -1 14 26 7 -5 17 11 -11 -10 20 23 15 25 -17 18 -7 -15 21 -4 -8 -6 -14 -2 27 28 -3 -29
right_child=4 5 12 6 13 8 22 -9 9 10 -12 -13 24 19 -16 16 -18 -19 -20 -21 -22 -23 -24 -25 -26 -27 -28 29 -30 -31
leaf_value=0.021730850636523066 -0.0051509740913117334 0.017658574326468685 0.031257402648528415 0.0050740292119188478 0.0056108180207004085 0.0051178189923044258 0.023374928684224777 -0.00099086151770803226 -0.00646205582905943 9.2038767904451844e-06 0.010799408811375758 0.0067534916707199443 -0.007900995705403438 0.002369080356033915 -0.014722184595047384 0.032943296137576301 0.0011517957050818952 0.018078357055235438 -0.010212917299485464 0.0062770410773028591 0.018136514963037569 -0.0035462431540019472 0.005997667390055899 0.012063047043281559 0.0062450723415545415 0.0068885138130579619 0.0088969576326155247 0.013312862353279026 -0.0078678228605893394 0.0020824050978086187
leaf_count=267 1448 107 24 2682 8013 166 193 40860 1969 1723 1742 534 147 11909 228 96 420 51 843 2228 59 30303 165 660 848 195 1978 618 525 639
internal_value=0 -0.0103298 -0.0154977 -0.00352638 0.0354384 0.0255054 -0.00486949 -0.0061729 0.00408803 0.0162718 0.0543389 -0.036426 -0.0323467 0.0417009 -0.0244059 -0.011436 0.0706649 -0.0645088 -0.0769071 0.0298498 -0.0347665 -0.035187 0.153659 0.0610182 0.0415515 -0.0372206 0.0644299 0.0387341 -0.0354611 0.0760382
internal_count=111640 86443 75548 44167 25197 10895 43900 43542 7028 5968 3465 2503 31381 22810 2387 2159 516 1060 1009 14137 30386 30327 358 8673 995 1643 3867 1889 632 1257
shrinkage=0.1


Tree=28
num_leaves=31
num_cat=0
split_feature=0 4 4 3 2 3 3 1 0 3 2 3 0 3 3 0 0 0 0 2 3 1 0 2 0 3 3 3 0 0
split_gain=33.1033 12.967 13.5022 8.06965 7.96415 12.0504 7.64903 7.59441 8.80293 9.2185 8.5325 7.6621 6.37526 17.4289 15.4887 14.7373 9.21497 15.812 5.56021 4.3495 3.99294 3.28548 3.09205 4.40368 4.3532 3.85338 2.91762 2.79311 2.78251 2.65497
threshold=0.42686587497036393 0.3182462868100448 -0.56037370921643348 -1.8968653616487881 0.083151422183614196 -1.2065569433974195 -1.6723779208044254 0.23639724467286216 -0.80073823943047329 0.43070271933748777 0.29882866305818401 -0.97656386277900598 -0.47374011808255373 0.40502010295454299 0.97259349048919186 -0.53515876620423353 -0.082137827561999097 -0.13259495071495273 -0.29104600413176585 -0.7443066368257214 1.083903509341597 0.15072781848695649 -0.59248696094852382 0.10695163803756232 -0.35721711477368118 1.0947739006908799 -1.8591349343528243 -1.8969585823323023 2.0821491257721272 -1.3110494580316474
decision_type=2 2 2 2 2 2 2 2 2 2 2 2 2 2 2 2 2 2 2 2 2 2 2 2 2 2 2 2 2 2
left_child=1 2 12 -4 5 -5 21 8 9 -3 -11 -10 13 15 -15 -1 17 -14 -6 -8 -13 27 23 25 -24 -9 -18 -2 -21 -25
right_child=6 7 3 4 18 -7 19 22 11 10 -12 20 16 14 -16 -17 26 -19 -20 28 -22 -23 24 29 -26 -27 -28 -29 -30 -31
leaf_value=0.020652336649310769 -0.0045569523831010999 0.024333349840692534 0.023099303336441519 -0.0096431112942565941 -0.0042946036543395237 -0.00055657497452775233 0.006183628460612464 0.023047690783705485 -0.0050405079244120465 -0.013018464871896524 0.028621830237814439 0.0024980207697466021 4.3524811935701383e-05 -0.0069145896680133552 0.0091846757456843821 0.0026683201160164981 0.019479025150427508 -0.0088429368479410186 -0.00068566987456321338 0.0023396090379277901 0.010762216999594593 -0.01155813868756889 0.017433446548013057 0.015986112521294459 0.0059294112457630955 0.0055107566831326194 0.0026671100039882614 0.0028081006343795016 0.0055341466564858451 -0.0028961150903196228
leaf_count=899 990 81 125 1552 21052 24488 5566 143 1279 917 52 4132 9807 1685 926 924 105 2516 5355 13849 681 324 464 81 1130 1012 6114 1073 3395 923
internal_value=0 -0.00929683 -0.0139479 -0.0227859 -0.0233907 -0.0109814 0.0318945 0.0229548 0.00381614 -0.0807485 -0.107839 0.0183915 0.00627434 0.0403381 -0.0120493 0.11537 -0.00187141 -0.0177083 -0.0356276 0.0375308 0.0366734 -0.0219653 0.059376 0.0347127 0.0927814 0.07682 0.0295096 -0.00726268 0.0296855 -0.0137275
internal_count=111640 86443 75548 52572 52447 26040 25197 10895 7142 1050 969 6092 22976 4434 2611 1823 18542 12323 26407 22810 4813 2387 3753 2159 1594 1155 6219 2063 17244 1004
shrinkage=0.1


Tree=29
num_leaves=31
num_cat=0
split_feature=0 3 3 4 4 0 0 3 3 0 0 3 1 0 0 2 3 3 3 2 2 4 1 0 0 0 3 3 0 3
split_gain=27.0817 14.4122 32.9528 10.1693 10.2551 21.6339 9.17597 8.35865 17.9654 15.9959 7.82548 7.32969 7.32117 6.91932 12.3561 9.65855 6.28428 5.99416 10.8262 5.64198 6.38941 4.54357 8.18876 4.99669 6.76796 4.3664 5.60367 13.5791 4.16949 3.48358
threshold=-0.36301068040035039 0.28924028369866001 0.17427161897747931 -0.79728528875172944 0.67046863769960707 -0.61478531612924481 -0.97489118455555335 -1.2065569433974195 -1.321551572312835 -0.24671509454245857 -0.37110055473731884 -0.17082738340479617 -0.44437158447013175 -0.31602537923378732 -0.15372069747007575 1.0141436597568703 -1.321551572312835 0.97259349048919186 0.74958029678261962 2.6054373286726831 1.0934675614610156 -0.94329802997588363 -0.10774166051874463 -0.095361106029019774 -0.27379620746813654 -0.082137827561999097 0.28947602329507816 0.40433612855805184 0.93358680720830356 2.360558321927622
decision_type=2 2 2 2 2 2 2 2 2 2 2 2 2 2 2 2 2 2 2 2 2 2 2 2 2 2 2 2 2 2
left_child=3 2 7 10 16 6 -6 8 9 -2 11 -1 -8 15 -15 -9 -5 18 -13 20 -18 22 23 24 -3 26 -23 -28 29 -27
right_child=1 21 -4 4 5 -7 12 13 -10 -11 -12 17 -14 14 -16 -17 19 -19 -20 -21 -22 25 -24 -25 -26 28 27 -29 -30 -31
leaf_value=0.015207645783599287 0.022934606674825775 0.019159670804034579 -0.031205131792105163 0.013882183270071603 0.0084332690987378219 0.01624343220815776 0.017272411037671877 0.00086017234968982731 -0.01954588763641589 -0.0012813009425361507 -0.0117584732869132 0.0040974990004526814 -0.0052121135653986229 0.0070398443182998751 0.001146737041980903 -0.014906584292351439 -0.002196767216938734 0.013167780728950416 -0.015918927464545481 0.035576415300452843 -0.0073980420224372305 0.019760561612564575 0.0066222097181285779 0.0045532138839790327 -0.017935963209445582 0.0017701995547946044 -0.031235753332680846 0.0072993332839001975 0.0062223601666076128 0.01414137021232238
leaf_count=619 280 55 325 237 792 930 154 1153 528 10573 286 1380 2428 4204 23150 586 44236 448 336 39 2495 337 653 201 465 7245 94 3364 3812 235
internal_value=0 0.0151783 0.005101 -0.0159821 -0.0193265 0.0273942 -0.00982783 0.00764769 -0.0153288 -0.00656547 0.0399334 0.056121 -0.0387105 0.016636 0.0205244 -0.0445283 -0.0236043 0.0286735 0.00178199 -0.0244274 -0.0247447 0.040155 -0.0148977 -0.0883668 -0.140124 0.0451687 0.0745141 0.0625182 0.0353064 0.0215887
internal_count=111640 57260 40799 54380 51311 4304 3374 40474 11381 10853 3069 2783 2582 29093 27354 1739 47007 2164 1716 46770 46731 16461 1374 721 520 15087 3795 3458 11292 7480
shrinkage=0.1


Tree=30
num_leaves=31
num_cat=0
split_feature=0 2 3 3 3 0 3 3 4 4 1 3 0 3 0 1 0 0 0 0 0 0 3 3 0 0 1 3 0 3
split_gain=23.9431 10.0701 8.89164 37.2145 24.6254 17.3914 16.7294 12.6656 12.0516 8.00482 5.57226 5.10772 4.48866 3.81983 3.40641 3.21809 6.22739 3.18324 2.31678 2.25486 2.20988 2.02114 2.00612 2.4546 2.97034 1.4764 1.462 1.36097 3.32154 1.82213
threshold=0.46103417482229853 -1.2397608316725983 0.51940035852604827 0.51941818300372367 0.6344227612890504 -0.37110055473731884 0.63447029392088172 0.43600720702260215 -1.043119234033772 0.90178327804665492 -0.62954610204498751 -1.7820222350012072 -0.12261984918252035 1.083903509341597 2.0012386879344608 -0.27323263532420122 -0.62966891106208689 -0.2827265381638065 -0.42085043333474809 -0.4133142199285621 -0.13259495071495273 -0.086814721505963269 -1.8968653616487881 -1.8969585823323023 0.72916486932827462 2.8041737694444753 0.71454354657027463 0.63447029392088172 -0.36301068040035039 1.083903509341597
decision_type=2 2 2 2 2 2 2 2 2 2 2 2 2 2 2 2 2 2 2 2 2 2 2 2 2 2 2 2 2 2
left_child=1 10 7 5 18 -4 -6 8 12 -10 20 22 -3 14 -13 16 -12 26 -5 -18 -1 -7 23 25 -25 -2 -9 28 -17 -29
right_child=11 2 3 4 6 21 -8 17 9 -11 15 13 -14 -15 -16 27 19 -19 -20 -21 -22 -23 -24 24 -26 -27 -28 29 -30 -31
leaf_value=0.025871906618288323 -0.005704444643600759 0.019719486314554138 0.03387160665321013 -0.014056101674573128 0.012934039021411213 0.015053150966350463 -0.00012044927932338345 -0.012962398516095203 -0.0016959436225645512 0.0041619387323781568 -0.011333231049441341 0.0020546539687454654 0.0033063277297347019 0.0076302730739401907 0.0050221286230669616 0.022678331077819872 0.02926691612294896 -0.02895135225744935 -0.028202841025503245 0.004767841830711942 0.0087591557091367123 0.0042260854805580778 -0.011722708596002072 0.026779684937355344 0.0017549888429423466 0.0056747314422583919 -0.0022642504730367961 -0.0032852257223566998 0.0052056716866982619 0.0065911053497620248
leaf_count=168 799 355 444 778 1047 292 15730 667 61976 2424 345 15949 314 1755 5107 155 44 111 136 257 137 421 218 56 310 133 158 250 365 739
internal_value=0 -0.0077301 -0.00955867 0.00959769 -0.00176585 0.183351 0.0069424 -0.0150289 -0.0133674 -0.0147545 0.0553428 0.0277444 0.120159 0.0314799 0.027744 0.0374378 -0.0216236 -0.130526 -0.161611 0.083491 0.181852 0.0866017 -0.0284628 -0.0135547 0.055839 -0.0408059 -0.109135 0.0627219 0.104139 0.0409456
internal_count=111640 87313 84853 18848 17691 1157 16777 66005 65069 64400 2460 24327 669 22811 21056 2155 646 936 914 301 305 713 1516 1298 366 932 825 1509 520 989
shrinkage=0.1


Tree=31
num_leaves=31
num_cat=0
split_feature=0 3 3 3 3 1 0 4 3 1 2 1 2 3 3 0 4 2 3 3 0 3 0 1 2 0 0 4 3 2
split_gain=19.4561 9.38787 13.2475 10.1722 14.5269 9.03705 5.61373 5.44023 4.62228 3.82049 3.55905 5.2168 3.19051 2.93477 2.89887 6.54428 2.62277 2.42203 1.87278 2.36715 1.69952 1.57394 1.63186 1.52037 1.35284 1.45087 1.31132 1.18129 1.15796 0.924809
threshold=0.42686587497036393 1.6699167719146226 1.5553690981997497 1.5547994771060054 1.4399678216081317 0.68563892963188133 -0.40347347369186443 1.833226786120022 -1.6723779208044254 1.0000000180025095e-35 0.47685757097720166 0.57804611597975908 -0.42377951607951875 -1.7817281391720845 -1.7820222350012072 0.72916486932827462 0.17489558230233082 -0.41284897069716525 -1.8968653616487881 -1.8969585823323023 2.6404681788191149 1.3245680772667663 1.3683772836864998 -1.4740563384741014 0.27063030672259297 -0.29976474540022485 0.6849814923312586 -0.76206457718516851 -1.4368179419072211 -0.41284897069716525
decision_type=2 2 2 2 2 2 2 2 2 2 2 2 2 2 2 2 2 2 2 2 2 2 2 2 2 2 2 2 2 2
left_child=1 2 3 4 5 -1 17 9 13 24 16 -12 21 14 18 27 -11 -5 19 -2 23 22 -10 26 -3 -26 -14 -16 -25 -6
right_child=8 7 -4 6 29 -7 -8 -9 12 10 11 -13 20 -15 15 -17 -18 -19 -20 -21 -22 -23 -24 28 25 -27 -28 -29 -30 -31
leaf_value=-8.2751597033963332e-05 -0.003704872470925612 0.0099761918203891825 -0.024970788427315427 0.016202077976635938 -0.039274469081391677 -0.002262467873902716 0.0041822492414447026 0.010305313204494506 0.0026768839035994788 0.0058955228995755463 0.023211710288056308 -0.0088315180193524086 0.0047238954463072365 -0.012531672169764838 0.011039306339807809 0.00069045266883857148 -0.00052118887264753291 0.038401417584812386 -0.010424618445822105 0.0056183733460374793 0.0051561301662724907 0.0090871635920043593 0.0055381352367661826 0.0060212869775597942 0.040140907748325454 0.0077123052525249402 -0.0058940591607003628 0.036844757278723751 0.0016005854236847859 -0.023416021840988534
leaf_count=50803 1009 139 229 103 47 30404 248 996 4289 1270 56 548 155 228 24 424 1278 94 261 373 1486 660 3724 625 37 22 466 68 11405 169
internal_value=0 -0.00712733 -0.00952506 -0.00885322 -0.00967728 -0.0089884 0.141927 0.0381663 0.0244516 0.0188746 0.0104106 -0.0586062 0.0288331 -0.0174171 -0.00602246 0.0593632 0.0267709 0.267947 -0.0265574 -0.0118854 0.0195696 0.0439325 0.0400664 0.0158118 0.153615 0.280489 -0.0324385 0.301129 0.0183026 -0.268667
internal_count=111640 86443 82097 81868 81423 81207 445 4346 25197 3350 3152 604 22810 2387 2159 516 2548 197 1643 1382 14137 8673 8013 12651 198 59 621 92 12030 216
shrinkage=0.1


Tree=32
num_leaves=31
num_cat=0
split_feature=0 2 3 3 3 3 0 3 4 4 1 3 0 2 0 1 0 3 3 0 0 0 0 0 0 0 1 3 1 0
split_gain=15.7594 7.73661 6.43232 30.4568 19.8357 14.2117 13.9271 10.3351 9.59173 6.28991 4.59206 3.74405 3.62377 2.67323 2.5917 2.47978 4.12413 2.37716 2.34809 5.30352 2.13053 1.87659 1.75346 1.69118 1.65734 1.58336 1.3616 1.32266 1.23844 1.20768
threshold=0.42686587497036393 -1.2397608316725983 0.51940035852604827 0.51941818300372367 0.6344227612890504 0.63447029392088172 -0.37110055473731884 0.43600720702260215 -1.043119234033772 0.7519644250549804 -0.62954610204498751 -1.6723779208044254 -0.12261984918252035 -0.7443066368257214 -0.2827265381638065 -0.34259761378555248 -0.62966891106208689 -1.7817281391720845 -1.7820222350012072 0.75660708752017725 -0.4948671719365898 -0.42085043333474809 -0.13259495071495273 2.2694466065690579 -0.086814721505963269 2.9924350435010543 -1.4740563384741014 0.40433612855805184 0.71454354657027463 -0.80073823943047329
decision_type=2 2 2 2 2 2 2 2 2 2 2 2 2 2 2 2 2 2 2 2 2 2 2 2 2 2 2 2 2 2
left_child=1 10 7 6 21 -6 -4 8 12 -10 22 17 -3 27 28 16 -12 18 25 -20 -18 -5 -1 26 -8 -2 -15 -13 -9 -17
right_child=11 2 3 4 5 -7 24 14 9 -11 15 13 -14 23 -16 29 20 -19 19 -21 -22 -23 -24 -25 -26 -27 -28 -29 -30 -31
leaf_value=0.023292991228490361 -0.0035293827425594117 0.017758882700360683 0.030518740329782371 -0.012642216326664072 0.01201260021349683 -0.00015438358450323405 0.013573280113792264 -0.011657883456979379 -0.001453337522337457 0.0034247754450886267 -0.01080225624617908 0.0032579414315225758 0.0028300319500170496 -0.0031684758807832441 -0.02604794201550183 0.012224246296100319 0.033452895228509548 -0.011278505074350458 0.026548066789594787 0.00049573928623431135 0.0036349312077315213 -0.025374281713191199 0.0078584546309483482 0.0042335175155603687 0.003674500210463204 0.0060692119126160371 0.0017446255720907407 0.0064129670197340663 -0.0018115787142062489 0.0041691432807612573
leaf_count=168 1448 355 444 778 1023 15594 292 667 60995 2763 285 3374 300 588 111 215 27 228 96 420 213 136 131 2791 402 195 13865 2192 158 1386
internal_value=0 -0.0064146 -0.00802184 0.00834847 -0.00194234 0.00594658 0.166879 -0.0126985 -0.0111826 -0.0124194 0.0492707 0.0220065 0.109212 0.0259498 -0.117023 0.0329514 -0.026689 -0.0156754 -0.00542022 0.0534268 0.0698945 -0.145367 0.165307 0.0197993 0.078394 -0.0239017 0.0154474 0.0450045 -0.0977217 0.0525087
internal_count=111640 86443 84018 18669 17531 16617 1138 65349 64413 63758 2425 25197 655 22810 936 2126 525 2387 2159 516 240 914 299 17244 694 1643 14453 5566 825 1601
shrinkage=0.1


Tree=33
num_leaves=31
num_cat=0
split_feature=0 3 3 0 3 3 3 0 1 4 4 0 3 0 1 3 0 2 3 3 3 0 4 1 0 0 1 3 1 0
split_gain=13.5633 10.0212 17.2948 8.13906 16.7826 13.5589 14.1026 8.35587 9.33846 10.3256 6.71245 8.95518 14.9022 7.34153 7.07572 6.87895 9.03297 5.56317 5.31785 20.5519 8.05176 7.26829 7.55895 4.52768 4.22864 2.86634 3.41193 2.58154 2.56002 2.55924
threshold=-0.36301068040035039 -0.51617156344653858 -0.6311395863987902 -0.13259495071495273 -0.5161056919336412 -0.40111716828336663 -0.40103285908122882 0.08206474662314138 -0.14530593595339658 -0.18837463675843538 -0.93436066597025247 -0.37110055473731884 0.63447029392088172 -0.60388381523871437 -1.3191588060468262 2.245580724185408 -1.1039452310566682 2.4509100484503716 -0.64068905274793131 -0.74626795409991975 -0.74630455365727699 -0.086814721505963269 -0.064009890343300027 0.29507399429647585 -0.086814721505963269 -0.40841811440257231 0.51038423253684151 2.0163270605992891 0.73723916141182388 1.6088503932871017
decision_type=2 2 2 2 2 2 2 2 2 2 2 2 2 2 2 2 2 2 2 2 2 2 2 2 2 2 2 2 2 2
left_child=10 2 18 4 -3 -6 -7 8 9 -5 11 12 25 23 -12 16 -16 -18 19 20 -2 22 -20 -14 -10 -1 -27 29 -17 -9
right_child=1 3 -4 7 5 6 -8 27 24 -11 14 -13 13 -15 15 28 17 -19 21 -21 -22 -23 -24 -25 -26 26 -28 -29 -30 -31
leaf_value=0.024596079808147188 -0.00064436713074574341 0.029984255716397346 -0.02175715620915095 -0.0078512197893021423 -0.02256620825151277 0.029084862873770614 0.0041349466516034739 0.0016673556223337678 0.010645216561156232 0.0051427479081540446 0.014523557645684686 -0.014473303294213549 -0.017183243482179065 0.013540619470544232 0.018954164417626714 0.012056129212803281 -0.0017316916306166366 0.020383753678802269 0.027465947634459194 -0.019826973225507472 0.0064432547621984448 0.0017483100487066076 -0.00043339590435918378 0.014498021986542476 0.00067144684631643048 0.019419567758779763 -0.011276194859634747 0.010921315004199178 0.0027729242343934725 0.0045498882811658321
leaf_count=426 20064 264 375 2845 183 235 6299 15418 557 779 281 182 274 172 213 382 50785 114 252 540 1742 1556 158 54 1795 106 55 349 1336 3849
internal_value=0 0.0107415 -0.00445442 0.0222585 0.0525243 0.0428039 0.0503229 0.0140026 -0.0187348 -0.0505809 -0.0113104 0.0605654 0.0949391 -0.0319266 -0.0130278 -0.0138696 -0.0159616 -0.0168216 -0.0011672 -0.00555401 -0.000781635 0.0486944 0.167145 -0.119674 0.0303343 0.203002 0.0893344 0.023976 0.0483706 0.022432
internal_count=111640 57260 24687 32573 6981 6717 6534 25592 5976 3624 54380 1269 1087 500 53111 52830 51112 50899 24312 22346 21806 1966 410 328 2352 587 161 19616 1718 19267
shrinkage=0.1


Tree=34
num_leaves=31
num_cat=0
split_feature=0 3 0 4 3 3 3 3 3 0 3 3 1 4 3 3 0 1 2 2 0 4 1 0 3 1 2 3 0 3
split_gain=11.0087 12.6113 15.2562 15.7241 11.9714 26.9219 9.83232 7.09964 28.667 10.4036 8.00148 6.73007 7.73058 6.0304 13.4728 6.06868 5.67951 8.30991 4.51607 4.28774 9.39912 3.87605 5.29635 4.6016 3.55221 3.35481 2.98796 2.62293 2.55685 2.52498
threshold=-0.39200676180657773 -0.40103285908122882 -0.52763726900333074 -0.65557071537254519 0.05836416558908724 -0.055868195750237298 -0.40111716828336663 -0.069578494419719597 -0.17082738340479617 -0.10073286351573672 -0.18838488585358429 -0.33194456939697298 -1.2384383586026904 -0.93436066597025247 0.63447029392088172 2.245580724185408 -0.33297045530790009 0.26583967615767395 -0.49590005237051898 2.1486172452646266 -0.2827265381638065 -0.93436066597025247 -0.89831864209618695 -0.082137827561999097 0.166778510279605 0.74848089979726573 1.641098294745523 0.12343175306561163 -0.071351573229900114 0.97259349048919186
decision_type=2 2 2 2 2 2 2 2 2 2 2 2 2 2 2 2 2 2 2 2 2 2 2 2 2 2 2 2 2 2
left_child=1 2 -1 -4 5 7 18 8 10 -9 -2 -3 -13 14 -14 -15 17 26 -5 21 -21 22 -18 -23 27 -7 29 -19 -22 -6
right_child=4 11 3 6 16 25 -8 9 -10 -11 -12 12 13 15 -16 -17 19 24 -20 20 28 23 -24 -25 -26 -27 -28 -29 -30 -31
leaf_value=0.016854671545781789 -0.00032465709533700425 -0.019300558588334495 0.02107154133634552 0.012878000309491265 0.020860755065521569 -0.030646160838185433 0.039024778521033351 0.020615584718044422 -0.02880566651350483 0.0022943911737630792 0.0057692116169153337 0.023182990856003019 0.023041237742862028 -0.0017819249385440474 -0.003412747409450289 0.004320297428857066 -0.016110858752806153 -0.0070647156437056782 -0.0058760034610337072 -0.022550956082077477 0.023561774942685257 0.0059748689831502213 0.00022052685277991433 0.0021657903454221513 0.0045907197691236468 -0.0070131605818263588 -0.0040981443119900568 -0.044262785532257778 0.00016604192729573696 0.0072624117564358522
leaf_count=825 32437 210 322 140 556 319 54 391 347 1495 2308 128 321 46450 481 1689 225 137 1550 218 55 4107 1691 13924 603 74 70 22 310 181
internal_value=0 -0.0106022 0.053589 0.00768388 0.00930079 -0.00160965 -0.0298025 0.00115736 -0.00205492 0.0609269 0.000801392 -0.0143681 -0.0136036 -0.0142455 0.0717544 -0.0156782 0.0277511 0.085741 -0.0432242 0.0233193 -0.0612133 0.02579 -0.016973 0.030334 0.0108472 -0.261962 0.156459 -0.122116 0.0369143 0.175211
internal_count=111640 52170 2891 2066 59470 37371 1744 36978 35092 1886 34745 49279 49069 48941 802 48139 22099 1569 1690 20530 583 19947 1916 18031 762 393 807 159 365 737
shrinkage=0.1


Tree=35
num_leaves=31
num_cat=0
split_feature=0 3 3 3 3 3 0 4 1 0 0 2 3 0 2 3 0 2 3 3 3 4 0 4 0 2 1 0 2 2
split_gain=9.80827 5.36628 10.5479 7.43287 11.5841 6.92951 5.10264 4.11028 3.35891 3.13259 11.3158 5.10642 2.69364 2.50921 1.97994 1.88419 1.42068 1.49624 1.2505 2.68184 1.46787 1.03009 1.01381 0.844226 1.20552 0.777745 0.763901 1.13519 0.749095 0.738514
threshold=0.46103417482229853 1.6699167719146226 1.5553690981997497 1.5547994771060054 1.4399678216081317 1.439692322520397 -0.40347347369186443 2.2902514324812047 1.0000000180025095e-35 -0.73452277543607047 -0.50658759306959789 -0.12005323650480031 0.97259349048919186 2.0821491257721272 -0.41284897069716525 -2.075814108356878 -0.40020679934425257 0.25643905013712026 0.6344227612890504 0.51940035852604827 0.7495169948297703 4.0771125090442615 1.0614932911875994 -0.2135975878651252 1.2058399067961589 2.4509100484503716 0.72634434694875216 -0.095361106029019774 -0.41284897069716525 -0.36557885263299722
decision_type=2 2 2 2 2 2 2 2 2 2 2 2 2 2 2 2 2 2 2 2 2 2 2 2 2 2 2 2 2 2
left_child=1 2 3 4 5 -1 14 8 16 11 -11 -10 13 15 -5 23 17 -3 19 -17 -20 22 -14 24 -2 -15 -9 -28 -6 -4
right_child=12 7 29 6 28 -7 -8 26 9 10 -12 -13 21 25 -16 18 -18 -19 20 -21 -22 -23 -24 -25 -26 -27 27 -29 -30 -31
