tree
version=v2
num_class=1
num_tree_per_iteration=1
label_index=0
max_feature_idx=4
objective=regression
feature_names=M_h C_h S_h z_h Delta3_h
feature_infos=[-2.2772319465407871:4.1737995693953147] [-5.7693617463133986:39.382147936495507] [-1.886235201986497:45.889250782993095] [-2.1242298292874966:8.9025149268176502] [-1.2229725237143623:15.158614773845386]
tree_sizes=2490 2560 2570 2578 2572 2572 2579 2580 2585 2576 2582 2585 2581 2577 2593 2591 2592 2592 2605 2590 2602 2606 2604 2616 2611 2619 2607 2623 2619 2620 2630 2635 2642 2644 2641 2654 2646 2634 2634 2663 2652 2671 2677 2670 2688 2640 2659 2660 2640 2659 2667 2666 2644 2636 2682 2653 2648 2658 2690 2657 2675 2656 2675 2693 2657 2646 2644 2706 2665 2654 2673 2639 2646 2690 2391 2637 2158 2648 2640 2706 2644 2307 2653 2318 2686 2652 2644 2624 2666 2686 2469 2662 2699 2660 2618 2629 2307 2669 2676 2645 2619 2629 2685 2652 2655 2650 2646 2231 2693 2409 2689 2635 2650 2630 2662 2628 2641 2647 2659 2641 2679 2654 1718 2419 2665 2633 2239 1806 2404 2678 2655 2642 2643 2651 2652 2640 2644 2665 2691 2671 2672 2676 2690 2646 2639 2643 2641 2658 2663 2692 2664 2683 2693 2680 2657 2664 2564 2683 2651 2690 2631 2621 2626 2660 2689 2656 1817 2607 2643 2659 2666 2659 2677 2715 2690 2637 2317 2632 2648 2643 2682 2504 2648 2633 2662 2638 2650 2571 1909 2630 2708 2644 2697 2690 2677 2711 2686 2613 2671 2637 2658 2681 2686 2663 2665 2685 2633 2657 2696 2647 2144 2427 2686 2673 2681 2683 2692 2635 2639 2683 2704 2689 2682 2660 2703 2693 1873 2690 2669 2673 2678 2652 2627 2652 2650 2684 2682 2665 2639 2698 2416 2656 2675 2650 2673 2493 2633 2688 2656 2650 2667 2663 2145 2656 2673 2677 2672 2399 2403 2665 2666 2676 2636

Tree=0
num_leaves=31
num_cat=0
split_feature=0 0 0 0 0 0 0 0 0 1 1 0 1 0 0 0 1 0 1 0 0 1 1 1 0 3 0 1 0 1
split_gain=36973 2847.03 2568.76 822.499 520.15 310.458 285.978 245.535 85.4772 83.9133 73.3304 71.3468 63.9049 54.0569 44.765 37.0479 34.3073 31.2777 29.1601 26.0509 23.707 20.8435 19.721 19.6306 16.5578 16.4011 15.9706 15.4196 14.4372 13.9737
threshold=-0.41954725088684769 1.0205970345457316 -0.97792529868154343 -0.033178305126518107 1.8133846750873588 -1.1917780245072744 -0.74448300642654941 0.49026163945657791 2.4469403816592266 -0.021607105930749538 0.13830084490992747 1.3991793056306616 0.54984506511386155 -0.21025171201474116 0.73443566354034162 0.23516222436145476 0.88863200695912914 -0.59351689323995926 -0.20753426067527056 -1.3317749394828595 -1.370899715967431 -0.54996425295798723 -0.98405525762083912 -0.17816485235509608 2.8772219967025356 1.4397597396193038 -0.87272525093717812 2.0034438142849749 -1.0817947300237754 -0.39557694950608585
decision_type=2 2 2 2 2 2 2 2 2 2 2 2 2 2 2 2 2 2 2 2 2 2 2 2 2 2 2 2 2 2
left_child=2 3 5 13 11 16 10 15 -6 22 21 -3 23 18 -9 -5 19 -11 -2 -1 27 -4 -8 -7 -10 -14 -12 -18 -25 -15
right_child=1 4 6 7 8 12 9 14 24 17 26 -13 25 29 -16 -17 20 -19 -20 -21 -22 -23 -24 28 -26 -27 -28 -29 -30 -31
leaf_value=10.100983595946387 10.203050027165263 10.311997943576042 10.137287691577841 10.267895951430427 10.357581489357333 10.121722849223755 10.154724532057404 10.285626039472433 10.384870475449816 10.197425803951232 10.168758874796833 10.331689426321775 10.146313680048308 10.221251196922958 10.297134331384708 10.276959715106099 10.107571241108923 10.215386737492603 10.231388457418905 10.112699511026602 10.129544303848194 10.158582283471333 10.184335592183054 10.129156980493443 10.41369166495701 10.165506864831912 10.182745024240416 10.125993425574741 10.14389687306503 10.250684569170996
leaf_count=3767 432 4784 661 8102 2093 1565 273 7774 598 1889 1619 2990 1805 176 5980 10171 1657 1992 2277 3825 1299 1509 1277 1471 299 591 1647 626 1212 1931
internal_value=0 0.540375 -0.896832 0.408193 0.992805 -1.13053 -0.513646 0.466133 1.34726 -0.351349 -0.675794 0.856475 -0.959349 0.0228881 0.567056 0.390169 -1.23232 -0.272795 -0.070547 -1.27038 -1.15165 -0.818283 -0.548038 -1.033 1.60553 -0.828762 -0.581122 -1.21301 -0.981086 0.143019
internal_count=76292 47607 28685 36843 10764 17818 10867 32027 2990 5431 5436 7774 6644 4816 13754 18273 11174 3881 2709 7592 3582 2170 1550 4248 897 2396 3266 2283 2683 2107
shrinkage=1


Tree=1
num_leaves=31
num_cat=0
split_feature=0 0 0 0 0 0 0 0 0 1 1 0 1 0 0 1 0 0 0 1 1 1 3 3 1 0 1 0 0 0
split_gain=29952.6 2355.01 1983.87 719.231 464.695 245.639 214.568 177.74 79.1354 68.7467 61.9822 60.2641 47.1619 40.7471 34.0279 28.8087 32.3225 26.8248 26.6679 21.066 19.0393 18.0007 16.5219 15.6587 14.7508 14.7506 13.6323 13.4119 13.063 12.9914
threshold=-0.44263236895886843 0.97101915289673435 -1.0000141354434799 -0.053461873486501339 1.7550984516463723 -0.76006663998712998 -1.1917780245072744 0.49026163945657791 2.4469403816592266 -0.12295180037723706 0.27716647532077759 1.3328037165763191 0.35438841694968154 -0.2872839947546863 0.19764073795513326 1.6758386865234318 -1.3036362551616236 -0.59351689323995926 0.72373598720591048 -0.56009803760639465 -0.4388626282982972 -0.52063549763417294 1.4397597396193038 1.4397597396193038 -1.1458173947977972 -1.5119710812311908 -0.62248101911021381 2.8772219967025356 2.0433014063863819 -0.85837176720048736
decision_type=2 2 2 2 2 2 2 2 2 2 2 2 2 2 2 2 2 2 2 2 2 2 2 2 2 2 2 2 2 2
left_child=2 3 6 13 11 10 15 14 28 24 19 -3 -8 20 26 16 -1 -11 -9 -4 -2 -15 -18 -14 -7 -17 -5 -10 -6 -21
right_child=1 4 5 7 8 9 12 18 27 17 -12 -13 23 21 -16 25 22 -19 -20 29 -22 -23 -24 -25 -26 -27 -28 -29 -30 -31
leaf_value=-0.11697733056670562 -0.037786111154930732 0.067981803815019615 -0.088896685946056417 0.004795171842646156 0.1022792003027173 -0.078382171960357516 -0.09593383198908742 0.046341748525852648 0.13585175272812414 -0.034255281688836937 -0.053024497760608552 0.085353891818347266 -0.081899601406460992 -0.021734380575071557 0.03820300479833183 -0.10416901336914866 -0.10760469846372769 -0.017992345134893999 0.0555735520223022 -0.074745764260471831 -0.0074182990845316089 0.010031223964133668 -0.086448756608986044 -0.063351226416030471 -0.048683938953388288 -0.079786027028706588 0.030150183611899257 0.16179083191032795 0.1170590864376081 -0.058234393588680634
leaf_count=6279 232 5083 694 219 1196 196 3166 7475 598 2248 2983 3289 2307 192 11671 685 3407 1848 5382 1313 1875 2517 414 567 1140 389 6684 299 1196 748
internal_value=0 0.482292 -0.814038 0.356538 0.873187 -0.485842 -1.027 0.411677 1.19168 -0.333428 -0.630127 0.748066 -0.875147 -0.00332246 0.349112 -1.10909 -1.12564 -0.269179 0.502062 -0.738275 -0.107621 0.0777984 -1.05312 -0.782403 -0.530409 -0.953376 0.293458 1.44498 1.09669 -0.687533
internal_count=76292 47908 28384 36247 11661 11170 17214 31431 3289 5432 5738 8372 6040 4816 18574 11174 10100 4096 12857 2755 2107 2709 3821 2874 1336 1074 6903 897 2392 2061
shrinkage=0.1


Tree=2
num_leaves=31
num_cat=0
split_feature=0 0 0 0 0 0 0 0 1 0 0 0 1 1 0 0 3 3 0 1 0 3 1 1 1 3 0 3 0 0
split_gain=24267.6 1841.39 1773.93 486.88 330.565 236.549 181.521 155.773 58.178 52.2177 52.1699 49.9162 48.5977 43.6497 31.4813 30.3534 24.7887 21.1607 20.7819 19.62 18.7729 18.6742 15.1229 14.9779 11.1859 11.1536 10.5017 10.4923 9.95502 9.54981
threshold=-0.39957765792548716 1.0412589900762195 -0.95666377555178383 0.014277568472814677 1.8905769520076927 -1.1649492863285325 -0.68034068864614838 0.56411008195816292 0.082318110189052454 1.4628467129284224 -0.15501289156419815 2.6325619666086619 0.66665011238302163 0.18718849169587468 -1.2779397121412996 0.3030742790578867 2.4451853220450821 1.4397597396193038 0.82459977129016016 -0.2875723078493832 -0.81843162635220235 -0.11944410249592326 -0.66900357939280108 -0.87898794264080948 -0.10954957700078503 1.2980695846028694 2.2245043017789476 1.6640416541989163 -1.5119710812311908 -0.53868883664463341
decision_type=2 2 2 2 2 2 2 2 2 2 2 2 2 2 2 2 2 2 2 2 2 2 2 2 2 2 2 2 2 2
left_child=2 3 5 10 9 14 8 15 23 -3 19 26 21 22 16 -5 -1 -16 -9 -2 25 -7 -8 -4 -12 -10 -6 -14 -18 -15
right_child=1 4 6 7 11 12 13 18 20 -11 24 -13 27 29 17 -17 28 -19 -20 -21 -22 -23 -24 -25 -26 -27 -28 -29 -30 -31
leaf_value=-0.1045547828838766 -0.024103363233988265 0.064745821574706153 -0.08148664810992394 0.029280540801833024 0.097959483791155169 -0.088376305059735052 -0.054253423590830734 0.044494958848893901 -0.05329108881610746 0.081972998214538823 0.001784514169942 0.13685383656152514 -0.065122359617820286 -0.022200880527192258 -0.094345134282398421 0.037060984398332372 -0.093914612197199251 -0.071729749061880607 0.053360986030614746 0.00023284745097758107 -0.035582531979768899 -0.075285286114319477 -0.031758874763799357 -0.059847915167669831 0.019989320391968428 -0.035032367698751329 0.11227322727142769 -0.045573994739839953 -0.071429174752615773 -0.010542459401139299
leaf_count=7191 379 5083 388 10195 1196 1888 386 7176 1676 2691 406 598 1543 1457 3456 9867 687 470 4186 2631 1736 2577 1324 1822 2001 418 897 334 276 1357
internal_value=0 0.441479 -0.720507 0.336327 0.811657 -0.907842 -0.393822 0.384057 -0.507269 0.707091 0.0594436 1.11374 -0.751451 -0.242359 -0.989948 0.331072 -1.02537 -0.916377 0.477614 -0.0283141 -0.432717 -0.808207 -0.368366 -0.636469 0.169186 -0.496463 1.04094 -0.616439 -0.874702 -0.165788
internal_count=76292 47306 28986 36841 10465 18422 10564 31424 6040 7774 5417 2691 6342 4524 12080 20062 8154 3926 11362 3010 3830 4465 1710 2210 2407 2094 2093 1877 963 2814
shrinkage=0.1


Tree=3
num_leaves=31
num_cat=0
split_feature=0 0 0 0 0 0 0 0 0 1 1 0 3 0 0 1 0 1 1 0 0 4 1 1 1 0 1 0 1 0
split_gain=19663.8 1579.47 1253.72 503.578 337.592 179.586 106.212 105.047 58.5809 48.4968 45.1019 41.9519 34.4346 31.9904 23.2278 21.7495 21.2809 17.6422 17.5269 13.9199 13.7879 12.4813 12.4007 11.9766 11.5238 11.3128 11.2371 11.2064 9.88013 9.53758
threshold=-0.46229808463020078 0.92593757413446809 -1.0323075436573295 -0.053461873486501339 1.7024920417005756 -0.80462921382264929 -1.2258968980983649 0.37999792665748638 2.3323566547610293 0.013956269694231563 0.37853300174182586 1.2803633889420267 0.54881871605043453 -0.2601730354175929 0.65898304054947909 0.88863200695912914 -0.63043288896172422 -0.54996425295798723 0.075292688371107905 2.8772219967025356 0.13969213757936344 0.94768815661506456 0.88863200695912914 -1.1458173947977972 1.0472485165310077 -1.370899715967431 -0.007159085219754187 -1.1293800577142539 -0.36310664618730659 -1.3507732093501919
decision_type=2 2 2 2 2 2 2 2 2 2 2 2 2 2 2 2 2 2 2 2 2 2 2 2 2 2 2 2 2 2
left_child=2 3 6 13 11 10 15 20 -6 23 17 -3 27 18 -9 29 -11 -4 -2 -10 28 25 -14 -7 -12 -17 -15 -8 -5 -1
right_child=1 4 5 7 8 9 12 14 19 16 24 -13 22 26 -16 21 -18 -19 -20 -21 -22 -23 -24 -25 -26 -27 -28 -29 -30 -31
leaf_value=-0.098035574613218407 -0.021234104477428385 0.053292403899656497 -0.076046284406024456 0.005222433516208512 0.08613500311148406 -0.065883588226648374 -0.085893328105550962 0.035381992017809505 0.10701192033995222 -0.030237307681443584 -0.048748441209738563 0.067252043389207539 -0.070668234179786432 -0.0048932288478496823 0.043162327508776875 -0.092707150982336173 -0.01593206381443462 -0.058273399486766811 -0.0034081212025766881 0.13192636613861772 0.028848679567664199 -0.073250272263565439 -0.056273434210149624 -0.040251809310672682 -0.033946877645516384 -0.078964342145474667 0.011168139820683202 -0.074930234206152982 0.023489904373953388 -0.09043384159621301
leaf_count=3309 771 5382 727 317 2392 205 1902 9867 897 2259 1869 3588 1682 571 6279 1645 1927 2410 1938 299 9585 777 929 1646 732 942 1837 1829 4486 3293
internal_value=0 0.387482 -0.665175 0.280054 0.69246 -0.41652 -0.844714 0.328708 0.951702 -0.29612 -0.543194 0.588763 -0.743549 -0.0102689 0.384077 -0.909092 -0.23652 -0.623923 -0.0848152 1.13241 0.266573 -0.843648 -0.655465 -0.430906 -0.445828 -0.87703 0.0735957 -0.80519 0.222842 -0.942439
internal_count=76292 48209 28083 35651 12558 11775 16308 30534 3588 6037 5738 8970 6342 5117 16146 9966 4186 3137 2709 1196 14388 3364 2611 1851 2601 2587 2408 3731 4803 6602
shrinkage=0.1


Tree=4
num_leaves=31
num_cat=0
split_feature=0 0 0 0 0 0 0 0 0 1 1 0 1 1 1 0 0 1 3 3 0 0 0 0 2 0 1 0 4 0
split_gain=15929.5 1304.33 968.263 451.196 265.447 150.675 93.1014 70.3985 47.8277 45.7826 38.3842 31.8964 30.6914 27.3269 21.5616 21.3182 19.7193 18.4385 14.111 13.2089 13.1985 11.5926 10.9904 10.3906 9.79503 9.71814 8.4943 8.36252 8.20686 7.91785
threshold=-0.48190183493746158 0.94116868583781965 -1.0528621784551662 -0.076909119858066297 1.7024920417005756 -0.83187555714289318 0.37261933469606356 -1.2606682140473293 2.4469403816592266 0.45672787802511039 0.1451734771077838 1.3041649588678148 0.21673604209392908 -0.44704911799740754 -0.54996425295798723 0.63778265073075036 -0.2872839947546863 1.8110825147349596 1.2980695846028694 2.3373738252892893 0.095291851272800612 -0.64819509918442286 -0.68034068864614838 -1.1374162226805056 1.0208362713791042 2.0433014063863819 -0.37876402961976097 -1.5119710812311908 5.4883402396318104 -1.4160289333755338
decision_type=2 2 2 2 2 2 2 2 2 2 2 2 2 2 2 2 2 2 2 2 2 2 2 2 2 2 2 2 2 2
left_child=2 3 7 13 11 10 20 17 25 14 24 -3 -9 -2 -7 -8 -15 29 -12 23 26 -16 -11 -14 -4 -6 -5 -19 -10 -1
right_child=1 4 5 6 8 9 15 12 28 22 18 -13 19 16 21 -17 -18 27 -20 -21 -22 -23 -24 -25 -26 -27 -28 -29 -30 -31
leaf_value=-0.08808291053179107 -0.024956048450927665 0.048570712269617809 -0.056587785180992771 0.00029415820298486496 0.073612334166083454 -0.051399623315794285 0.031546854496939412 -0.076934486529862095 0.10235854515113736 -0.025632431240144828 -0.047376820737005998 0.061070464861342239 -0.06875949278744263 -0.0063555720756531516 -0.037486460165374658 0.03875715233102766 0.0067112156607283509 -0.07503575474027574 -0.031628427948887615 -0.033435938623238431 0.025419409010364796 -0.024593703092095111 -0.012975414546069892 -0.05809289842219395 -0.070912030406464308 0.085706120796725904 0.019729140164404718 -0.053213589707655565 0.13344246036127994 -0.081627739360180002
leaf_count=3187 489 5382 1692 241 1495 720 9568 2966 802 1270 2657 3289 2342 2412 1650 7176 2216 620 724 141 10786 1208 1492 1497 665 1196 3363 245 95 4706
internal_value=0 0.345802 -0.603803 0.250447 0.627777 -0.390929 0.295675 -0.767525 0.856532 -0.284672 -0.508334 0.53312 -0.692344 -0.0247432 -0.359334 0.34637 -0.000988734 -0.827152 -0.440045 -0.63496 0.236688 -0.32037 -0.187953 -0.646001 -0.606292 0.789874 0.184295 -0.688549 1.05651 -0.842342
internal_count=76292 48510 27782 36251 12259 12078 31134 15704 3588 6340 5738 8671 6946 5117 3578 16744 4628 8758 3381 3980 14390 2858 2762 3839 2357 2691 3604 865 897 7893
shrinkage=0.1


Tree=5
num_leaves=31
num_cat=0
split_feature=0 0 0 0 0 0 0 0 3 3 0 0 1 0 0 1 3 0 0 1 1 1 1 2 1 2 1 0 1 2
split_gain=12909.8 988.564 956.907 264.325 164.622 136.011 91.4116 88.1444 34.7842 29.7479 28.7897 27.8886 26.7488 24.8676 22.5853 20.5469 16.6745 15.9801 14.2076 11.5242 10.981 10.9639 9.46354 9.4576 8.68752 8.32778 8.01593 7.89552 7.87396 7.6156
threshold=-0.39957765792548716 1.0795898128940584 -0.94462326135375807 0.014277568472814677 1.8905769520076927 -1.1374162226805056 0.5548118902940179 -0.69746316915644835 0.10002006713726637 0.32613323647768394 -0.18226265951510615 2.6325619666086619 0.25468289187126075 1.5033491640026775 -1.2952044052074199 0.87314177045283514 3.0549987682737014 0.27531760549502993 0.78478891732022649 0.11651202129633956 -0.48306862896270225 1.2879277435193675 -0.66900357939280108 0.51116657902080898 0.98059652006704812 0.37987244654707442 0.11023496105499532 -1.5341241966563219 -1.0052261792774517 -0.019685348741251926
decision_type=2 2 2 2 2 2 2 2 2 2 2 2 2 2 2 2 2 2 2 2 2 2 2 2 2 2 2 2 2 2
left_child=2 3 5 10 13 14 17 8 20 25 19 -6 22 -3 16 23 -1 28 -8 -2 -4 29 -9 -16 -10 -7 -12 -18 -5 -11
right_child=1 4 7 6 11 9 18 12 24 21 26 -13 -14 -15 15 -17 27 -19 -20 -21 -22 -23 -24 -25 -26 -27 -28 -29 -30 -31
leaf_value=-0.076667061925540403 -0.01284734102873466 0.048286415704831262 -0.056241234131319609 -0.0088493122799925255 0.076010115492360988 -0.055339664411205795 0.031854818966936448 -0.040263884785277641 -0.032508843842886707 -0.043961323787568056 0.0033565863640451069 0.10049707507808073 -0.011777344525005661 0.060774090051351981 -0.066862620588221525 -0.054724746448240949 -0.066092071426557569 0.02662669690105985 0.038681809528027689 0.0013542299836139639 -0.041367062778330188 -0.029454498737036733 -0.023399030543747576 -0.077130777914975454 -0.019877980991319689 -0.066061992196559546 0.015214152831649931 -0.040319945973254022 0.021210693708758797 -0.055468838378640306
leaf_count=6885 819 4784 689 88 2093 1578 6578 418 2254 1551 816 598 2777 2392 3037 1126 510 10764 5681 1890 1775 356 1631 1273 718 1339 1892 155 8911 914
internal_value=0 0.322 -0.525514 0.247788 0.603588 -0.660025 0.282347 -0.280086 -0.36741 -0.531808 0.0434958 0.814517 -0.181724 0.52449 -0.716678 -0.66753 -0.752065 0.240267 0.350185 -0.0293927 -0.455263 -0.45859 -0.268395 -0.698954 -0.294574 -0.602616 0.116411 -0.60085 0.209167 -0.482282
internal_count=76292 47306 28986 37439 9867 18724 32022 10262 5436 5738 5417 2691 4826 7176 12986 5436 7550 19763 12259 2709 2464 2821 2049 4310 2972 2917 2708 665 8999 2465
shrinkage=0.1


Tree=6
num_leaves=31
num_cat=0
split_feature=0 0 0 0 0 0 0 0 0 1 1 0 1 3 3 1 3 0 0 1 0 0 0 0 2 2 3 3 2 1
split_gain=10465.5 875.136 608.86 308.07 196.948 102.954 55.3008 36.9294 36.6783 32.5222 29.0011 23.5701 19.9491 19.4003 15.6231 15.4416 12.8251 12.2694 10.4307 10.3716 9.85008 9.71744 9.34855 8.22693 7.91494 7.62037 6.70825 6.53119 6.42278 6.15526
threshold=-0.50149456083420596 0.88289907753861885 -1.0728315194564197 -0.10186190834859517 1.6558487224434841 -0.84545718217490651 0.3647289773328542 -1.2433051623345643 2.2245043017789476 0.56978584753614936 -0.10954957700078503 1.2112388144561772 -0.77037343017602822 0.54881871605043453 1.4397597396193038 -0.6015376969662013 1.2980695846028694 -0.31301450700954908 2.8772219967025356 -1.236486987980429 -1.4039079045583873 0.62894134652076727 0.085926222604366748 -0.64819509918442286 0.1983693361420962 -0.029311190797374601 1.5517419598025686 3.5005238089258057 0.68677190330799454 0.4214583415171021
decision_type=2 2 2 2 2 2 2 2 2 2 2 2 2 2 2 2 2 2 2 2 2 2 2 2 2 2 2 2 2 2
left_child=2 3 7 12 11 10 19 14 -6 15 -4 -3 -2 28 -1 -7 24 29 -10 -5 27 -8 -21 -17 -12 -15 -11 -16 -9 -14
right_child=1 4 5 6 8 9 21 13 18 26 16 -13 17 25 20 23 -18 -19 -20 22 -22 -23 -24 -25 -26 -27 -28 -29 -30 -31
leaf_value=-0.069229028477179183 -0.030595726771248555 0.037407502633374466 -0.053479926581447082 -0.015342546062939536 0.06079831706067193 -0.043347045639529826 0.025439690438509278 -0.058614352216993099 0.076588781367376901 -0.016600850264386971 -0.036714674715076813 0.047412563366327098 -0.011732058589378237 -0.045648690701308482 -0.067899563448781161 -0.030557030038722933 -0.026195976844520658 0.0035390833610548914 0.097470944820837846 0.014664700891566951 -0.050910546654627103 0.030502524732174963 0.020569200943489178 -0.020361697415020329 -0.04630813234768244 -0.057433198173935565 -0.00028922854172479777 -0.054158053467111493 -0.068222255618039754 -0.0018957131190195584
leaf_count=6784 252 5382 1669 88 2392 667 9568 2319 1196 2024 2195 4186 1200 1586 1302 2087 762 2311 299 3575 805 6279 10729 1275 1414 839 288 471 994 1354
internal_value=0 0.277906 -0.49361 0.195305 0.494961 -0.329228 0.233703 -0.628392 0.684779 -0.24023 -0.422662 0.417847 -0.0316134 -0.565223 -0.667108 -0.29448 -0.379844 -0.0174028 0.807652 0.188829 -0.60084 0.274457 0.190935 -0.266906 -0.404734 -0.497259 -0.14569 -0.642491 -0.61497 -0.0651733
internal_count=76292 48811 27481 35356 13455 12381 30239 15100 3887 6341 6040 9568 5117 5738 9362 4029 4371 4865 1495 14392 2578 15847 14304 3362 3609 2425 2312 1773 3313 2554
shrinkage=0.1


Tree=7
num_leaves=31
num_cat=0
split_feature=0 0 0 0 0 0 0 0 0 3 3 2 1 4 0 0 3 0 1 0 0 1 1 2 4 3 1 3 1 0
split_gain=8477.08 709.306 494.82 257.058 146.586 56.061 55.9669 46.1419 30.1631 23.0881 21.6618 20.622 19.1371 16.2871 16.1233 14.8013 10.5216 9.12085 9.31512 8.36722 8.02686 7.9948 7.77092 7.50888 7.17945 6.56846 6.30475 5.56239 5.27323 8.23479
threshold=-0.50149456083420596 0.92593757413446809 -1.0111215780347469 -0.053461873486501339 1.6558487224434841 -0.77450908039992672 -1.200463820977322 0.4200404277104352 2.3323566547610293 -0.008029215275597695 0.32613323647768394 0.37987244654707442 -0.57044861467285679 0.58593280238099432 1.2567209427829689 -0.2355354103177015 0.66026507551104341 -1.3507732093501919 0.50330048874127786 0.70099052351557811 0.1563434600739925 -0.87898794264080948 -1.095334038845039 0.037507631289563532 3.7897647121687759 0.48019933239593698 -0.63439590906292564 1.5517419598025686 1.0721671057571589 -1.7154069441858344
decision_type=2 2 2 2 2 2 2 2 2 2 2 2 2 2 2 2 2 2 2 2 2 2 2 2 2 2 2 2 2 2
left_child=2 3 6 12 14 9 13 20 -6 21 22 16 -2 17 -3 25 -8 -1 -19 -9 26 -4 -7 -11 -10 -14 -5 -12 -15 -30
right_child=1 4 5 7 8 10 11 19 24 23 27 -13 15 28 -16 -17 -18 18 -20 -21 -22 -23 -24 -25 -26 -27 -28 -29 29 -31
leaf_value=-0.064329331897632888 -0.021601791007275606 0.034636862295905665 -0.056459522505075889 -0.0049212583734384091 0.055757375851699924 -0.045548996895344723 -0.047658120661853043 0.023866628909753336 0.07055012870030325 -0.0253997275464681 -0.013792584620224778 -0.055650514841603875 -0.0072421745306523143 -0.055788953548519697 0.043392240730921017 0.0069740486801538847 -0.037366702451077656 -0.061762261561527157 -0.052605306693282297 0.028887206630811482 0.01944153726693551 -0.039524216108480989 -0.024040199049868927 -0.03505543213603167 0.088824710260506631 0.0021028986109382654 0.015291303792744688 0.0024848434426900695 -0.057869533987091104 -0.037740185579471799
leaf_count=4419 439 5083 325 159 2691 180 2303 9568 915 2175 1901 1990 2146 1005 3588 1976 1747 2675 1900 5083 10480 1959 2514 1279 281 1158 5244 236 322 551
internal_value=0 0.250116 -0.444249 0.179167 0.454934 -0.274507 -0.550327 0.215609 0.616301 -0.341334 -0.195134 -0.473147 -0.0154031 -0.593205 0.382598 0.00127684 -0.432188 -0.610891 -0.579594 0.256085 0.178274 -0.41934 -0.254773 -0.289752 0.748437 -0.0396687 0.146965 -0.11995 -0.508502 -0.451648
internal_count=76292 48811 27481 36253 12558 10569 16912 30534 3887 5738 4831 6040 5719 10872 8671 5280 4050 8994 4575 14651 15883 2284 2694 3454 1196 3304 5403 2137 1878 873
shrinkage=0.1


Tree=8
num_leaves=31
num_cat=0
split_feature=0 0 0 0 0 0 0 0 3 1 0 1 0 0 0 1 1 0 3 0 0 2 1 1 3 4 1 3 2 1
split_gain=6871.17 543.075 521.202 128.053 83.8034 83.5919 48.3365 45.029 22.5085 20.0696 19.5962 15.1568 13.6551 13.4038 13.1993 12.633 10.2594 9.42518 7.98821 7.81048 7.62644 7.34141 7.20384 7.16765 7.16601 7.09817 6.43188 5.99844 5.80258 5.56386
threshold=-0.381408373478062 -0.92047713299104428 1.1196065724072619 0.064255807510680218 -1.1198905323547852 1.969631830824061 0.58348098187030351 -0.63043288896172422 -0.11944410249592326 0.7163141399523002 -0.129704847459509 0.74185690497032242 -1.3317749394828595 1.5033491640026775 2.6325619666086619 0.38731947855936982 -0.53920591016367825 -1.2952044052074199 -0.35283602867551028 0.2962208112536785 0.85136095398187173 -0.22860211411752837 1.8110825147349596 -0.129696137343523 -0.11944410249592326 0.64346656091416699 -0.64650396648414155 -1.1218449827950769 0.37987244654707442 1.4406383970749363
decision_type=2 2 2 2 2 2 2 2 2 2 2 2 2 2 2 2 2 2 2 2 2 2 2 2 2 2 2 2 2 2
left_child=1 4 3 10 11 13 19 8 26 16 18 17 25 -4 -7 27 -6 -1 -2 -5 -8 -10 -14 -12 -19 -13 -3 -9 -18 -11
right_child=2 7 5 6 9 14 20 15 21 29 23 12 22 -15 -16 -17 28 24 -20 -21 -22 -23 -24 -25 -26 -27 -28 -29 -30 -31
leaf_value=-0.058038227679470283 -0.0077468155860678694 -0.042246374435592121 0.035794950989081406 0.015777883020259793 -0.052413849597566009 0.056748838574857088 0.024022981307249312 -0.029799542192725438 -0.015588074508224456 -0.030477186099448106 -0.00022540602648534077 -0.055114771656573372 -0.042970384324379267 0.044840954628086745 0.073903988810087931 -0.0051031424100504482 -0.036012987755898354 -0.056878268530887691 0.0032325509204888534 0.019807497840820622 0.029177519990213625 -0.024390242653937369 -0.019376263348050687 0.012759966355463765 -0.048415216837962745 -0.044495470075835777 -0.029494933613618407 -0.014132079647616543 -0.044475729426152279 -0.014005216281502279
leaf_count=4171 985 513 4186 8696 686 1794 7176 287 1991 1285 501 2127 1875 2691 598 1987 2260 1545 2025 10764 4784 1808 139 2805 2839 894 1728 1645 1263 244
internal_value=0 -0.380198 0.236887 0.184699 -0.477946 0.449354 0.210817 -0.190494 -0.244657 -0.37661 0.0547721 -0.520733 -0.477201 0.393347 0.610376 -0.107016 -0.412255 -0.546353 -0.00360365 0.180068 0.260848 -0.197772 -0.41342 0.107921 -0.513977 -0.519722 -0.324139 -0.164595 -0.390469 -0.278486
internal_count=76292 29287 47005 37736 19328 9269 31420 9959 6040 5738 6316 13590 5035 6877 2392 3919 4209 8555 3010 19460 11960 3799 2014 3306 4384 3021 2241 1932 3523 1529
shrinkage=0.1


Tree=9
num_leaves=31
num_cat=0
split_feature=0 0 0 0 0 0 0 1 1 0 3 3 0 0 2 0 3 1 1 1 1 0 0 2 3 2 0 2 1 3
split_gain=5569.07 474.938 312.711 193.85 79.0507 54.7085 44.4363 20.7702 18.9577 18.0025 15.6335 13.6845 12.8505 12.487 12.1883 10.0749 9.9173 8.83901 8.34474 7.6498 7.41438 6.74618 6.3991 5.42687 5.11654 5.11533 4.89062 4.82068 4.79106 4.47527
threshold=-0.51938544015628652 1.0412589900762195 -1.0817947300237754 -0.10186190834859517 1.8905769520076927 -0.85837176720048736 0.51327822582673421 0.66665011238302163 0.13138469162216476 -1.2779397121412996 1.2980695846028694 0.0082736360634330635 1.3991793056306616 2.6325619666086619 1.2412931472464204 0.18082851618169252 1.9986581234599838 -1.1458173947977972 -0.22153706445870738 1.2500313156343261 -0.81387388802367677 -1.5341241966563219 0.75706325907400329 0.72416259798815064 3.5005238089258057 0.019158737588015996 -0.33669470272000923 0.37987244654707442 -1.0257572792732812 -1.2331966096576115
decision_type=2 2 2 2 2 2 2 2 2 2 2 2 2 2 2 2 2 2 2 2 2 2 2 2 2 2 2 2 2 2
left_child=2 3 9 11 12 8 15 14 23 16 18 17 -3 -6 -7 20 -1 -2 -11 27 -5 -18 -8 -4 -12 -20 -13 -10 -24 -14
right_child=1 4 5 6 13 7 22 -9 19 10 24 26 29 -15 -16 -17 21 -19 25 -21 -22 -23 28 -25 -26 -27 -28 -29 -30 -31
leaf_value=-0.050815525291546849 -0.032593359519486075 0.030402077532382717 -0.034758085198404391 -0.012748478516293613 0.050128424523164232 -0.019318556567606882 0.020436320845406804 -0.009420001097569658 -0.026051349845988666 -0.051251945580079283 -0.032348887152677822 -0.0018114679274341156 0.031399422706569792 0.066513590701547359 -0.032653972834559002 0.016503753652120933 -0.047001067209227969 -0.0063321525036440151 -0.039147913234008264 -0.014551091370120074 0.012225264999999324 -0.032343281559262645 0.017902586515770341 -0.044663698840416877 0.0060187031101021499 -0.046131349552538309 0.0066212743585758599 -0.034655634744812668 0.026095973713200233 0.040512949307502689
leaf_count=6827 135 4485 1573 121 2093 3574 7475 1920 2252 1337 1007 1380 679 598 848 13168 817 2532 2402 446 6784 510 837 853 36 1862 1371 916 4844 2610
internal_value=0 0.200994 -0.363179 0.149821 0.389973 -0.245918 0.178419 -0.181049 -0.314031 -0.461295 -0.422656 -0.0255725 0.338838 0.537696 -0.218759 0.148814 -0.49278 -0.0766146 -0.443588 -0.268129 0.117876 -0.413677 0.22359 -0.38241 -0.310246 -0.421974 0.0239111 -0.285392 0.248888 0.386315
internal_count=76292 49112 27180 38647 10465 12382 33229 6342 6040 14798 6644 5418 7774 2691 4422 20073 8154 2667 5601 3614 6905 1327 13156 2426 1043 4264 2751 3168 5681 3289
shrinkage=0.1


Tree=10
num_leaves=31
num_cat=0
split_feature=0 0 0 0 0 0 0 0 3 3 0 1 4 2 0 1 3 1 4 1 4 1 1 1 0 0 0 0 3 0
split_gain=4513.73 393.064 239.922 154.068 86.7819 40.2202 26.312 19.2012 17.2538 15.3758 14.6769 11.7632 10.7138 9.88988 9.06853 7.98021 7.78437 7.31134 6.10298 5.9025 5.79644 5.3755 4.93934 4.72908 7.81385 5.45004 4.58971 4.43057 4.43019 4.27924
threshold=-0.53868883664463341 0.88289907753861885 -1.0817947300237754 -0.129704847459509 1.6159004797732204 -0.87272525093717812 0.33963465387351272 2.2245043017789476 0.32613323647768394 0.10002006713726637 -1.2258968980983649 -1.0719340799798229 0.16091779708405221 0.25110559885136635 1.1644388553670237 -0.96622126133647968 0.10339664039113942 -0.31736745456942145 -0.39841470919633343 1.181240053292848 5.4883402396318104 1.3304624055992826 -0.71754115084144543 2.0034438142849749 -1.7154069441858344 -1.4431344339563623 0.62894134652076727 0.064255807510680218 -1.2331179638919947 -1.4160289333755338
decision_type=2 2 2 2 2 2 2 2 2 2 2 2 2 2 2 2 2 2 2 2 2 2 2 2 2 2 2 2 2 2
left_child=2 3 10 11 14 9 15 -6 17 22 12 -2 29 18 -3 -5 -13 -7 -12 -11 -9 -10 -4 25 -25 -14 -8 -17 -16 -1
right_child=1 4 5 6 7 8 26 20 21 19 13 16 23 -15 28 27 -18 -19 -20 -21 -22 -23 -24 24 -26 -27 -28 -29 -30 -31
leaf_value=-0.049087651652841346 -0.028635743649505163 0.024093905361940074 -0.044078680719123658 -0.0086791843388472571 0.039422003076481353 -0.028712828959021355 0.016622668071873497 0.051934680159868941 -0.012807867215653454 -0.025838373391701554 -0.036931465008923518 -0.0058667630038449024 -0.046115715512512978 -0.043101152709012616 0.023497847193987762 0.0090659493040449544 0.0018483250195121511 -0.018741264778877983 -0.027695092844418869 -0.01373945211970906 0.077460249662399297 0.0008760778749373132 -0.032450619382967304 -0.040603691041924322 -0.015514597685557619 -0.035821810399598808 0.02004252121902883 0.013297324709222409 0.031793888889614257 -0.043963778125225818
leaf_count=2434 174 4784 446 184 2691 1051 10465 1400 2519 2802 2009 2757 907 1712 779 3251 2488 2448 1111 471 95 324 2019 280 223 1188 6279 10361 3706 4934
internal_value=0 0.179391 -0.329803 0.124835 0.325195 -0.225234 0.152408 0.444701 -0.170348 -0.285896 -0.415166 -0.0305567 -0.437095 -0.369937 0.271225 0.120071 -0.0220706 -0.217364 -0.336425 -0.240973 0.535567 -0.112484 -0.345545 -0.381879 -0.294807 -0.402784 0.179051 0.122867 0.303529 -0.456564
internal_count=76292 49414 26878 35959 13455 12080 30540 4186 6342 5738 14798 5419 9966 4832 9269 13796 5245 3499 3120 3273 1495 2843 2465 2598 503 2095 16744 13612 4485 7368
shrinkage=0.1


Tree=11
num_leaves=31
num_cat=0
split_feature=0 0 0 0 0 0 0 0 0 3 2 4 1 4 3 0 3 1 2 0 2 1 2 1 1 0 2 1 1 3
split_gain=3664.35 302.433 272.935 62.2205 45.5205 43.6105 27.0871 18.9179 16.1229 15.2836 15.1693 11.2489 9.88283 7.79354 7.12024 6.65682 6.59664 6.51218 6.27671 7.13221 6.19517 5.92246 5.51585 5.08804 5.01086 3.7261 4.71262 3.62783 3.44185 3.29351
threshold=-0.35839215640918115 -0.92047713299104428 1.141287940442242 0.2621825361087986 -1.1557732715599049 1.969631830824061 -0.64819509918442286 -0.129704847459509 0.6891555460130675 -0.11944410249592326 0.62447999323929848 -0.40992913072694459 0.8238019013170288 3.3457316159373169 2.1093274870855905 1.5033491640026775 1.0870052324951969 -1.1740814991138295 -0.23769078025402371 -1.370899715967431 0.86843471314905984 -0.98405525762083912 0.35478148757553357 0.4214583415171021 -0.47377454599429775 -1.3926829850150195 -0.43108730369033593 -0.93109736755210537 -0.79871420472973986 -1.2331966096576115
decision_type=2 2 2 2 2 2 2 2 2 2 2 2 2 2 2 2 2 2 2 2 2 2 2 2 2 2 2 2 2 2
left_child=1 4 3 7 11 15 10 23 28 27 16 25 20 -7 22 -4 -3 -9 19 -13 -8 -10 -11 -2 -12 -1 -27 -6 -5 -17
right_child=2 6 5 8 9 13 12 17 21 14 24 18 -14 -15 -16 29 -18 -19 -20 -21 -22 -23 -24 -25 -26 26 -28 -29 -30 -31
leaf_value=-0.045121695209756452 -0.0033582380382718418 -0.017045038377160135 0.026271328321645766 0.0100587704993514 -0.045502703564413174 0.042181883363242627 -0.0079925287848728235 -0.018315627962110739 0.014212538101621416 -0.023789161354784295 -0.036074505277628455 -0.036182509902864694 0.00074843121485088538 0.057698210931040467 -0.0057987918036536933 0.025854847717868248 -0.0071367933033043857 0.010324710304082576 -0.038612648768598525 -0.026058691682682197 -0.017752607096445494 0.021200308261798129 -0.031700065908756792 0.0053236229127727099 -0.023221898528131561 -0.036037900144622513 -0.042401017897238193 -0.033586653219674766 0.015221860607720433 0.034518706582289831
leaf_count=1855 1432 3296 3887 1421 293 2006 2630 80 1446 3267 407 1670 1028 386 183 552 844 10426 2817 1193 864 7524 1207 1277 1191 1942 2905 1996 14128 2139
internal_value=0 -0.275346 0.174437 0.137165 -0.349006 0.331229 -0.136582 0.0818535 0.166977 -0.284212 -0.182195 -0.385355 -0.0787024 0.446858 -0.251326 0.289182 -0.150251 0.101066 -0.352614 -0.31964 -0.10406 0.200739 -0.259234 0.00734319 -0.264954 -0.413103 -0.398516 -0.351119 0.1475 0.327415
internal_count=76292 29588 46704 37734 19328 8970 10260 13215 24519 6946 5738 12382 4522 2392 4657 6578 4140 10506 5680 2863 3494 8970 4474 2709 1598 6702 4847 2289 15549 2691
shrinkage=0.1


Tree=12
num_leaves=31
num_cat=0
split_feature=0 0 0 0 0 0 0 0 2 0 3 1 3 0 1 0 1 3 3 0 1 4 3 1 3 1 4 1 1 1
split_gain=2968.12 245.931 221.286 52.0562 34.6454 29.6982 28.0549 18.3802 12.7589 11.9349 11.056 10.3035 9.56215 9.38989 7.61309 7.34746 6.33663 6.30188 5.21362 4.86009 5.54749 4.68375 4.50797 4.39198 4.2172 4.14977 3.83091 3.82619 3.71951 3.61594
threshold=-0.35839215640918115 -0.95666377555178383 1.1644388553670237 0.31699987208675801 2.1262710561133114 -1.1293800577142539 -0.69746316915644835 -0.014896621531962877 1.0453425907237934 0.78478891732022649 1.2085100899463208 0.48369919315535176 0.20995206073336556 -1.3926829850150195 0.1726920218396806 1.5765895151498126 -1.5002142350799736 0.54881871605043453 2.6691302960783969 -1.3224470498585781 0.020454093293283609 3.7897647121687759 -1.5672459861116523 1.4406383970749363 3.7232863292564535 -0.93109736755210537 -0.092770034088779929 -1.1740814991138295 2.0034438142849749 -0.93109736755210537
decision_type=2 2 2 2 2 2 2 2 2 2 2 2 2 2 2 2 2 2 2 2 2 2 2 2 2 2 2 2 2 2
left_child=1 5 3 7 15 10 8 14 17 -5 19 16 29 24 27 -4 -8 -3 -15 -1 -21 -6 -9 -14 -12 -11 -16 -2 -13 -7
right_child=2 6 4 9 21 12 11 22 -10 25 13 28 23 18 26 -17 -18 -19 -20 20 -22 -23 -24 -25 -26 -27 -28 -29 -30 -31
leaf_value=-0.039153198612456939 -0.025398746068822222 -0.018764646848816114 0.024266151763634281 0.013964901009830923 0.040266105297592225 -0.041695848285808974 -0.036520744755864143 -0.0095476798095001751 -0.02778956255466607 0.014180062597281017 -0.03661969425937301 -0.0035067813600630181 -0.022509945822785087 -0.026786351692081191 0.0027141169969253868 0.030963634951535052 -0.010924983101733171 -0.011299494954521582 -0.007825008251520384 -0.038642525746991813 -0.031884730394306317 0.054224148215530635 0.010266832480772843 -0.0072222617910165585 -0.02555932375204787 0.02022830688615079 0.010544108640380889 -0.002344972944215359 0.026875978476572328 -0.028733606072154888
leaf_count=3724 76 2743 4186 15548 1508 239 100 116 1071 1433 1903 2337 2530 1899 1822 2691 2950 1924 157 1943 3241 286 11278 203 421 5444 951 1365 41 2162
internal_value=0 -0.247811 0.156994 0.124127 0.301154 -0.31879 -0.130708 0.0797816 -0.17946 0.154992 -0.343747 -0.0791713 -0.254195 -0.302611 0.023354 0.268869 -0.117642 -0.156871 -0.253384 -0.363973 -0.344176 0.424913 0.100651 -0.213744 -0.346161 0.18968 0.0539941 -0.0356086 -0.0298294 -0.300239
internal_count=76292 29588 46704 38033 8671 18422 11166 15608 5738 22425 13288 5428 5134 4380 4214 6877 3050 4667 2056 8908 5184 1794 11394 2733 2324 6877 2773 1441 2378 2401
shrinkage=0.1


Tree=13
num_leaves=31
num_cat=0
split_feature=0 0 0 0 0 1 0 0 1 0 1 0 0 0 0 2 2 3 3 2 3 4 4 1 1 0 1 1 0 4
split_gain=2407.21 215.092 121.88 85.2178 47.7308 21.3856 13.8806 11.8413 10.098 8.57837 8.38318 8.08547 7.93968 7.92078 7.24167 6.34807 6.17724 5.91872 5.1844 4.96446 4.66653 4.37472 4.35487 4.34454 3.92352 4.24468 3.74423 3.47541 3.47074 3.37943
threshold=-0.55730961346375352 0.86706079714672413 -1.0909912749954547 -0.129704847459509 1.7550984516463723 0.47432805369945025 0.4360231560008021 -0.88435811039584056 1.0251929074961044 -1.4572621210099694 -0.30984900683253375 -0.78956148794965941 2.6325619666086619 1.3041649588678148 -1.2869610700202609 1.1816052437451694 0.49663473219988774 3.5005238089258057 -1.4558341567375555 0.95544030913048994 1.3294107525834005 -0.7155286074357482 -0.47335334552093061 -1.0052261792774517 3.0933760734887712 -1.7154069441858344 -1.1740814991138295 -1.7025594709069158 0.10440270476870479 -0.53679196614948099
decision_type=2 2 2 2 2 2 2 2 2 2 2 2 2 2 2 2 2 2 2 2 2 2 2 2 2 2 2 2 2 2
left_child=2 3 8 10 13 7 18 19 14 24 27 22 -6 23 -1 -9 21 29 -5 -4 -12 -16 -7 -3 -10 -26 -8 -2 -20 -11
right_child=1 4 5 6 12 11 26 15 9 17 20 -13 -14 -15 16 -17 -18 -19 28 -21 -22 -23 -24 -25 25 -27 -28 -29 -30 -31
leaf_value=-0.0345462837027831 -0.03552401615547595 0.013280140200574334 -0.022322723402316683 -0.0037501923716553465 0.03181490674199601 -0.018380184006706771 0.0061976123560277818 -0.014252685673014773 -0.03375403710747768 -0.027590170918916912 -0.0016287390061547847 -0.0063763927148093869 0.044553632800152725 0.024129245661535167 -0.031057443150267046 -0.024293442256093797 -0.034480830551292634 0.0039372532236065429 0.0070076326031974839 -0.030984037808594125 0.010134450654204357 -0.024379345765644156 -0.010884645977917978 0.019583471458583829 -0.027264369962432863 0.0031331818826341382 0.013925163398636094 -0.010066428681081822 0.010265335273532164 -0.018823617341831911
leaf_count=5425 58 1364 2589 304 2691 1641 661 2917 1223 754 4588 1772 598 3588 1738 803 1704 89 4408 889 364 2252 1469 5513 196 60 12196 711 12672 1055
internal_value=0 0.129871 -0.242952 0.0891937 0.23623 -0.168768 0.110367 -0.203419 -0.304772 -0.25688 -0.0227256 -0.117678 0.34131 0.203205 -0.319317 -0.164201 -0.294407 -0.212389 0.091942 -0.245366 -0.00764078 -0.272883 -0.148397 0.183333 -0.313976 -0.201399 0.135279 -0.119865 0.0942459 -0.224776
internal_count=76292 49716 26576 35962 13754 12080 30241 7198 14496 3377 5721 4882 3289 10465 11119 3720 5694 1898 17384 3478 4952 3990 3110 6877 1479 256 12857 769 17080 1809
shrinkage=0.1


Tree=14
num_leaves=31
num_cat=0
split_feature=0 0 0 0 0 0 1 0 1 0 4 1 0 3 0 3 1 3 0 1 4 3 1 2 1 2 3 1 1 0
split_gain=1951.87 162.081 146.61 31.2614 26.927 23.0329 16.7942 11.7378 10.8058 10.2359 8.38716 7.98481 5.78073 5.36461 5.26014 5.25372 5.18295 4.74037 6.22284 4.18182 4.164 3.81315 3.44585 3.30824 3.24941 2.99406 2.81129 2.72782 2.65231 2.64157
threshold=-0.35839215640918115 -0.9331770972897756 1.0795898128940584 0.16444285157841312 2.0433014063863819 -1.173927372115019 -0.26590156726723324 -0.63043288896172422 -0.10954957700078503 0.53680536678595481 0.94768815661506456 -0.47377454599429775 -0.18226265951510615 1.2980695846028694 1.5442343365812334 -1.3513174489281523 0.85591912802561543 -1.0000000180025095e-35 -1.4738974000238365 -1.1198230028097358 5.4883402396318104 1.2980695846028694 -1.1740814991138295 -0.60085617149712101 2.3451026605489509 0.43023701047019197 -1.2331966096576115 -1.5577806557672875 0.85591912802561543 -0.57582411814367085
decision_type=2 2 2 2 2 2 2 2 2 2 2 2 2 2 2 2 2 2 2 2 2 2 2 2 2 2 2 2 2 2
left_child=1 5 3 11 14 10 15 16 -7 27 17 -2 28 23 22 -3 25 -1 -19 -11 -6 -9 -4 -10 -15 -8 -16 -5 -13 -17
right_child=2 6 4 9 20 8 7 21 13 19 -12 12 -14 24 26 29 -18 18 -20 -21 -22 -23 -24 -25 -26 -27 -28 -29 -30 -31
leaf_value=-0.032857952662901667 -0.0066653464050060902 -0.030141557883181132 0.013813705296148095 -0.021462234814782735 0.032652102695189297 -0.027508272388965402 -0.011228933758919054 -0.0049770066350039513 -0.016047057924139303 0.007856211485986862 -0.021256801000903769 -0.00096297065766034237 0.0069320600834129236 -0.013215055929914944 0.018073135301628778 -0.018425612582808261 -0.0057520764711570284 -0.033279179980823317 -0.026457234628412447 0.014153519277373473 0.054080033804240979 0.0051822200935211669 0.020272486072171213 -0.022119642958498484 0.017820897867869855 -0.017274752220725147 0.026066922347047064 0.0097801179698717433 0.0089501483562355426 -0.0094473755129382136
leaf_count=2799 568 317 1038 28 1998 1964 2567 3070 1272 1159 1464 1592 6830 933 554 1284 1261 1740 5775 11698 95 420 4045 3044 35 1203 2137 14637 325 440
internal_value=0 -0.200958 0.127311 0.0983141 0.235568 -0.256103 -0.101622 -0.0821059 -0.21175 0.115262 -0.283398 0.0482403 0.0557011 -0.18821 0.208462 -0.183098 -0.113018 -0.293451 -0.280368 0.135858 0.336247 -0.0375441 0.189535 -0.203299 -0.120929 -0.131581 0.244212 0.0972047 0.00717657 -0.161342
internal_count=76292 29588 46704 36837 9867 19026 10562 8521 7248 27522 11778 9315 8747 5284 7774 2041 5031 10314 7515 12857 2093 3490 5083 4316 968 3770 2691 14665 1917 1724
shrinkage=0.1


Tree=15
num_leaves=31
num_cat=0
split_feature=0 0 0 0 0 1 4 2 0 2 0 0 1 0 0 1 0 4 3 1 2 1 0 1 2 1 1 0 3 1
split_gain=1581.09 142.976 81.5164 57.0929 29.9204 14.2501 9.22712 9.22647 8.47024 8.26201 6.63041 6.50967 6.59456 5.4597 5.27049 5.73301 5.20227 5.17847 4.37162 3.8136 3.66981 3.6092 5.24509 3.56934 3.5588 3.01627 2.96665 2.96494 2.84972 2.7817
threshold=-0.55730961346375352 0.89694108502591896 -1.0528621784551662 -0.053461873486501339 1.8133846750873588 0.66665011238302163 -0.30038594176720074 1.4070961704887019 0.41203988483649973 0.67040246783617308 -0.83187555714289318 -1.3507732093501919 1.4406383970749363 1.3328037165763191 -1.3133414758788338 -0.19251836580227111 2.4469403816592266 -0.3061493446357178 2.2285049644606554 -1.4062358432559596 -0.019685348741251926 2.3451026605489509 -1.7154069441858344 -0.5022630024929533 -0.6177467994087199 -1.2974685377095114 -1.7025594709069158 -0.83187555714289318 -0.90198291155646049 -1.265518835865781
decision_type=2 2 2 2 2 2 2 2 2 2 2 2 2 2 2 2 2 2 2 2 2 2 2 2 2 2 2 2 2 2
left_child=2 3 6 9 13 7 14 10 19 17 28 21 20 25 -1 -16 -6 -2 27 -5 -13 -8 -23 -10 -17 -3 -11 -7 -4 -15
right_child=1 4 5 8 16 18 11 -9 23 26 -12 12 -14 29 15 24 -18 -19 -20 -21 -22 22 -24 -25 -26 -27 -28 -29 -30 -31
leaf_value=-0.02917570046347533 -0.0015801063564309212 0.0087819014405052676 -0.024531331144930685 -0.02151617133576009 0.025527870674338149 -0.011356644670452398 -0.026218070935827887 -0.023211425038997115 0.0086814305173434411 -0.03270555948579891 -0.010425351226092575 -0.016007485756673774 -0.0031640592045193818 0.015106301144526083 -0.030060735705672161 -0.018668142257450525 0.034630174130624955 0.0050508729690938101 0.0077421619242067615 0.007637231333620086 -0.023113300366413868 -0.024695513961328703 -0.0019238463235160452 0.012031026183979606 -0.024606309772825092 0.015885318844289304 -0.0066564415125496511 -0.0051005151844117948 -0.015775757177122485 0.021595470992851279
leaf_count=3700 3167 665 425 45 2093 1571 2405 1257 4760 45 3011 1478 270 873 1368 1490 897 1875 179 15539 1430 275 160 9592 3128 5913 1537 1463 2966 2715
internal_value=0 0.105253 -0.196899 0.0730841 0.194651 -0.130336 -0.24298 -0.153785 0.0916729 -0.0109247 -0.138406 -0.212228 -0.181137 0.168787 -0.262087 -0.243747 0.282586 0.00885797 -0.0744398 0.0755305 -0.195017 -0.24702 -0.163197 0.109201 -0.226904 0.151672 -0.0739741 -0.0833993 -0.168731 0.200166
internal_count=76292 49716 26576 36560 13156 10872 15704 7659 29936 6624 6402 6018 3178 10166 9686 5986 2990 5042 3213 15584 2908 2840 435 14352 4618 6578 1582 3034 3391 3588
shrinkage=0.1


Tree=16
num_leaves=31
num_cat=0
split_feature=0 0 0 0 0 0 1 1 3 0 0 2 0 4 0 3 1 3 1 1 4 4 4 1 4 2 1 1 0 1
split_gain=1284.76 106.587 96.8433 23.1916 16.7038 15.2664 12.045 7.19197 7.15248 7.09266 7.07084 6.33317 5.3156 5.48922 4.92585 4.47956 4.19473 4.05445 3.4734 3.38123 3.19464 2.90537 2.88523 2.81101 2.73658 2.52447 2.45818 2.41625 2.35899 2.27199
threshold=-0.35839215640918115 -0.92047713299104428 1.1852529381396286 0.26911542928392623 -1.1198905323547852 2.1262710561133114 -0.26590156726723324 0.34691221721558924 -1.3444796093157161 0.74565370285584287 -0.71282369591808525 -0.33338205188427394 -1.4160289333755338 0.97980784722849545 -0.18226265951510615 -1.3049757699116811 -1.894747505305755 1.2980695846028694 -1.2974685377095114 3.0933760734887712 0.19551388990312316 -0.27731569637713666 5.4883402396318104 -0.70493806956589344 -0.5194518957191705 0.14730675911920885 -0.84381278655312375 -0.66900357939280108 1.5765895151498126 2.0034438142849749
decision_type=2 2 2 2 2 2 2 2 2 2 2 2 2 2 2 2 2 2 2 2 2 2 2 2 2 2 2 2 2 2
left_child=1 4 3 8 7 15 16 -1 27 23 20 24 19 -14 -10 -4 -3 -12 -13 -9 -8 -20 -7 -5 -6 -18 -11 -2 -17 -19
right_child=2 6 5 9 11 22 10 12 14 26 17 18 13 -15 -16 28 25 29 21 -21 -22 -23 -24 -25 -26 -27 -28 -29 -30 -31
leaf_value=-0.025330344681247091 -0.017093108074332123 -0.036294831698655751 0.011799929148185812 0.0055777898784421416 -0.015117687123570759 0.027301175971575775 -0.011094963050622738 -0.025077255130393068 0.00072251326850995823 0.0094048460618654309 -0.0049354522829568245 -0.036363043591210786 -0.019694541364619886 -0.0079284301266890431 0.0061366386336670214 0.017280559094233736 -0.0093046616741486437 0.0023869133541367452 -0.020308212135190264 -0.0131774369632125 -0.0031658212046150715 -0.013937161143565004 0.045209012878568551 0.0093563759025304463 -0.0081738402954534932 -0.016879693944611369 0.013450348533579709 -0.0021037082375514509 0.021488852381261508 0.028007983890632672
leaf_count=5611 160 89 1034 2279 1309 1699 2970 2694 1982 1995 4127 110 4589 434 11045 3319 698 536 2272 262 613 1045 95 14465 1002 1190 6078 328 2225 37
internal_value=0 -0.163039 0.103289 0.0820077 -0.206768 0.200726 -0.0806602 -0.225871 0.0486765 0.100159 -0.0639208 -0.161526 -0.20658 -0.186779 0.053129 0.178425 -0.150793 -0.0384105 -0.188808 -0.240225 -0.097384 -0.183011 0.282495 0.0884208 -0.12107 -0.140792 0.124506 -0.0701827 0.189695 0.0404133
internal_count=76292 29588 46704 38332 19328 8372 10260 13590 13515 24817 8283 5738 7979 5023 13027 6578 1977 4700 3427 2956 3583 3317 1794 16744 2311 1888 8073 488 5544 573
shrinkage=0.1


Tree=17
num_leaves=31
num_cat=0
split_feature=0 0 0 0 0 3 0 2 0 1 3 0 4 0 3 0 3 0 1 2 0 1 4 1 1 3 1 4 2 3
split_gain=1040.8 83.1757 80.4781 18.1646 16.8195 12.0687 10.9054 7.59812 7.50403 6.55096 6.20408 5.96077 5.08139 4.80168 4.50174 3.90792 3.88421 3.41627 3.39813 3.3881 3.17054 2.8217 2.76448 2.6586 2.53932 2.52457 2.44571 2.36656 2.3271 2.15893
threshold=-0.381408373478062 -0.96694488954339752 0.98676993870582441 0.053190767103298842 1.969631830824061 -0.4535362600093506 -1.2094456633579445 0.5651344591105798 -0.76006663998712998 0.1726920218396806 1.2980695846028694 0.53680536678595481 -0.63482302342419072 -1.5119710812311908 2.7916466925284027 -0.66393921943403633 -1.1072972587025276 1.3656332497412846 1.8110825147349596 0.81161800767937475 2.8772219967025356 -0.61167155203286916 0.016748300920271821 -1.7025594709069158 -1.3685042241410372 -1.4811851677334424 1.0721671057571589 -0.31768938780264783 -0.23769078025402371 3.5005238089258057
decision_type=2 2 2 2 2 2 2 2 2 2 2 2 2 2 2 2 2 2 2 2 2 2 2 2 2 2 2 2 2 2
left_child=1 6 3 9 16 15 10 12 22 19 -1 23 -8 29 -15 24 -4 -18 28 -2 25 -13 -7 -5 -3 -6 -14 -11 -10 -12
right_child=2 5 4 11 20 8 7 -9 18 27 13 21 26 14 -16 -17 17 -19 -20 -21 -22 -23 -24 -25 -26 -27 -28 -29 -30 -31
leaf_value=-0.022683143424294158 -0.00012367460817929314 -0.029931878592847412 0.010939357304391236 -0.02965774888172746 0.011848365507936012 -0.010944166913833507 -0.017324037259886533 -0.021191941174541089 -0.0015323862886684619 0.0019798911129542815 -0.024840635529582215 0.0073492618366220973 -0.012636926501255783 -0.015955730801976611 -0.00039584886888825661 -0.0092149876224730358 0.013899055285406515 0.018483518409583729 0.017345354084868748 -0.0091078309722800628 0.033631281033750113 0.010755920350577791 -0.0042968995615258526 0.006821823821795775 -0.015448023898247351 0.023742310868017182 -0.0052291185082271961 0.006866330508474865 -0.0060756182544894656 -0.016189543727604259
leaf_count=7279 1431 131 2226 20 197 2784 2586 2098 2356 2158 907 3525 2314 1753 208 1256 4011 2733 78 594 299 7837 807 18245 1593 1896 552 1833 2162 423
internal_value=0 -0.147971 0.0921952 0.0688334 0.165482 -0.0800867 -0.189807 -0.16078 -0.0602529 0.018736 -0.210541 0.0790061 -0.141101 -0.17451 -0.143053 -0.134577 0.145614 0.157569 -0.0334918 -0.0275903 0.239989 0.0969902 -0.0945034 0.0678188 -0.165486 0.226228 -0.112102 0.0422415 -0.0370646 -0.220892
internal_count=76292 29287 47005 35643 11362 11167 18120 7550 8187 6016 10570 29627 5452 3291 1961 2980 8970 6744 4596 2025 2392 11362 3591 18265 1724 2093 2866 3991 4518 1330
shrinkage=0.1


Tree=18
num_leaves=31
num_cat=0
split_feature=0 0 0 0 0 2 2 4 3 0 4 0 1 4 3 0 0 1 3 0 4 1 3 0 0 1 1 0 1 2
split_gain=844.712 75.5778 46.3846 26.9647 17.9906 11.0383 6.71761 6.50291 6.23961 4.64513 4.49503 4.50737 4.49403 3.81637 3.76482 3.7518 3.54551 3.04157 2.89369 2.71304 2.5533 2.48591 2.46065 2.44382 2.43929 4.03105 2.28433 2.22824 2.0117 2.00977
threshold=-0.53868883664463341 0.83837860004167974 -1.1001506845823827 -0.014896621531962877 1.6159004797732204 0.39239230964110688 -0.2117137019701332 -0.4444865865697733 -1.0104102612576498 2.3323566547610293 1.3547961258197025 -1.4907287156183666 -0.42076133164403978 0.045602185700683598 0.771677527915127 -0.90836347064132583 0.38775095329698961 -1.5002142350799736 2.1093274870855905 -0.74448300642654941 -0.65212257895600179 -0.52063549763417294 -1.4558341567375555 -0.83187555714289318 -1.7154069441858344 3.0933760734887712 -0.5022630024929533 1.2112388144561772 -2.0424565030899737 0.17665336513709781
decision_type=2 2 2 2 2 2 2 2 2 2 2 2 2 2 2 2 2 2 2 2 2 2 2 2 2 2 2 2 2 2
left_child=2 3 6 8 17 7 10 15 28 -6 11 -1 -7 29 -13 -4 21 -3 23 -14 -8 22 -5 -9 -12 -26 -18 -19 -2 -10
right_child=1 4 5 16 9 12 20 18 13 -11 24 14 19 -15 -16 -17 26 27 -20 -21 -22 -23 -24 -25 25 -27 -28 -29 -30 -31
leaf_value=-0.022512768446262672 -0.033461835710331803 0.0052405317613239671 -0.013110716687115432 -0.013997109598563155 0.017283866538734424 -0.019481324774746678 -0.022942981542944468 -0.0075300437110247254 0.00083909692479057832 0.024657772230345525 -0.018627504032338038 -0.018124986855566981 -0.01391210612732427 0.0051936493492394228 -0.012883988283432003 -0.007603923770788612 0.0058671820737945411 0.010903425630752285 0.0076524537936808711 -0.0075128079108296763 -0.018953929303259981 0.0058909804416073797 0.0024161324712365911 -0.0018903783967868419 -0.0075988162557995469 0.023480010834401072 0.0086175778793114461 0.01408661834437165 -0.0071346662989497977 -0.0036890719599971889
leaf_count=1169 30 700 2194 101 2990 1100 2563 1732 3047 1196 169 2933 2322 1510 2573 2837 4393 5992 191 927 4291 13029 955 1381 450 46 9660 3474 892 1445
internal_value=0 0.0776048 -0.142673 0.0525834 0.138732 -0.0987275 -0.181943 -0.0774184 -0.00332113 0.193907 -0.160921 -0.168732 -0.139567 0.00844457 -0.156758 -0.100054 0.06634 0.116013 -0.0429511 -0.120863 -0.204456 0.0551276 0.00846305 -0.0502816 -0.0825178 -0.0471651 0.077578 0.120716 -0.079913 -0.00617538
internal_count=76292 49414 26878 35062 14352 12684 14194 8335 6924 4186 7340 6675 4349 6002 5506 5031 28138 10166 3304 3249 6854 14085 1056 3113 665 496 14053 9466 922 4492
shrinkage=0.1


Tree=19
num_leaves=31
num_cat=0
split_feature=0 0 0 0 0 0 3 1 1 3 1 4 0 1 4 2 3 0 1 2 0 4 1 3 3 0 4 2 0 3
split_gain=686.041 59.0963 51.2166 10.4695 10.2138 9.71683 8.40463 7.59088 4.77083 4.64204 4.35305 4.08079 3.85171 3.38738 3.33134 3.0436 3.04127 3.02476 4.80248 2.99952 2.80465 2.18353 2.12504 2.08583 2.05875 2.45481 1.99619 1.97129 1.91005 1.9094
threshold=-0.33669470272000923 -0.90836347064132583 1.0997597207526573 0.31017684675368123 -1.2172848108913441 2.1262710561133114 0.54881871605043453 -0.082637973038350271 -1.1740814991138295 -1.4562173283384101 1.0251929074961044 0.20703065402906853 -0.61201385787931628 2.3451026605489509 1.9890806770067233 1.5195607656261745 -1.0104568848126838 -1.5592680826168939 2.3451026605489509 -0.47965069565082091 0.67768610206528324 -0.7155286074357482 -1.2974685377095114 -0.90198291155646049 0.32613323647768394 -1.3926829850150195 5.4883402396318104 0.51116657902080898 1.4276167150074057 5.9121285089995448
decision_type=2 2 2 2 2 2 2 2 2 2 2 2 2 2 2 2 2 2 2 2 2 2 2 2 2 2 2 2 2 2
left_child=1 4 3 8 10 16 9 23 -2 -3 24 19 27 -13 -8 21 -4 29 -19 -9 -5 -10 -22 -6 -1 -26 -7 -11 -18 -12
right_child=2 6 5 20 7 26 14 11 15 12 17 13 -14 -15 -16 -17 28 18 -20 -21 22 -23 -24 -25 25 -27 -28 -29 -30 -31
leaf_value=-0.020493923816992315 -0.014293926364906668 -0.020740490895080961 0.0096686228790079324 0.0063950678178357687 -0.022472956975163993 0.019974179713775912 -0.0024439692410587752 -0.0090659198657584168 0.0013772393039390308 -0.0075132122714997784 -0.019906342968230982 -0.006449714442731333 -0.0043208055667216857 0.023910492903700002 0.01206017672820634 -0.0014172529887904316 0.012148472980444979 -0.012825722349195053 0.0077862396359555282 -0.013826551525077189 0.0028098522396073368 0.0049465026185608069 0.0091268635734008726 -0.015693409909605018 -0.019913393110653783 -0.015150369569025055 0.03486961425919282 -0.012251691952560663 0.015937307745909367 -0.0051741159986704588
leaf_count=3001 143 265 2434 13156 583 1699 3439 2161 2002 2324 860 1117 2654 38 166 950 2824 1718 121 3415 570 11913 8101 2048 1837 2633 95 1411 2516 98
internal_value=0 -0.118155 0.0761059 0.0591737 -0.1503 0.141292 -0.0566472 -0.126412 0.0388423 -0.0777149 -0.172081 -0.108609 -0.0723357 -0.0545085 -0.0177609 0.040591 0.125983 -0.13843 -0.114695 -0.119816 0.0731534 0.0443298 0.0871161 -0.171957 -0.18468 -0.171078 0.20763 -0.093033 0.139336 -0.183993
internal_count=76292 29889 46403 36835 19630 9568 10259 9362 15008 6654 10268 6731 6389 1155 3605 14865 7774 2797 1839 5576 21827 13915 8671 2631 7471 4470 1794 3735 5340 958
shrinkage=0.1


Tree=20
num_leaves=31
num_cat=0
split_feature=0 0 0 0 0 3 4 4 1 3 2 2 0 0 4 1 3 1 1 3 1 3 2 2 4 0 1 0 4 0
split_gain=556.241 51.728 27.8373 20.829 12.3903 8.29688 5.34007 4.59094 4.39904 3.60017 3.48046 3.44946 3.58474 3.30331 3.23675 3.20747 2.99107 2.89352 2.79086 2.53988 2.47517 2.39237 2.35114 2.2839 2.04007 1.94978 1.90244 1.62125 1.6036 1.57412
threshold=-0.57582411814367085 0.82459977129016016 -1.1001506845823827 -0.21025171201474116 1.6159004797732204 -0.23075568897731999 -0.40992913072694459 0.47808860552210886 0.85591912802561543 -1.5672459861116523 -0.18554216720485359 -0.27330622560377388 -1.5119710812311908 0.16444285157841312 2.7155682280718003 1.8110825147349596 -1.4562173283384101 -1.2974685377095114 2.0034438142849749 -1.2331179638919947 0.040677974850120258 -1.4562173283384101 0.07666878192756392 1.0956461291140356 1.160169964405364 -1.3317749394828595 -0.86052265705290287 1.2567209427829689 -0.7097678575813583 -0.9331770972897756
decision_type=2 2 2 2 2 2 2 2 2 2 2 2 2 2 2 2 2 2 2 2 2 2 2 2 2 2 2 2 2 2
left_child=2 3 6 8 19 17 22 10 16 -5 28 12 -8 20 21 -14 -2 -4 -9 26 -11 -6 25 -18 -10 -1 -3 -21 -7 -19
right_child=1 4 5 9 14 7 11 18 24 13 -12 -13 15 -15 -16 -17 23 29 -20 27 -22 -23 -24 -25 -26 -27 -28 -29 -30 -31
leaf_value=-0.017570666749905716 -0.016889859746548941 0.0032628712128909311 -0.022180702164066288 -0.0038830775939529879 0.006908643434985734 -0.0076296629359308508 -0.015355574322596505 -0.0015224181640898487 0.0024638888561067116 0.00051625527848687372 -0.0097189480028969672 -0.014881277087067211 -0.0090726981888401871 0.005853960944137853 0.02270975278260863 0.0054043707000554532 -0.0015405013769564089 -0.014115192560821156 0.022015212673445691 0.0091163968387340377 0.0045708998719702102 0.015522226611456542 -0.018852159107086364 -0.0077019146327572067 0.016037667121562713 -0.013581142682391346 0.010834641621705617 0.012064134809653506 -0.0034949486818198318 -0.0097531545823318268
leaf_count=2096 154 1070 265 438 358 1670 941 1017 864 2105 3370 3282 1960 22417 581 166 3236 1305 53 6255 5287 3247 2801 739 127 2948 481 2659 2140 2260
internal_value=0 0.0618859 -0.117813 0.0411876 0.111851 -0.0825293 -0.147841 -0.0646728 -0.0177973 0.0511722 -0.0737794 -0.12628 -0.102168 0.0524947 0.157832 -0.0794232 -0.0321575 -0.120993 -0.00356536 0.0934585 0.0341627 0.146668 -0.16529 -0.0268598 0.0420341 -0.15239 0.0561105 0.0999569 -0.0530728 -0.113499
internal_count=76292 50018 26274 35367 14651 12080 14194 8250 5120 30247 7180 6349 3067 29809 4186 2126 4129 3830 1070 10465 7392 3605 7845 3975 991 5044 1551 8914 3810 3565
shrinkage=0.1


Tree=21
num_leaves=31
num_cat=0
split_feature=0 0 0 1 0 0 2 2 0 2 0 4 4 4 1 1 4 1 1 0 1 1 4 0 4 3 3 1 0 1
split_gain=451.14 41.4495 33.2433 8.28086 7.90514 5.9498 5.50534 5.35254 4.28755 3.72725 3.22219 3.18221 3.01601 2.77025 2.68393 2.60666 2.32594 2.28683 2.09606 2.0607 2.37237 1.9704 1.94458 1.83615 1.74641 1.66083 1.61102 1.56938 1.55512 1.53454
threshold=-0.31301450700954908 -1.0216174756217298 1.1852529381396286 0.66665011238302163 0.49026163945657791 2.2245043017789476 -0.52697432488802154 1.4070961704887019 -0.72854946509833707 1.9311799207596931 -1.3414912793521392 0.9143769646977058 -0.14467124850484986 -0.65212257895600179 2.0034438142849749 -0.94933357208151958 -0.55408863470965364 -0.84381278655312375 -1.5002142350799736 -1.4160289333755338 1.0721671057571589 2.3451026605489509 -0.72125508023026808 -0.72854946509833707 1.3547961258197025 -1.2331966096576115 -1.0104568848126838 -0.42967241113570359 0.074944476681455152 -0.27318938800142861
decision_type=2 2 2 2 2 2 2 2 2 2 2 2 2 2 2 2 2 2 2 2 2 2 2 2 2 2 2 2 2 2
left_child=1 6 4 7 9 15 10 8 22 16 24 23 27 -8 -13 26 28 -6 -10 -15 -21 -14 -3 -5 -1 -7 -4 -12 -2 -11
right_child=2 3 5 11 17 25 13 -9 18 29 12 14 21 19 -16 -17 -18 -19 -20 20 -22 -23 -24 -25 -26 -27 -28 -29 -30 -31
leaf_value=-0.014153458053271686 -6.3528733257245076e-05 -0.010947945869280258 0.0061844213982055344 -0.004909703501812487 0.0041579177551901393 0.012577976760159832 -0.016275626194857739 -0.012475861367281293 -0.02195705620793351 -0.0086915715359222896 -0.017864331803721142 0.0031101916960707106 -0.0042433231264347188 -0.016033856840423369 0.025099769049109179 0.01239459310913269 0.0045954039497669401 0.0072040741572421034 -0.0032695724683584147 -0.012772495280043736 -0.0062076392528921959 0.021843820316717028 -0.0064983597637444422 -0.00044018146598983249 -0.0066429051416562902 0.019835225404851844 0.010817217655242677 -0.0093810918932831187 0.0034294178731742592 0.00055539434815141109
leaf_count=2250 1954 1603 1522 1803 3035 452 4085 1518 61 306 240 380 830 1617 65 3874 15224 13111 3739 4178 634 30 2536 1875 359 1043 1481 2387 3666 434
internal_value=0 -0.0950265 0.0622283 -0.0540473 0.0495791 0.119234 -0.12853 -0.0703522 -0.0599492 0.0370598 -0.104621 -0.0166485 -0.084734 -0.142393 0.0632215 0.106805 0.0395359 0.0663148 -0.0356956 -0.129454 -0.119075 -0.0333331 -0.0822165 -0.026312 -0.1312 0.176411 0.0846919 -0.101561 0.0221497 -0.0326835
internal_count=76292 30190 46102 13580 37730 8372 16610 9457 7939 21584 6096 4123 3487 10514 445 6877 20844 16146 3800 6429 4812 860 4139 3678 2609 1495 3003 2627 5620 740
shrinkage=0.1


Tree=22
num_leaves=31
num_cat=0
split_feature=0 0 0 0 0 1 1 1 1 0 3 3 1 4 0 4 1 0 2 4 1 2 1 4 2 3 2 4 1 0
split_gain=366.208 34.8367 18.5303 12.968 9.21271 6.28912 4.21228 3.35815 3.29924 3.05875 4.22893 2.90567 2.85996 2.79026 2.54717 2.3312 2.31806 2.13735 2.05253 2.04443 2.00284 1.79042 1.73581 1.71595 1.55421 1.54522 1.51103 1.4857 1.1347 1.12118
threshold=-0.57582411814367085 0.77075172932232394 -1.0909912749954547 -0.15501289156419815 1.5765895151498126 -0.10327087703679581 0.20212267461472153 0.83947532784285672 0.98059652006704812 -1.4907287156183666 2.7916466925284027 -1.3513174489281523 -1.7883787259629529 -0.58864886456218046 2.6325619666086619 2.2251972174400625 -1.3685042241410372 -0.81843162635220235 2.2674005553471424 0.21858471160572637 -1.450015958005469 0.019158737588015996 -1.6219690523867547 0.66266871961385865 1.3705161983881193 -0.11944410249592326 0.67040246783617308 1.8133348945684302 2.0034438142849749 -1.2779397121412996
decision_type=2 2 2 2 2 2 2 2 2 2 2 2 2 2 2 2 2 2 2 2 2 2 2 2 2 2 2 2 2 2
left_child=2 3 6 7 20 11 25 16 17 15 13 -4 -5 -11 22 -8 -2 24 19 -14 -3 -18 -6 -9 -7 -1 -13 -10 -29 -27
right_child=1 4 5 12 14 8 9 23 27 10 -12 26 18 -15 -16 -17 21 -19 -20 -21 -22 -23 -24 -25 -26 29 -28 28 -30 -31
leaf_value=-0.01642579131586926 -0.016856960129105949 0.0026400747511679781 -0.019725750626236563 -0.016090287696237868 0.0072469061255802745 -0.0069428718297911687 -0.015607345828522929 0.0019278259625020362 -0.0020900992801357416 -0.012280263732995315 0.0038670028623891996 -0.0075636363317678774 0.0038204984846724149 -0.0083599152493301614 0.018810211820463427 -0.0064009494818917934 -9.8023573088606037e-05 -0.0039668270707279383 -0.0019701884372993355 0.0059146626375976763 0.0077536232004088174 -0.0040952417830158261 0.012780536142606484 0.012000479379136009 -0.013229294046792678 -0.014665867392322417 -0.012200904149194419 0.0036915939755272119 0.026496663279831412 -0.010709596685058562
leaf_count=2050 107 826 301 70 689 3704 1731 905 1657 3430 220 1766 21920 3857 598 327 2400 2633 538 5921 10536 2102 3198 208 440 1547 1167 80 30 1334
internal_value=0 0.0502139 -0.0955926 0.0322418 0.0889674 -0.0661303 -0.119531 -0.011196 -0.0519136 -0.107291 -0.0979283 -0.10369 0.0409785 -0.102052 0.127344 -0.141445 -0.0231008 -0.0619477 0.0414765 0.0426587 0.0738188 -0.0196434 0.117997 0.0381023 -0.0761035 -0.143272 -0.0940874 -0.0134299 0.0991116 -0.12834
internal_count=76292 50018 26274 34171 15847 11778 14496 5722 8544 9565 7507 3234 28449 7287 4485 2058 4609 6777 28379 27841 11362 4502 3887 1113 4144 4931 2933 1767 110 2881
shrinkage=0.1


Tree=23
num_leaves=31
num_cat=0
split_feature=0 0 0 0 0 2 2 4 0 1 3 1 2 3 3 0 4 1 1 1 4 0 0 3 0 0 1 3 1 1
split_gain=296.672 28.1385 22.6335 5.42237 5.24903 5.59973 4.86323 4.35778 4.21285 3.40417 2.95439 2.85445 2.5622 2.38862 2.2741 2.21537 2.72674 2.1261 2.05629 1.82681 1.76287 1.75935 1.63757 1.48575 1.77049 1.47163 1.43035 1.41505 1.33319 1.24491
threshold=-0.31301450700954908 -0.89705525484351634 0.98676993870582441 2.1262710561133114 -1.2606682140473293 1.1517369566332663 -0.37301523971313205 -0.63482302342419072 0.131707347095395 0.32332166458422873 -1.2331966096576115 1.4406383970749363 1.1229634078221267 1.4397597396193038 -1.6786060790700785 -1.7154069441858344 1.2507527360692665 -1.7025594709069158 1.2500313156343261 -0.4126433745809352 -0.2599890846523471 1.4276167150074057 0.58348098187030351 0.54881871605043453 -1.4738974000238365 -0.74448300642654941 -0.54996425295798723 -1.3444796093157161 -0.089127745539044206 -1.7025594709069158
decision_type=2 2 2 2 2 2 2 2 2 2 2 2 2 2 2 2 2 2 2 2 2 2 2 2 2 2 2 2 2 2
left_child=1 4 8 17 11 7 20 19 9 12 29 23 -2 -9 -10 -13 -17 -4 25 -6 -3 -19 28 -1 -25 -12 -24 -5 -16 -8
right_child=2 6 3 27 5 -7 10 13 14 -11 18 15 -14 -15 22 16 -18 21 -20 -21 -22 -23 26 24 -26 -27 -28 -29 -30 -31
leaf_value=-0.014169038636050044 0.00071036970171190156 -0.0021121989859560894 0.0023455844936870855 0.0086194324656389664 -0.014850653542926898 -0.013742308950778903 -0.025081049829296875 -0.0064371229756786247 -0.0054370549823494355 0.0038241660681842867 -0.0072556205613280543 -0.013548948547297022 -0.00636226733120673 -0.00045692224999769942 0.0029591901358935403 -0.0077997178692145496 0.004884341751034308 0.0072515122301695647 0.0039366940989593157 -0.0089793059808026647 0.0024579189443764216 0.010129586870597189 0.0038754545589572789 -0.014416564166510899 -0.0099371066189591836 -0.0037953853312013806 0.0063957884846084535 0.015441080584315979 0.0047174696860761006 -0.010542539767762224
leaf_count=3145 3168 2739 627 388 615 1701 68 4234 235 3734 1848 440 611 793 8437 774 217 5468 273 3831 1220 3473 3537 1265 2917 3670 6197 1406 8821 440
internal_value=0 -0.0770596 0.0504627 0.0892066 -0.0989612 -0.0845943 -0.0345034 -0.0751082 0.0377912 0.0168276 -0.0517653 -0.117291 -0.00433155 -0.0549376 0.0435758 -0.0764404 -0.0502228 0.0797471 -0.0453509 -0.0979147 -0.00703878 0.0836946 0.0444286 -0.12527 -0.112921 -0.0495423 0.0547999 0.139657 0.0385789 -0.124886
internal_count=76292 30190 46102 11362 19932 11174 10258 9473 34740 7513 6299 8758 3779 5027 27227 1431 991 9568 5791 4446 3959 8941 26992 7327 4182 5518 9734 1794 17258 508
shrinkage=0.1


Tree=24
num_leaves=31
num_cat=0
split_feature=0 0 0 0 0 3 3 2 3 1 4 1 2 1 4 3 3 4 4 0 3 3 2 2 0 3 4 1 0 1
split_gain=241.301 23.0757 12.5332 7.88579 7.09174 5.14919 3.59945 3.32037 2.50336 2.45506 2.132 2.01696 1.91012 1.8521 1.81269 1.78161 1.76982 1.75885 1.74731 1.78598 2.36262 1.58731 1.528 1.50374 1.46487 1.25142 1.21919 1.13308 1.33515 1.11914
threshold=-0.57582411814367085 0.67768610206528324 -1.1198905323547852 0.014277568472814677 1.7024920417005756 0.20995206073336556 -0.11934436203275199 -0.52697432488802154 -1.4562173283384101 1.6758386865234318 -0.092770034088779929 -0.9125707963825056 -0.27330622560377388 -1.2974685377095114 3.7897647121687759 -1.4811851677334424 -1.4562173283384101 -0.67515231516669083 -0.29459607782052577 -1.5936738041911018 3.5005238089258057 -1.6786060790700785 1.8081908046239703 2.0701789755184161 1.2567209427829689 5.9121285089995448 -0.28884757845949566 -0.56009803760639465 -1.4160289333755338 1.8110825147349596
decision_type=2 2 2 2 2 2 2 2 2 2 2 2 2 2 2 2 2 2 2 2 2 2 2 2 2 2 2 2 2 2
left_child=2 3 7 6 13 8 16 18 -4 12 -8 21 -7 -3 15 -6 -2 -9 -1 25 -21 -5 26 -18 -15 -20 -10 -19 -29 -12
right_child=1 4 5 11 14 9 10 17 22 -11 29 -13 -14 24 -16 -17 23 27 19 20 -22 -23 -24 -25 -26 -27 -28 28 -30 -31
leaf_value=-0.0093256552942726553 -0.01132400057094648 0.0027761467059796568 -0.017321273492822198 -0.017794382076393066 0.0031423772865457524 -0.0022512166569674144 8.9499535387664667e-05 -0.013021063858306326 -0.0074299719134737754 0.006128235129679839 0.004184439033428306 0.0035703411275156724 -0.0057804618226273636 0.0057487010051180719 0.018518696394740877 0.010994254344056365 -0.0013649892587249582 -0.015096504949228959 -0.012842466015774053 -0.0047654659453737116 0.013002601333103981 -2.9519377622241439e-05 -0.01138735220177447 -0.0086338513290267118 0.0082550209612110466 0.0022834146328802622 -0.0039601901405320909 -0.012002761580440793 -0.0085076186457941731 0.019699607259826737
leaf_count=3122 219 1647 251 53 320 3275 3029 3014 3915 254 1479 22611 2884 9959 287 2981 3040 406 415 1420 79 986 739 314 3045 63 1366 1594 3477 48
internal_value=0 0.0407606 -0.0775962 0.0244884 0.0691126 -0.0549889 -0.00238048 -0.0986963 -0.0753641 -0.0350647 0.0162543 0.0337238 -0.0390381 0.0593544 0.108958 0.102331 -0.026142 -0.110809 -0.0785256 -0.0552631 -0.0382906 -0.00935715 -0.0712844 -0.020455 0.0633558 -0.108489 -0.0653247 -0.100133 -0.0960627 0.0467215
internal_count=76292 50018 26274 31779 18239 12684 8129 13590 6271 6413 4556 23650 6159 14651 3588 3301 3573 8491 5099 1977 1499 1039 6020 3354 13004 478 5281 5477 5071 1527
shrinkage=0.1


Tree=25
num_leaves=31
num_cat=0
split_feature=0 0 0 0 0 3 4 1 2 0 4 1 2 3 2 0 1 1 4 3 0 0 4 3 1 2 1 3 0 2
split_gain=195.511 19.2798 9.88138 8.561 3.86196 3.7041 3.61139 3.4261 3.17076 3.09928 2.34322 2.27771 2.13605 1.79645 1.70723 1.64963 3.90793 1.58119 1.4811 1.37107 1.35048 1.34002 1.31197 1.16508 1.12165 1.0969 1.05889 1.03633 1.00824 0.956474
threshold=-0.59351689323995926 0.95578280481998212 -1.0216174756217298 0.040824407618050652 1.969631830824061 -0.5649118086377739 0.97980784722849545 0.39551094817308313 0.99905777472989798 -1.3317749394828595 -0.45607182802938723 -0.4126433745809352 0.14730675911920885 -1.5672459861116523 0.82875941496014993 -1.7154069441858344 3.0933760734887712 -1.7883787259629529 1.2027764205427631 2.2285049644606554 0.48278421375974795 -0.2355354103177015 5.4883402396318104 -1.4811851677334424 -0.11614573364101884 -0.47140657301246447 -0.37876402961976097 -1.0211061714599834 -1.4160289333755338 0.86843471314905984
decision_type=2 2 2 2 2 2 2 2 2 2 2 2 2 2 2 2 2 2 2 2 2 2 2 2 2 2 2 2 2 2
left_child=2 3 6 7 14 17 8 12 9 -1 25 -11 -2 29 -3 -8 28 -4 21 -12 24 -9 23 -6 -15 -7 -22 -14 -17 -5
right_child=1 4 5 13 22 10 15 18 -10 11 19 -13 27 20 -16 16 -18 -19 -20 -21 26 -23 -24 -25 -26 -27 -28 -29 -30 -31
leaf_value=-0.010430466430284493 -2.3612017740444198e-05 0.0068413813828867688 -0.021195442361188019 0.00024799469946599302 0.0034756516735988522 -0.0029455396141166452 -0.010764197834416279 -0.00025180912495783328 -0.012717652342474834 -0.011916781445271842 -0.0017813460316275502 -0.006626866422963118 -0.0081290968510486922 0.0018038467160414824 0.0032574029581543375 -0.0075224173532749518 0.021436735754832625 -0.0076353506145852099 0.0077319752297738634 0.0088633303170181105 0.0032499609280648698 0.0034415098498052675 0.022252294576089633 0.011007674193992201 0.0035148126866697453 -0.0062694815710262197 0.0050911645930247331 -0.0030822575253139891 -0.0018029549181598917 -0.0097192743417649514
leaf_count=4859 2418 7973 90 299 228 1634 310 2392 1998 919 3051 7121 543 6155 1595 481 64 1931 388 126 5763 1667 95 2069 10150 2530 6820 1623 858 142
internal_value=0 0.0363687 -0.0704634 0.0254391 0.0714241 -0.0444823 -0.0851072 -0.00148269 -0.0901074 -0.0843655 -0.0340456 -0.0723152 -0.0206669 0.0337288 0.0624393 -0.0416239 -0.0270368 -0.0823921 0.0182925 -0.0135918 0.0346958 0.0126501 0.107363 0.1026 0.0286894 -0.0496513 0.042479 -0.0434746 -0.0385752 -0.0296142
internal_count=76292 50320 25972 38360 11960 9362 16610 9031 14897 12899 7341 8040 4584 29329 9568 1713 1403 2021 4447 3177 28888 4059 2392 2297 16305 4164 12583 2166 1339 441
shrinkage=0.1


Tree=26
num_leaves=31
num_cat=0
split_feature=0 0 0 2 0 3 1 0 0 4 1 0 3 1 2 1 2 4 3 1 2 1 0 0 4 2 1 0 4 3
split_gain=158.67 15.9836 12.5271 4.17713 3.45121 3.24057 2.4473 2.74324 2.40919 2.34423 2.279 2.07921 2.05959 1.87658 1.73319 1.51972 1.51956 1.41168 1.37137 1.35445 1.24761 1.20289 1.43096 1.11547 1.09303 1.06601 1.05341 1.02176 1.00914 0.976762
threshold=-0.31301450700954908 -0.85837176720048736 1.2803633889420267 -0.47965069565082091 0.35702463854003819 1.2085100899463208 -0.47377454599429775 -1.200463820977322 -1.3317749394828595 -0.72125508023026808 -1.2974685377095114 2.3323566547610293 -1.5677080874450049 -1.0257572792732812 2.0000710880351593 0.10358758671313363 1.6958336139432164 2.3725363790395044 -0.90198291155646049 2.3451026605489509 1.3705161983881193 2.0034438142849749 -1.7154069441858344 0.65898304054947909 -0.19082327430917514 0.74204777156817958 1.1209144403463456 -1.5936738041911018 -0.41570147200638857 -1.2331966096576115
decision_type=2 2 2 2 2 2 2 2 2 2 2 2 2 2 2 2 2 2 2 2 2 2 2 2 2 2 2 2 2 2
left_child=1 3 4 8 10 12 -5 24 21 -10 -2 18 -3 25 26 16 -12 -7 -4 -11 -9 27 -23 -15 -8 -6 -14 -1 -17 -13
right_child=2 5 11 6 13 17 7 20 9 19 15 29 14 23 -16 28 -18 -19 -20 -21 -22 22 -24 -25 -26 -27 -28 -29 -30 -31
leaf_value=-0.013272864789515735 -0.013397909796403089 -0.014647184928322236 0.0050371015251961205 -0.011859577018717662 0.0026133065152904988 0.0014995603792413315 -0.010343259543852403 -0.0054924609152307187 -0.0066636926073309058 -0.0025037703506491887 0.0013055077475951212 0.0071074094881536445 -0.002625713371789178 0.0033713674711686771 -0.0080259792570875066 0.0016338554986474367 -0.0044221013437289649 0.014605146136124281 0.0080930000310174 0.014978369314016568 -0.0095566753534758603 -0.0080381163292215767 0.0041546511629564787 0.004861893487025975 -0.0075104759127300582 -0.0019246240948711251 0.0024543734834141053 -0.007610739665058909 0.0037841488970205132 0.013267296186084524
leaf_count=375 97 148 2592 1664 1559 1245 3603 4618 2007 2922 7005 375 6862 10240 575 3831 496 88 3388 45 903 211 177 9851 2190 775 434 2123 5072 821
internal_value=0 -0.0563556 0.0369046 -0.0717701 0.029827 -0.0220092 -0.0827885 -0.0775222 -0.0535771 -0.0402413 0.0188501 0.0752968 -0.0295987 0.0379041 -0.0274011 0.0197539 0.00926772 0.0236475 0.0676844 -0.0223862 -0.0615719 -0.0765613 -0.0247595 0.041022 -0.0927235 0.011065 -0.0232353 -0.0846074 0.0285887 0.113359
internal_count=76292 30190 46102 20838 38926 9352 12978 11314 7860 4974 16501 7176 8019 22425 7871 16404 7501 1333 5980 2967 5521 2886 388 20091 5793 2334 7296 2498 8903 1196
shrinkage=0.1


Tree=27
num_leaves=31
num_cat=0
split_feature=0 0 0 0 3 0 1 1 4 2 0 1 1 2 3 1 4 3 3 4 3 2 4 1 4 2 1 1 2 4
split_gain=128.975 13.0601 6.35107 5.32624 3.87904 3.40005 2.73827 2.66439 2.38491 2.01685 1.59795 2.56749 1.53759 1.53519 1.48816 1.48331 1.44447 1.3959 1.37527 1.31556 1.23497 1.16932 1.08872 1.14857 1.05036 1.00344 0.984402 0.980407 1.21008 0.97048
threshold=-0.61201385787931628 0.79757718273762845 -1.1557732715599049 0.028079027232443998 -0.23075568897731999 1.8133846750873588 0.83947532784285672 0.83947532784285672 0.39055148425451336 0.26191980413726917 -1.5592680826168939 2.3451026605489509 -0.40418832162730756 1.3705161983881193 -1.5672459861116523 -0.93109736755210537 -0.53679196614948099 -0.11944410249592326 -1.6786060790700785 -0.80177258092506476 5.9121285089995448 0.82875941496014993 4.3567131002159565 -1.6219690523867547 1.9890806770067233 1.4445278024469135 2.3451026605489509 -0.53920591016367825 0.028052406547725565 -0.31192294114024594
decision_type=2 2 2 2 2 2 2 2 2 2 2 2 2 2 2 2 2 2 2 2 2 2 2 2 2 2 2 2 2 2
left_child=2 3 7 6 15 14 9 21 13 29 20 16 18 19 -3 -4 -12 -14 -5 -6 -9 -1 23 -7 -8 -20 -10 28 -16 -2
right_child=1 5 4 12 8 22 24 10 26 -11 11 -13 17 -15 27 -17 -18 -19 25 -21 -22 -23 -24 -25 -26 -27 -28 -29 -30 -31
leaf_value=-0.0078959081663684521 -0.00085275972094346229 -0.00098789174465753471 -0.011461069364320481 -0.0084646966871575937 -0.0054158800041226203 0.0042088888324886709 0.0028315087282785312 -0.009788186487580541 0.00032806562766505345 -0.0031482671830913912 -0.0073970570938620694 0.0095175058284120359 0.0039506050474058347 -0.0085934727191284872 0.005293711557587703 -0.0060369019426732328 -0.0029111221511829936 0.0022625940412496761 0.0018953834023828107 -0.0024858577840197954 0.0019989172405354221 -0.01103848121857778 0.015582750235204963 0.0090078348677723376 0.01312916107115529 -0.0022969779958416071 0.016657449034238724 0.0059035606105384761 0.0026040796253161053 0.0021580418113638089
leaf_count=6815 2918 453 589 142 2199 650 1511 956 1296 2807 1235 131 9017 611 3654 3500 1714 10727 5821 5055 98 1433 197 2143 106 633 38 5067 3085 1691
internal_value=0 0.029279 -0.0577391 0.018733 -0.0425555 0.0537425 -0.00222096 -0.0740338 -0.0311642 -0.010351 -0.0533136 -0.0418125 0.0259189 -0.0377955 0.0463681 -0.0681823 -0.0478977 0.030335 0.0127002 -0.0337407 -0.0869223 -0.084419 0.0839778 0.07891 0.0350656 0.014842 0.0079322 0.0485263 0.0406244 0.00251876
internal_count=76292 50622 25670 35373 13288 15249 9033 12382 9199 7416 4134 3080 26340 7865 12259 4089 2949 19744 6596 7254 1054 8248 2990 2793 1617 6454 1334 11806 6739 4609
shrinkage=0.1


Tree=28
num_leaves=31
num_cat=0
split_feature=0 0 0 0 0 2 4 3 1 0 3 1 4 1 1 2 3 2 1 3 3 1 3 4 1 0 2 4 3 2
split_gain=104.793 11.4957 4.29482 4.26947 4.09861 3.1174 2.46854 2.36411 2.0072 1.79806 2.00021 1.69616 1.55535 1.55002 1.48654 1.47863 1.37243 1.29293 1.21961 1.13631 1.1221 1.10657 1.10338 1.06203 1.00616 1.06067 0.983557 0.939664 0.935479 0.903743
threshold=-0.66393921943403633 0.5740929395090445 -1.1557732715599049 -0.2355354103177015 1.3991793056306616 1.3705161983881193 -0.7097678575813583 1.2980695846028694 -1.7883787259629529 -1.5936738041911018 3.7232863292564535 0.96165660181855406 0.21858471160572637 -0.61167155203286916 -2.0424565030899737 -0.79138349410517472 -1.4562173283384101 0.028052406547725565 -0.25786943986354677 -0.63114823086871963 -1.2331179638919947 1.8110825147349596 5.9121285089995448 2.0985441944605463 -0.19251836580227111 -1.4907287156183666 2.0701789755184161 -0.80177258092506476 -1.2331966096576115 -0.81994026777932849
decision_type=2 2 2 2 2 2 2 2 2 2 2 2 2 2 2 2 2 2 2 2 2 2 2 2 2 2 2 2 2 2
left_child=2 3 7 11 13 6 18 24 -5 22 29 14 26 20 -2 -8 -7 23 28 -15 -3 -17 -9 -6 -1 -26 -10 -27 -4 -11
right_child=1 4 5 8 17 16 15 9 12 10 -12 -13 -14 19 -16 21 -18 -19 -20 -21 -22 -23 -24 -25 25 27 -28 -29 -30 -31
leaf_value=-0.0096043005485835532 -0.02021679606202037 -0.000197754975475017 -0.016838332838455816 -0.023107121096109396 0.0069970059569842667 -0.021813929468044082 0.00050544521274584751 -0.0096480668248316425 0.0016572460698123484 -0.0010064385306502385 0.0093551617566003543 0.0028518477835080113 0.0035625726590566308 0.0060512987866410874 -0.0015485842705531673 -0.00323663294618562 -0.0074992626491975972 0.0047801310991933774 -0.0044520822299749926 0.0036003766307200142 0.0029904821505404699 0.0078313709074712325 0.001655523780884567 0.011624594604046745 -0.010293754305453597 -0.0084017731714194424 -0.003126897405481114 -0.0057033397998388618 -0.0073475662011811983 -0.0050588895085571604
leaf_count=1867 43 1446 121 32 2954 70 1536 787 18403 798 121 967 4796 2618 5319 4981 1551 2430 3298 6818 4666 92 97 596 852 1857 440 4230 733 1773
internal_value=0 0.025693 -0.0534611 0.0130402 0.0433252 -0.0402918 -0.0341334 -0.0666304 0.0192088 -0.0449469 -0.0320972 -0.0100308 0.0195476 0.034768 -0.0169829 -0.0221286 -0.0811742 0.0655738 -0.0532422 0.0428038 0.022362 -0.0303591 -0.0840774 0.0777392 -0.0754358 -0.0698912 0.0154553 -0.0652657 -0.0869228 -0.0380107
internal_count=76292 51528 24764 30000 21528 12382 10761 12382 23671 3576 2692 6329 23639 15548 5362 6609 1621 5980 4152 9436 6112 5073 884 3550 8806 6939 18843 6087 854 2571
shrinkage=0.1


Tree=29
num_leaves=31
num_cat=0
split_feature=0 0 0 4 2 3 4 0 0 2 1 1 1 2 0 2 1 1 4 1 0 1 1 1 0 3 0 3 0 3
split_gain=84.9327 9.92679 4.92375 3.5613 3.08598 2.68985 2.00939 1.98786 1.78287 1.59847 1.47741 1.46722 1.35296 1.17066 1.14741 1.10307 1.09355 1.02774 1.02542 1.01881 1.01436 0.92599 0.888921 0.813279 1.45284 0.775709 0.777746 0.699321 0.688634 0.586893
threshold=-0.69746316915644835 0.2621825361087986 1.3991793056306616 -0.80177258092506476 -0.610037309841443 -1.4558341567375555 -0.63482302342419072 -1.200463820977322 -1.4039079045583873 1.8081908046239703 0.76560357129325585 -1.7883787259629529 1.0251929074961044 1.6487666653994772 2.6325619666086619 0.82875941496014993 -1.894747505305755 2.3451026605489509 -0.29459607782052577 -1.6219690523867547 -1.3036362551616236 1.2500313156343261 -0.52998082808096447 3.0933760734887712 -1.8680730178123699 0.20995206073336556 -1.370899715967431 -0.57130229297593749 -1.7154069441858344 -0.093896697536236542
decision_type=2 2 2 2 2 2 2 2 2 2 2 2 2 2 2 2 2 2 2 2 2 2 2 2 2 2 2 2 2 2
left_child=3 5 11 15 8 19 -7 25 23 21 -10 -3 13 -8 16 20 -4 -12 -13 -2 -1 -9 -20 28 -25 -6 -27 -18 -5 -16
right_child=1 2 14 4 7 6 12 9 10 -11 17 18 -14 -15 29 -17 27 -19 22 -21 -22 -23 -24 24 -26 26 -28 -29 -30 -31
leaf_value=-0.0087127074353681704 -0.017030680678362841 -0.0046693183860901082 0.00045627228455464718 -0.011581141001928093 -0.0082626185143293597 -0.0010679677057000236 0.0012768351485158216 -0.0037095474131886522 -0.0026132001031050935 -0.0080555534453689154 0.00082477272463710421 0.0019941528732452959 0.0049939275095391561 -0.0025567498099371947 0.0091528459450405473 -0.010137123662322967 0.0049459622086337751 0.014398818903859576 0.0023349554235188386 -0.0047028264217762045 -0.0055710611750926274 0.0012822117267553834 0.0038175391516921372 -0.0061451665308375506 0.013631141837686302 -0.0070411997271522036 -0.004166921707442952 0.0074066036683532012 -0.0050844209563774131 0.020909439750096723
leaf_count=1400 78 265 407 192 1692 5021 11295 5813 2501 833 1456 9877 915 857 552 933 3152 58 6410 477 3865 397 10957 95 61 1997 1781 1823 1086 46
internal_value=0 0.022714 0.0330098 -0.0490119 -0.04188 0.00421941 0.00632347 -0.0505296 -0.0220172 -0.0394219 -0.011207 0.0273564 0.0128569 0.0100648 0.0590164 -0.0696803 0.0543991 0.0134478 0.0280767 -0.0643539 -0.0640645 -0.0339043 0.0327033 -0.0522842 0.0158788 -0.0648317 -0.0568623 0.0584762 -0.0606045 0.100572
internal_count=76292 52132 33489 24160 17962 18643 18088 12513 5449 7043 4015 27509 13067 12152 5980 6198 5382 1514 27244 555 5265 6210 17367 1434 156 5470 3778 4975 1278 598
shrinkage=0.1


Tree=30
num_leaves=31
num_cat=0
split_feature=0 0 0 4 2 2 3 4 4 3 3 0 3 0 1 1 4 1 0 2 1 4 3 1 2 4 2 4 1 2
split_gain=69.6133 7.79917 5.88331 2.69429 2.27439 1.7001 1.67349 1.47048 1.45776 1.43509 1.43452 1.40394 1.30158 1.23981 1.99029 1.26875 1.078 1.00433 1.46684 0.995704 0.925898 0.855312 0.818148 0.740764 0.722315 0.632187 0.612447 0.583772 0.548422 0.533269
threshold=-0.2872839947546863 -0.90836347064132583 1.0412589900762195 -0.016796946941588165 -0.37301523971313205 0.82875941496014993 -1.5672459861116523 1.4703930988168985 -0.62902806911582287 -1.5677080874450049 -1.0104568848126838 -1.3611320004850118 -0.11944410249592326 -1.4907287156183666 1.0721671057571589 3.0933760734887712 -0.20812267931548359 2.3451026605489509 -1.8680730178123699 2.8691552069819584 -0.94933357208151958 0.19551388990312316 0.99437663599087533 1.2500313156343261 2.5111897547093762 5.4883402396318104 -0.75613758989547442 0.33346855929384706 -2.0424565030899737 0.86843471314905984
decision_type=2 2 2 2 2 2 2 2 2 2 2 2 2 2 2 2 2 2 2 2 2 2 2 2 2 2 2 2 2 2
left_child=1 3 6 5 22 11 28 10 -8 -6 20 -1 -13 17 26 -16 19 -5 -19 -11 -4 24 -3 -18 -10 -9 -15 -24 -2 -30
right_child=2 4 7 13 9 -7 8 25 21 16 -12 12 -14 14 15 -17 23 18 -20 -21 -22 -23 27 -25 -26 -27 -28 -29 29 -31
leaf_value=-0.0069600521425953604 -0.018615899137828663 -0.00060709146613441419 0.00069059472307701417 -0.0074680683761567251 -0.013221773916239464 -0.007976980733254797 0.00028014439327211314 0.0066175140771873187 0.0019312280566710664 -0.0030406114461940521 0.0048479215996955821 -0.0064946221496190283 -0.0037547680648274719 -0.00038772639778757363 0.0012583035936133751 0.019263940875236765 -0.0010575589108519491 -0.0075519315403810633 0.0050579341575149039 -0.011322105951607228 0.004652860992025983 0.003069315481333065 0.001315507542695748 0.0062870875173135056 -0.0032540628099976699 0.014821435092722601 -0.0039943096151807507 0.0066418088880847359 -0.0005999191333995184 -0.0071053878045906297
leaf_count=3029 23 2966 1733 891 127 2474 4608 1834 21786 4520 5905 2347 6637 586 860 41 1752 185 184 150 894 8091 933 149 272 99 2396 264 363 193
internal_value=0 -0.0370219 0.0246465 -0.0489182 -0.0155206 -0.0558986 0.0184786 0.0454728 0.0193669 -0.0269291 0.0398306 -0.0509825 -0.0447053 -0.0292555 -0.0204111 0.0207765 -0.0248942 -0.0565119 -0.0126409 -0.0330661 0.02039 0.0218987 0.00283491 -0.00481887 0.0186729 0.0703768 -0.0328557 0.0249023 -0.0348407 -0.0285811
internal_count=76292 30491 45801 19630 10861 14487 35336 10465 34757 6698 8532 12013 8984 5143 3883 901 6571 1260 369 4670 2627 30149 4163 1901 22058 1933 2982 1197 579 556
shrinkage=0.1


Tree=31
num_leaves=31
num_cat=0
split_feature=0 0 0 2 4 3 1 1 0 2 4 0 4 0 3 1 2 1 4 2 4 3 3 3 4 2 1 2 4 2
split_gain=56.4005 6.18906 4.87642 2.55083 2.01583 1.57032 1.52397 1.4024 1.62409 1.40096 1.37706 1.0671 1.05782 1.14549 1.11304 1.03822 0.974651 0.851646 0.751728 0.713369 0.659075 0.608168 0.597079 0.596124 0.555544 0.522936 0.486737 0.522284 0.481008 0.440114
threshold=-0.31301450700954908 -0.81843162635220235 1.0997597207526573 -0.91777517705829437 -0.83073529405514235 1.2085100899463208 -2.0424565030899737 -0.47377454599429775 -1.2869610700202609 0.16772733159674083 -0.57715390566488245 2.2245043017789476 3.3457316159373169 -1.4160289333755338 1.4397597396193038 -1.5002142350799736 1.4812947924681683 -0.66900357939280108 2.3725363790395044 0.39239230964110688 0.1839812878169004 -1.0104568848126838 -1.4558341567375555 -0.34222439489139739 -0.77593981698979175 2.370619278975715 -0.65767560401769209 0.93480572191879796 0.66266871961385865 -1.3197739198737943
decision_type=2 2 2 2 2 2 2 2 2 2 2 2 2 2 2 2 2 2 2 2 2 2 2 2 2 2 2 2 2 2
left_child=1 3 6 12 25 15 -2 21 -9 11 26 -4 13 -1 -15 -3 20 28 -7 24 -12 -6 -18 -13 -17 -5 27 -8 -11 -14
right_child=2 5 9 4 7 18 10 8 -10 17 16 23 29 14 -16 19 22 -19 -20 -21 -22 -23 -24 -25 -26 -27 -28 -29 -30 -31
leaf_value=-0.0052433789190397366 -0.013066937491031631 -0.010078038172927541 0.0045077443895325678 -0.0065894325237141798 -0.011017680175376011 0.0016389512507626323 -0.00072870836373269956 -0.005307557023782019 -0.0029471307235616408 0.00021864258670581651 0.0018329011169708172 0.0069570322997953961 0.016611553517807472 -0.0021784452957909002 0.0028191432374813411 -0.0024163219147909703 -0.0055516039676546973 0.0050884875864425664 0.01162217409216316 -0.0027854071174982916 0.0029050264651858688 -0.0060490468395608017 0.00042753152535289523 0.013420134896090639 7.9285626617582662e-06 -0.014612128844776426 0.00063067750906511922 -0.0080173926937166361 0.003041260970338295 0.0030642539441872105
leaf_count=937 70 142 5127 3847 309 1096 394 4694 7691 1259 19922 889 38 2313 552 1333 183 963 81 2544 8051 1215 1912 170 3250 83 5871 131 1160 65
internal_value=0 -0.0335993 0.0220026 -0.0425228 -0.0475904 -0.0106259 0.0167394 -0.0419398 -0.0384175 0.0420995 0.0170223 0.0510466 -0.0193731 -0.0220821 -0.0121556 -0.0161127 0.0198566 0.0257343 0.0232599 -0.0144258 0.0214147 -0.0705647 -0.00094751 0.0799455 -0.00697183 -0.0675887 0.00369812 -0.0254741 0.0157219 0.0806229
internal_count=76292 30190 46102 21744 17839 8446 36534 13909 12385 9568 36464 6186 3905 3802 2865 7269 30068 3382 1177 7127 27973 1524 2095 1059 4583 3930 6396 525 2419 103
shrinkage=0.1


Tree=32
num_leaves=31
num_cat=0
split_feature=0 0 0 4 4 2 3 0 4 3 2 4 2 3 0 1 0 0 3 2 2 4 0 0 3 1 0 3 1 1
split_gain=45.8088 5.62144 3.837 2.10633 1.95237 1.52891 1.37973 1.36099 1.49608 1.33696 1.29629 1.1766 1.04089 0.987754 1.03971 0.882169 1.54363 0.801999 0.705707 0.668113 0.65427 0.645112 0.574011 0.52399 0.510984 0.49406 0.493764 0.489298 0.470739 0.438369
threshold=-0.2355354103177015 -0.96694488954339752 1.3328037165763191 1.5917344135914564 -0.45607182802938723 0.82875941496014993 -1.4562173283384101 -1.4907287156183666 -0.85378578452195697 1.8885797020981447 1.5614120632346939 -0.29459607782052577 2.5111897547093762 -1.3444796093157161 2.4469403816592266 3.0933760734887712 -1.8680730178123699 -1.4160289333755338 -1.2331179638919947 -0.77362519923013495 -0.23769078025402371 2.3725363790395044 0.58348098187030351 0.5740929395090445 1.8885797020981447 0.87314177045283514 0.34815476394072414 -0.57130229297593749 -1.3685042241410372 0.054635375132252577
decision_type=2 2 2 2 2 2 2 2 2 2 2 2 2 2 2 2 2 2 2 2 2 2 2 2 2 2 2 2 2 2
left_child=1 3 10 5 6 7 -3 -1 -9 19 11 23 20 -4 27 17 -17 -5 22 -6 -8 -11 -12 29 -19 26 -13 -15 -21 -2
right_child=2 4 13 15 9 -7 12 8 -10 21 18 25 -14 14 -16 16 -18 24 -20 28 -22 -23 -24 -25 -26 -27 -28 -29 -30 -31
leaf_value=-0.0065371890879427257 0.00018403892859912701 -0.010073055713651011 0.0015626863830864445 -0.0042456341644865466 0.0019643347288947973 -0.0064729509761775328 -0.00094259114950485674 -0.0055111587948953322 -0.0029444966130196416 0.0042095268313142439 -0.0077509046656981679 0.0014797795726103312 -0.0090735310095060671 0.0034470941037142927 0.008551465608990446 -0.0022608859877538963 0.017009347847973307 -9.9774312160385442e-05 0.00028129238327648812 -0.0075371084617251909 -0.0028878144016103138 0.015753582883894165 -0.00098254093644901193 0.0021149789983931949 0.0074372488226477811 0.0055610026593931258 0.0025398690043309923 0.0054916372704662793 -0.00069371949195287793 0.0014274836850854946
leaf_count=1771 5870 229 1122 450 1043 2884 3253 3006 9288 209 223 6366 213 2774 657 89 78 441 1755 103 3691 63 286 4005 113 450 14182 2025 4169 5484
internal_value=0 -0.0295439 0.0203237 -0.0409211 -0.0136529 -0.043755 -0.0243225 -0.0394542 -0.0357207 0.000452173 0.0165212 0.0179669 -0.0218776 0.0426489 0.0482059 9.72122e-05 0.0673958 -0.0110969 -0.00669519 -0.0030473 -0.0197655 0.0688333 -0.0394786 0.0113153 0.0143756 0.0228322 0.0221144 0.0430982 -0.00858717 0.00784625
internal_count=76292 31093 45199 18120 12973 16949 7386 14065 12294 5587 38621 36357 7157 6578 5456 1171 167 1004 2264 5315 6944 272 509 15359 554 20998 20548 4799 4272 11354
shrinkage=0.1


Tree=33
num_leaves=31
num_cat=0
split_feature=0 0 4 1 0 1 0 4 0 1 1 3 2 1 1 0 3 1 3 0 1 4 2 2 3 4 2 1 0 3
split_gain=37.2889 4.78645 2.27226 1.89849 1.87515 1.79637 1.67209 1.23742 1.18625 1.74045 1.00914 1.20625 1.01891 0.973806 0.874199 1.1471 0.856041 0.792226 0.773994 1.03768 0.763496 0.884936 0.733807 0.667797 0.663413 0.583662 0.539146 0.506376 0.490928 0.580266
threshold=-0.69746316915644835 0.4360231560008021 -0.20812267931548359 -0.9125707963825056 1.5442343365812334 -0.24319185250341727 -1.2172848108913441 -0.79610748271613341 -1.4907287156183666 1.0721671057571589 -0.5022630024929533 -0.56488599036579956 0.537416731905351 3.0933760734887712 0.83947532784285672 0.10440270476870479 -0.6802745808585019 -1.894747505305755 3.5005238089258057 -1.7154069441858344 -1.0052261792774517 5.4883402396318104 2.2674005553471424 -0.63437790851271958 -1.5672459861116523 4.3567131002159565 -0.80017032878391936 -2.0424565030899737 -1.5936738041911018 1.9986581234599838
decision_type=2 2 2 2 2 2 2 2 2 2 2 2 2 2 2 2 2 2 2 2 2 2 2 2 2 2 2 2 2 2
left_child=2 3 5 17 10 16 28 -5 18 23 12 -12 -3 -11 15 -9 27 -2 -4 -20 21 24 26 -10 -6 -25 -8 -1 -7 -30
right_child=1 4 8 7 20 6 22 14 9 13 11 -13 -14 -15 -16 -17 -18 -19 19 -21 -22 -23 -24 25 -26 -27 -28 -29 29 -31
leaf_value=-0.020153114276335524 -0.013420642188739505 0.001947532417523325 -0.0058291548380019391 -0.0014608175678490222 -0.0019180584548400895 -0.0085827722029578526 -0.00077803028670006807 -0.00017749807791350817 -4.4260001658471246e-05 0.0015000838537351322 0.0042129575670610472 0.0020178898119601937 -0.00030536757723048755 0.016634622645903041 0.0029040055127622475 0.0013466170626012283 -0.004764939904253947 -0.0032649970938908204 -0.0037326914832495582 0.0078801401959554783 0.0056543792146630488 0.013536795565882062 -0.0089268912447545666 -0.0029126153572683038 0.0033368189069796213 0.0063693640605155108 -0.0027706519045253009 -0.0077748346805020397 -0.0047416655696842563 0.00024565645745404217
leaf_count=34 87 6907 1055 2443 268 313 1775 8448 1208 1259 3540 8550 2830 44 2001 11886 2029 656 288 105 2117 79 171 3726 2320 69 5778 1181 4880 245
internal_value=0 0.0150503 -0.0324753 0.00526589 0.024434 -0.0391425 -0.0339476 0.00675943 -0.0183689 -0.0124419 0.0205041 0.0266061 0.0129274 0.0201115 0.00909662 0.00713405 -0.0602199 -0.0445415 -0.0441807 -0.00630027 0.0423644 0.0311091 -0.0244903 -0.0209202 0.0279265 -0.0274385 -0.0230237 -0.0812122 -0.0473806 -0.0450325
internal_count=76292 52132 24160 25521 26611 16406 13162 24778 7754 6306 21827 12090 9737 1303 22335 20334 3244 743 1448 393 4784 2667 7724 5003 2588 3795 7553 1215 5438 5125
shrinkage=0.1


Tree=34
num_leaves=31
num_cat=0
split_feature=0 0 1 3 4 2 1 0 0 1 1 2 0 3 0 1 4 4 3 1 2 3 2 3 4 3 3 2 0 0
split_gain=30.3048 4.15531 1.88808 1.7041 1.4471 1.34869 1.24745 1.41093 1.16679 1.02393 0.969999 0.89349 0.869163 1.12331 0.862889 0.794373 0.771364 0.746028 0.590779 0.580156 0.818644 0.770675 0.578615 0.553845 0.541055 0.540268 0.526602 0.478578 0.47593 0.465996
threshold=-0.72854946509833707 0.65898304054947909 0.66665011238302163 -1.6786060790700785 -0.66364532370687956 -0.87648550835917771 -0.9125707963825056 -1.200463820977322 2.1262710561133114 -2.0424565030899737 -0.10327087703679581 2.370619278975715 -1.7154069441858344 3.5005238089258057 -1.3036362551616236 1.8110825147349596 -0.73175790184597478 0.9143769646977058 -1.0104568848126838 -0.53920591016367825 0.028052406547725565 -0.56488599036579956 0.55079563086952044 0.10002006713726637 2.2251972174400625 5.9121285089995448 -1.149883007809825 2.5111897547093762 -1.4039079045583873 -1.8680730178123699
decision_type=2 2 2 2 2 2 2 2 2 2 2 2 2 2 2 2 2 2 2 2 2 2 2 2 2 2 2 2 2 2
left_child=2 3 6 -2 -5 12 18 23 9 -3 11 -6 -4 28 24 -12 27 -16 -1 20 -11 -21 -18 -8 25 -7 -10 -9 -14 -26
right_child=1 8 5 4 10 14 7 16 26 19 15 -13 13 -15 17 -17 22 -19 -20 21 -22 -23 -24 -25 29 -27 -28 -29 -30 -31
leaf_value=-0.010682115261047724 -0.0067340842727496132 -0.0039599684860037931 -0.0060054898216621959 -0.00065222875107111083 0.00048962191139883269 -0.0046023761673361198 -0.0059192640162970007 -0.0036468248236772418 0.0027108913680312379 0.0027067944221957773 0.001474185902747821 -0.0042535401825986455 -0.0023442560767966362 0.010924998835115782 -0.0020376579254752156 0.010894467419711874 -0.0010674408648021409 0.0027923280351100054 -0.0053411174688357639 0.004431006500755225 0.00080754130595807403 0.0022996520350101633 -0.003290529982538939 -0.0038911634921034092 -0.0060998573964461686 0.010801464513592098 0.0062603698985249819 -0.012254299985237816 0.0012501760833259748 0.0033460736350524566
leaf_count=324 308 260 200 6121 10348 2271 2081 3035 663 4890 16619 413 490 106 3309 90 3388 354 574 2537 4235 5121 1789 3815 75 23 1131 66 1484 172
internal_value=0 0.0133203 -0.0298208 0.0067033 0.00738222 -0.0178879 -0.0365378 -0.0342479 0.0252282 0.0226747 0.0104805 0.00307583 0.00291021 0.00896455 -0.0255314 0.0152493 -0.0258277 -0.0157088 -0.0726816 0.0236395 0.0182533 0.0300574 -0.0183567 -0.0460698 -0.0396912 -0.0444793 0.0494861 -0.0383002 0.00357941 0.00477876
internal_count=76292 52736 23556 33899 33591 8484 15072 14174 18837 17043 27470 10761 2280 2080 6204 16709 8278 3663 898 16783 9125 7658 5177 5896 2541 2294 1794 3101 1974 247
shrinkage=0.1


Tree=35
num_leaves=31
num_cat=0
split_feature=0 0 4 3 4 3 3 2 2 4 3 0 0 4 4 0 1 1 0 2 1 4 1 2 0 3 3 3 2 3
split_gain=25.102 3.13899 2.52033 1.45893 1.43065 1.27859 1.08764 1.0654 0.964597 0.882655 0.862709 0.802474 0.774162 0.712939 0.699669 0.640781 1.26344 0.578564 0.860124 0.791645 0.541404 0.684597 0.519254 0.494847 0.531882 0.452241 0.428173 0.402139 0.393271 0.371175
threshold=-0.2355354103177015 -1.0216174756217298 0.39055148425451336 1.2085100899463208 1.0443677150127564 -1.5677080874450049 -1.5672459861116523 0.066801562035486234 3.1882854657240318 -0.85378578452195697 -0.23075568897731999 0.66834140685871579 1.3656332497412846 2.3725363790395044 -0.7155286074357482 -1.7154069441858344 2.3451026605489509 0.054635375132252577 0.13969213757936344 -0.76467143967112572 -0.94933357208151958 5.4883402396318104 -0.37136829069851629 1.8687638595372891 -1.3317749394828595 7.0647241341334608 -1.5672459861116523 -0.42273869351142657 -0.69367056291756413 -0.34212701553437835
decision_type=2 2 2 2 2 2 2 2 2 2 2 2 2 2 2 2 2 2 2 2 2 2 2 2 2 2 2 2 2 2
left_child=1 4 6 5 7 -3 -2 9 14 -1 -11 17 -4 -5 -7 25 -17 18 -8 -19 21 26 28 24 -9 -6 -14 -23 -13 -24
right_child=2 3 12 13 15 8 11 23 -10 10 -12 22 20 -15 -16 16 -18 19 -20 -21 -22 27 29 -25 -26 -27 -28 -29 -30 -31
leaf_value=-0.0044743728681046748 -0.0028933095847648465 -0.00948041938221348 0.002118292613690008 0.00083599590977273801 -0.0057129032019335429 -0.0023163312028063134 -0.0018094914211900953 -0.0057114768357298768 -0.0082007085490636757 -0.0050735229010575025 -0.0017759551450491535 0.0027340760616411603 -0.0012627605068800177 0.0085320682872406916 -0.00071529771448494445 -0.00036488674812421457 0.010125445227292697 -0.00016527838963635287 0.00066804521877523104 0.0019064890112115769 0.0051238588590983222 0.0079179678556101866 0.0039194108290445161 -0.0070429137395247102 -0.0034836021013494728 0.0074191238088854436 0.0030319458791533789 0.024163072099909186 0.0009339645590432851 0.0019255129971146212
leaf_count=2281 681 199 7180 2019 274 4227 1612 1541 205 913 6055 1566 257 128 7705 1196 127 2478 10719 7213 1816 64 1652 676 3518 29 2400 20 5394 2147
internal_value=0 -0.0218699 0.0150446 -0.0111098 -0.0312522 -0.0152969 0.0106221 -0.0343095 -0.0139933 -0.0276696 -0.0220803 0.0114439 0.0276531 0.0129482 -0.0128248 -0.00307905 0.00642122 0.00798557 0.00344163 0.0137674 0.0378474 0.0289754 0.0185225 -0.0450178 -0.0416223 -0.0445604 0.0261654 0.117858 0.0133899 0.0279256
internal_count=76292 31093 45199 14483 16610 12336 33462 14984 12137 9249 6968 32781 11737 2147 11932 1626 1323 22022 12331 9691 4557 2741 10759 5735 5059 303 2657 84 6960 3799
shrinkage=0.1


Tree=36
num_leaves=31
num_cat=0
split_feature=0 0 4 2 4 1 3 2 1 0 0 4 1 0 3 0 0 0 1 3 2 2 4 1 1 2 1 0 1 3
split_gain=20.3326 2.57447 2.08422 1.42307 1.07085 1.04595 0.97384 0.802129 0.778577 0.874656 0.690485 0.63974 0.595624 0.799188 0.825403 0.61727 0.568706 0.528111 0.50878 0.471492 0.470792 0.465233 0.454895 0.454348 0.438188 0.38885 0.380756 0.371575 0.560323 0.357349
threshold=-0.2355354103177015 -0.81843162635220235 0.56629403129765665 -0.91777517705829437 -0.84192990981832982 -2.287551911687399 -0.054542019123468628 1.5195607656261745 -0.47377454599429775 -1.3507732093501919 0.64845020949731935 0.33346855929384706 1.0967749740360866 -1.7154069441858344 3.5005238089258057 -1.4160289333755338 2.8772219967025356 0.1470322711377052 -0.58100778652475726 1.8885797020981447 -0.88671687184250725 1.5614120632346939 2.524802732201469 -1.1740814991138295 -2.0424565030899737 1.3705161983881193 0.26953563867760738 1.3656332497412846 -1.6219690523867547 -0.90198291155646049
decision_type=2 2 2 2 2 2 2 2 2 2 2 2 2 2 2 2 2 2 2 2 2 2 2 2 2 2 2 2 2 2
left_child=1 3 5 12 25 -2 24 10 29 -10 20 -8 15 22 -15 -1 21 26 -19 -13 -7 27 -14 -12 -3 -5 -9 -4 -29 -6
right_child=2 6 16 4 8 7 11 17 9 -11 23 19 13 14 -16 -17 -18 18 -20 -21 -22 -23 -24 -25 -26 -27 -28 28 -30 -31
leaf_value=-0.0048039392644399544 -0.01055893568853394 -0.010688704317780557 0.002196472379676281 -0.0041301001039613389 -0.0071577422422218762 -0.0002433333537374711 -0.00018258870343856285 -0.0059265494186886009 -0.0036183472341439192 -0.0017647566255235038 0.00021324653493407891 0.0018912127205572987 -0.0076436856215511516 0.001362114202096978 0.011316183689835868 -0.00091660317627947322 0.0069789664634457883 -0.0019250454792366302 0.0015642271701232586 0.0088791451903737408 0.0010185797359430792 -3.5303216365626347e-05 0.0042321121364477131 0.0019956699097455231 -0.0016203915980622333 -0.0076559695797176032 0.00079601874838881176 0.00087379067170225517 0.0041743750662174535 -0.0037392021162791535
leaf_count=495 78 54 4973 3350 418 3537 4369 301 3543 9044 1655 790 139 799 93 2337 299 787 891 110 18012 648 42 10524 4026 345 117 633 2744 1139
internal_value=0 -0.0196829 0.0135402 -0.0256495 -0.0294346 0.0100846 -0.00580581 0.0103365 -0.0254745 -0.0228651 0.0115161 0.00317524 -0.00835862 0.0117056 0.0239993 -0.0159606 0.0268845 -0.00864524 -0.000722791 0.0274529 0.00811452 0.0254587 -0.0488798 0.0175346 -0.0174041 -0.0445931 -0.0404487 0.0274619 0.035557 -0.0465696
internal_count=76292 31093 45199 21744 17839 35902 9349 35824 14144 12587 33728 5269 3905 1073 892 2832 9297 2096 1678 900 21549 8998 181 12179 4080 3695 418 8350 3377 1557
shrinkage=0.1


Tree=37
num_leaves=31
num_cat=0
split_feature=0 0 4 2 3 3 0 4 3 1 4 2 2 3 1 1 3 2 0 2 4 0 1 2 0 1 1 1 1 4
split_gain=16.4694 2.18339 1.69626 1.33594 1.12735 1.02 0.942284 0.983616 0.860477 0.686 0.633424 0.61942 0.600175 0.614636 0.753333 0.596712 0.565641 0.528494 0.520993 0.515153 0.513806 0.510589 0.576702 0.487103 0.473261 0.463031 0.405935 0.404565 0.387564 0.326306
threshold=-0.2355354103177015 -1.0528621784551662 0.39055148425451336 -0.47140657301246447 1.2980695846028694 -1.2331966096576115 -1.5936738041911018 1.3016806871031561 -1.6786060790700785 -0.69227661509237481 0.19551388990312316 3.1882854657240318 2.5111897547093762 0.10002006713726637 -0.007159085219754187 1.8110825147349596 5.9121285089995448 -0.81994026777932849 1.0997597207526573 0.81161800767937475 0.44821263077502488 -1.2869610700202609 2.3451026605489509 -0.89695593768749915 1.002644022651441 3.0933760734887712 -0.87898794264080948 -1.5002142350799736 0.65487647026472906 2.0985441944605463
decision_type=2 2 2 2 2 2 2 2 2 2 2 2 2 2 2 2 2 2 2 2 2 2 2 2 2 2 2 2 2 2
left_child=1 4 8 20 9 26 16 17 -2 -1 11 -7 13 14 -10 -12 -6 -8 27 29 -3 22 -11 -23 -15 -9 -5 -4 -28 -20
right_child=2 3 18 5 6 10 7 25 12 21 15 -13 -14 24 -16 -17 -18 -19 19 -21 -22 23 -24 -25 -26 -27 28 -29 -30 -31
leaf_value=-0.0059398433305092348 -0.0040413042812007249 -2.5719260635364087e-06 -0.0061704095421164038 -0.0079313229302882902 -0.0049295975947774053 -0.0015614914973051458 0.0009672447896010366 0.0031768485130409582 0.0009041248749868657 -0.0037458488539076629 0.00016101766296726239 -0.0081812167507855013 -0.0030749274925012853 0.00013283302226003275 0.0022245979985396312 0.011158104761795816 0.0031636573112336919 -0.0020076825091558197 0.0029843092932049821 0.00087198434505762778 0.0030008369119873704 -0.00020392538260763463 0.011482229351997376 -0.0026689691083222372 0.0030378840114528259 0.015351099992061364 -0.0022972002175291237 0.0017013107154161965 -0.013746085882303305 0.0051219557087904318
leaf_count=792 355 4605 66 311 787 7690 885 385 16835 4752 1517 144 374 9490 5812 51 97 1836 3733 983 650 949 25 5162 596 34 389 6072 32 883
